~o
<STREAMINFO> 1 39
<VECSIZE> 39<NULLD><MFCC_D_A_0><DIAGC>
~h "male"
<BEGINHMM>
<NUMSTATES> 3
<STATE> 2
<NUMMIXES> 4
<MIXTURE> 1 1.615011e-02
<MEAN> 39
 -2.877807e+01 -4.039252e+00 -7.332252e+00 -1.350178e+00 -2.167142e+00 -2.875225e-01 -1.301333e+00 -6.329201e-01 -2.147792e+00 3.538892e-03 1.250927e-01 1.778376e+00 1.015077e+02 9.288420e-02 1.992765e-01 2.079359e-01 1.656941e-01 4.190798e-01 4.073468e-01 4.959445e-01 3.121791e-01 2.847884e-01 2.360106e-01 3.181289e-01 1.329827e-01 4.693348e-01 -5.965052e-03 2.750679e-02 2.611590e-02 5.843509e-04 3.031727e-02 3.072361e-02 2.447160e-02 1.923282e-02 -6.532528e-03 1.325328e-02 3.057308e-02 9.648190e-03 1.565350e-01
<VARIANCE> 39
 1.795983e+01 3.373415e+00 4.760080e+00 5.927973e+00 7.049355e+00 8.886263e+00 9.154686e+00 9.036950e+00 8.940062e+00 8.730859e+00 1.053556e+01 7.282199e+00 2.306508e+02 1.308022e+00 3.280430e-01 4.800416e-01 6.777256e-01 7.645844e-01 9.385782e-01 9.939002e-01 1.169642e+00 1.098255e+00 1.063754e+00 1.084353e+00 8.678384e-01 1.927919e+01 3.980091e-01 7.226345e-02 9.322428e-02 1.129518e-01 1.472998e-01 1.619999e-01 1.801121e-01 1.957678e-01 1.918391e-01 1.781556e-01 2.002662e-01 1.499705e-01 5.090710e+00
<GCONST> 8.227943e+01
<MIXTURE> 2 4.705509e-01
<MEAN> 39
 -2.919767e+01 -3.722456e+00 -7.258509e+00 -1.760737e+00 -1.813289e+00 1.926345e-01 -7.174969e-01 -1.011947e+00 -2.675091e+00 -1.023140e-02 1.112919e+00 2.081570e+00 1.066011e+02 4.984429e-03 4.453689e-03 6.441725e-03 1.964934e-02 3.013109e-02 4.976658e-02 3.144725e-02 2.174580e-02 1.804069e-02 2.701253e-02 4.238190e-02 1.674578e-02 3.562627e-03 1.902563e-04 2.041474e-03 1.601132e-03 -2.913139e-03 -5.203370e-04 -7.018684e-03 -1.352025e-03 6.249065e-03 8.240428e-03 1.359479e-03 -6.103224e-03 -8.226366e-03 -1.857563e-03
<VARIANCE> 39
 4.562754e-01 9.118093e-01 1.669553e+00 2.747256e+00 3.646861e+00 5.319406e+00 4.857260e+00 5.523758e+00 5.912582e+00 6.117610e+00 6.664295e+00 5.469817e+00 2.898730e-01 5.199649e-02 1.060370e-01 1.930534e-01 3.023263e-01 3.994679e-01 5.275179e-01 5.502257e-01 6.387075e-01 6.767566e-01 6.880625e-01 7.091920e-01 6.419488e-01 1.216296e-02 9.887129e-03 2.025213e-02 3.714105e-02 5.888990e-02 7.856128e-02 1.031035e-01 1.087527e-01 1.248422e-01 1.304013e-01 1.322852e-01 1.352167e-01 1.212786e-01 2.313956e-03
<GCONST> 2.992335e+01
<MIXTURE> 3 4.705512e-01
<MEAN> 39
 -2.919767e+01 -3.722456e+00 -7.258509e+00 -1.760737e+00 -1.813289e+00 1.926345e-01 -7.174969e-01 -1.011947e+00 -2.675091e+00 -1.023145e-02 1.112919e+00 2.081570e+00 1.066011e+02 4.984425e-03 4.453682e-03 6.441733e-03 1.964933e-02 3.013108e-02 4.976660e-02 3.144727e-02 2.174583e-02 1.804074e-02 2.701255e-02 4.238190e-02 1.674579e-02 3.562623e-03 1.902589e-04 2.041477e-03 1.601132e-03 -2.913138e-03 -5.203356e-04 -7.018681e-03 -1.352022e-03 6.249072e-03 8.240424e-03 1.359476e-03 -6.103225e-03 -8.226377e-03 -1.857563e-03
<VARIANCE> 39
 4.562757e-01 9.118101e-01 1.669554e+00 2.747258e+00 3.646862e+00 5.319407e+00 4.857260e+00 5.523763e+00 5.912583e+00 6.117612e+00 6.664299e+00 5.469820e+00 2.898730e-01 5.199652e-02 1.060370e-01 1.930536e-01 3.023265e-01 3.994683e-01 5.275183e-01 5.502260e-01 6.387080e-01 6.767572e-01 6.880633e-01 7.091925e-01 6.419490e-01 1.216297e-02 9.887132e-03 2.025215e-02 3.714111e-02 5.888992e-02 7.856128e-02 1.031034e-01 1.087527e-01 1.248423e-01 1.304014e-01 1.322853e-01 1.352168e-01 1.212786e-01 2.313957e-03
<GCONST> 2.992337e+01
<MIXTURE> 4 4.307415e-02
<MEAN> 39
 -2.927442e+01 -3.851017e+00 -7.376430e+00 -1.801992e+00 -1.873644e+00 8.145595e-02 -8.098623e-01 -9.740444e-01 -2.594111e+00 -9.052604e-04 9.311252e-01 1.975335e+00 1.064813e+02 -1.169421e-01 -1.828275e-01 -3.131209e-01 -5.049020e-01 -6.375396e-01 -7.360007e-01 -7.730913e-01 -7.374437e-01 -6.379374e-01 -5.756415e-01 -4.707149e-01 -3.282021e-01 5.489516e-02 7.808703e-03 8.010790e-03 2.324292e-03 -8.513639e-03 -2.143889e-02 -3.830519e-02 -3.750694e-02 -2.427056e-02 -1.981634e-02 -2.166402e-02 -2.885363e-02 -1.776107e-02 -3.528109e-02
<VARIANCE> 39
 6.745020e-01 1.144034e+00 1.935351e+00 3.332495e+00 4.169440e+00 6.192986e+00 5.659743e+00 6.190187e+00 6.451144e+00 6.648101e+00 7.083651e+00 5.895268e+00 3.393681e-01 3.112311e-01 1.589400e-01 2.341917e-01 3.178772e-01 4.013900e-01 5.267261e-01 5.716947e-01 6.462172e-01 6.980592e-01 7.065286e-01 7.884220e-01 7.028416e-01 3.384086e+00 1.701856e-02 2.796463e-02 4.498411e-02 7.076732e-02 9.249569e-02 1.205660e-01 1.266163e-01 1.376242e-01 1.399140e-01 1.410564e-01 1.446140e-01 1.283415e-01 4.762423e-02
<GCONST> 4.536494e+01
<TRANSP> 3
 0.000000e+00 1.000000e+00 0.000000e+00
 0.000000e+00 9.480131e-01 5.198691e-02
 0.000000e+00 0.000000e+00 0.000000e+00
<ENDHMM>
~h "female"
<BEGINHMM>
<NUMSTATES> 3
<STATE> 2
<NUMMIXES> 4
<MIXTURE> 1 3.170685e-02
<MEAN> 39
 -2.409413e+01 -2.514202e+00 -5.251379e+00 -8.258069e-01 -1.947907e+00 8.872511e-01 -1.203485e+00 -3.513129e-01 -2.213660e+00 -5.705658e-01 5.601856e-01 1.410229e+00 7.930936e+01 3.050725e-01 6.433813e-02 -4.884450e-02 2.928382e-01 4.197285e-01 2.649485e-01 3.070619e-01 6.598830e-03 2.166456e-01 4.349294e-02 5.715694e-01 1.615423e-01 2.229942e+00 -5.392586e-01 -1.470236e-01 -1.686178e-01 -1.314031e-01 -8.642414e-02 1.652500e-02 -5.942586e-02 -1.255628e-02 -9.397212e-02 1.403887e-02 4.159624e-02 2.532336e-02 1.729669e+00
<VARIANCE> 39
 1.055852e+02 6.010828e+00 1.126923e+01 7.027651e+00 9.287560e+00 8.397344e+00 1.097981e+01 1.108543e+01 1.329577e+01 1.078532e+01 9.662653e+00 9.197242e+00 1.235870e+03 3.471946e+00 4.682235e-01 8.373822e-01 7.976221e-01 1.057929e+00 1.081094e+00 1.456979e+00 1.616586e+00 1.326352e+00 1.365108e+00 1.306442e+00 1.235542e+00 4.855322e+01 2.123433e+00 1.043600e-01 2.111556e-01 1.110831e-01 1.545416e-01 1.448780e-01 1.778645e-01 1.842854e-01 1.766601e-01 1.742810e-01 1.684908e-01 1.638871e-01 2.767743e+01
<GCONST> 9.803512e+01
<MIXTURE> 2 4.602155e-01
<MEAN> 39
 -2.894424e+01 -3.878507e+00 -7.424856e+00 -1.179324e+00 -1.817074e+00 1.420341e+00 -1.023137e+00 -7.093958e-01 -2.722756e+00 -6.450565e-01 2.555516e+00 2.376431e+00 1.066363e+02 -8.008783e-04 -2.145600e-03 3.662833e-03 9.423119e-03 1.639554e-03 -1.237401e-02 1.160049e-02 4.357897e-02 1.073922e-02 1.712098e-03 1.014252e-02 1.200328e-02 5.182152e-02 7.642602e-03 5.993885e-03 2.777313e-03 1.077353e-02 8.454590e-03 7.120598e-04 9.896244e-03 1.058176e-02 4.626592e-04 9.102670e-03 -1.290468e-02 1.247477e-02 -2.676296e-02
<VARIANCE> 39
 5.031985e-01 9.353407e-01 1.703711e+00 2.776253e+00 3.609988e+00 4.742668e+00 5.032505e+00 5.788674e+00 5.958854e+00 6.143333e+00 6.126463e+00 5.542712e+00 5.369540e-01 6.033723e-02 1.110483e-01 2.012933e-01 3.276567e-01 4.337348e-01 5.360605e-01 5.927293e-01 6.941526e-01 7.124746e-01 7.196510e-01 7.088974e-01 6.499383e-01 1.260279e-01 1.132394e-02 2.113955e-02 3.869899e-02 6.270417e-02 8.306868e-02 1.036846e-01 1.141934e-01 1.339408e-01 1.357388e-01 1.364477e-01 1.352649e-01 1.241730e-01 3.633659e-02
<GCONST> 3.692390e+01
<MIXTURE> 3 4.602163e-01
<MEAN> 39
 -2.894424e+01 -3.878507e+00 -7.424856e+00 -1.179324e+00 -1.817074e+00 1.420341e+00 -1.023137e+00 -7.093959e-01 -2.722756e+00 -6.450567e-01 2.555516e+00 2.376431e+00 1.066363e+02 -8.008741e-04 -2.145630e-03 3.662835e-03 9.423140e-03 1.639620e-03 -1.237386e-02 1.160055e-02 4.357901e-02 1.073925e-02 1.712109e-03 1.014250e-02 1.200329e-02 5.182152e-02 7.642605e-03 5.993899e-03 2.777330e-03 1.077354e-02 8.454598e-03 7.120678e-04 9.896234e-03 1.058175e-02 4.626736e-04 9.102698e-03 -1.290468e-02 1.247476e-02 -2.676297e-02
<VARIANCE> 39
 5.031993e-01 9.353426e-01 1.703715e+00 2.776256e+00 3.609994e+00 4.742674e+00 5.032509e+00 5.788678e+00 5.958864e+00 6.143336e+00 6.126474e+00 5.542717e+00 5.369555e-01 6.033727e-02 1.110483e-01 2.012935e-01 3.276572e-01 4.337355e-01 5.360614e-01 5.927299e-01 6.941536e-01 7.124758e-01 7.196519e-01 7.088984e-01 6.499391e-01 1.260282e-01 1.132396e-02 2.113958e-02 3.869903e-02 6.270425e-02 8.306879e-02 1.036847e-01 1.141935e-01 1.339409e-01 1.357390e-01 1.364479e-01 1.352652e-01 1.241732e-01 3.633666e-02
<GCONST> 3.692395e+01
<MIXTURE> 4 4.789414e-02
<MEAN> 39
 -2.882126e+01 -3.655121e+00 -7.184328e+00 -7.905416e-01 -1.559461e+00 1.859444e+00 -7.939340e-01 -7.868725e-01 -2.436060e+00 -5.896391e-01 1.910487e+00 2.384981e+00 1.038147e+02 -7.011081e-01 -3.028750e-01 -4.819241e-01 -3.881076e-01 -3.305621e-01 -3.775125e-01 -4.577691e-01 -5.893852e-01 -5.236197e-01 -4.236759e-01 2.313689e-01 -2.594993e-03 4.218128e+00 2.096034e-02 1.825194e-03 4.350727e-02 -5.517369e-02 -3.678745e-02 -1.678979e-02 -2.055256e-02 9.158189e-02 3.259169e-02 3.827652e-02 -3.027171e-02 -5.722981e-02 -6.464680e-01
<VARIANCE> 39
 1.118204e+00 1.941619e+00 3.256289e+00 5.293376e+00 7.031796e+00 9.851645e+00 1.069108e+01 9.446393e+00 9.438710e+00 9.847704e+00 1.036887e+01 8.140965e+00 1.878876e+01 5.285275e+00 4.101917e-01 7.974402e-01 6.105739e-01 8.615164e-01 1.069442e+00 1.157848e+00 1.024361e+00 1.083679e+00 1.133712e+00 1.293017e+00 1.001640e+00 7.873910e+01 2.945623e-01 5.527122e-02 9.742380e-02 1.206391e-01 1.587853e-01 1.905233e-01 2.416994e-01 2.091140e-01 2.037936e-01 2.125496e-01 2.254908e-01 1.945488e-01 4.901701e+00
<GCONST> 8.130637e+01
<TRANSP> 3
 0.000000e+00 1.000000e+00 0.000000e+00
 0.000000e+00 9.492546e-01 5.074541e-02
 0.000000e+00 0.000000e+00 0.000000e+00
<ENDHMM>
