~o
<STREAMINFO> 1 39
<VECSIZE> 39<NULLD><MFCC_D_A_0><DIAGC>
~h "proto"
<BEGINHMM>
<NUMSTATES> 3
<STATE> 2
<MEAN> 39
 -2.978728e+01 -3.822080e+00 -7.883883e+00 -2.573429e+00 -3.744423e+00 -1.430267e+00 -1.863973e+00 -1.014531e-01 -6.454332e-01 8.921803e-01 9.123364e-02 1.084011e+00 1.015910e+02 1.025625e-02 1.589987e-03 -8.001429e-04 3.676624e-03 1.519998e-03 4.132153e-03 1.479601e-03 2.475519e-03 2.231118e-03 3.035456e-03 5.887712e-03 3.021596e-03 -1.005304e-02 -2.504566e-03 -3.466727e-04 -2.199795e-04 -3.119364e-04 -5.322942e-04 -2.779590e-04 -3.350607e-04 7.138621e-05 -1.591069e-04 7.083779e-04 -7.712464e-04 5.353277e-04 4.073877e-03
<VARIANCE> 39
 0.000000e+00 1.135514e+00 2.082493e+00 2.770386e+00 3.757668e+00 4.548890e+00 5.196733e+00 5.589096e+00 5.870098e+00 6.473478e+00 6.648245e+00 5.889256e+00 1.609359e+03 3.421831e-01 1.237264e-01 2.278602e-01 3.156055e-01 4.120499e-01 5.000743e-01 5.861011e-01 6.402590e-01 6.711196e-01 7.260403e-01 7.330980e-01 6.602927e-01 3.448077e+00 5.995920e-02 2.495860e-02 4.576935e-02 6.421967e-02 8.363617e-02 1.017765e-01 1.191353e-01 1.299531e-01 1.363271e-01 1.475861e-01 1.488551e-01 1.339419e-01 5.840374e-01
<TRANSP> 3
 0.000000e+00 1.000000e+00 0.000000e+00
 0.000000e+00 7.000000e-01 3.000000e-01
 0.000000e+00 0.000000e+00 0.000000e+00
<ENDHMM>
