~o
<STREAMINFO> 1 39
<VECSIZE> 39<NULLD><MFCC_D_A_0><DIAGC>
~h "male"
<BEGINHMM>
<NUMSTATES> 3
<STATE> 2
<NUMMIXES> 4
<MIXTURE> 1 9.135437e-02
<MEAN> 39
 -2.910086e+01 -3.734564e+00 -7.217885e+00 -1.636120e+00 -1.750214e+00 3.342379e-01 -6.415164e-01 -8.218315e-01 -2.466964e+00 1.503720e-01 1.246807e+00 2.156440e+00 1.058674e+02 1.000330e-01 1.891311e-01 2.856516e-01 3.883127e-01 5.055451e-01 5.744500e-01 6.138428e-01 6.057073e-01 5.705310e-01 5.273731e-01 4.837843e-01 2.796906e-01 7.287801e-02 4.842867e-03 1.712144e-02 2.423459e-02 2.628795e-02 3.690667e-02 3.487285e-02 4.088056e-02 4.448050e-02 3.792087e-02 2.969560e-02 1.944848e-02 5.952980e-03 2.909891e-02
<VARIANCE> 39
 3.543652e+00 1.275394e+00 2.105586e+00 3.112485e+00 4.095176e+00 5.764262e+00 5.467211e+00 6.042970e+00 6.402524e+00 6.502186e+00 7.233959e+00 5.628395e+00 4.399881e+01 1.565619e-01 1.285794e-01 2.104666e-01 3.119616e-01 3.908442e-01 5.082486e-01 5.261211e-01 6.350763e-01 6.658743e-01 6.883706e-01 7.051532e-01 6.575033e-01 1.569715e+00 7.275911e-02 2.724041e-02 4.452729e-02 6.394506e-02 8.389290e-02 1.069158e-01 1.159347e-01 1.336639e-01 1.404676e-01 1.359098e-01 1.379584e-01 1.216689e-01 8.245461e-01
<GCONST> 5.330043e+01
<MIXTURE> 2 3.890338e-01
<MEAN> 39
 -2.919502e+01 -3.721223e+00 -7.252594e+00 -1.746851e+00 -1.812187e+00 1.913632e-01 -7.165796e-01 -9.994276e-01 -2.662300e+00 -7.065833e-03 1.098781e+00 2.080010e+00 1.065881e+02 3.339028e-03 2.207921e-03 4.004692e-03 1.709247e-02 2.848448e-02 5.105739e-02 2.974838e-02 1.366630e-02 1.014353e-02 2.432134e-02 4.765133e-02 2.278924e-02 5.925763e-03 3.149945e-04 1.872786e-03 1.272652e-03 -2.726835e-03 -9.874941e-05 -6.073480e-03 -9.555463e-04 6.596502e-03 8.645406e-03 2.260962e-03 -4.100107e-03 -6.643632e-03 -2.793156e-03
<VARIANCE> 39
 4.661391e-01 9.231779e-01 1.677474e+00 2.764719e+00 3.663651e+00 5.326719e+00 4.869403e+00 5.537420e+00 5.921452e+00 6.105637e+00 6.688330e+00 5.477081e+00 2.898730e-01 5.333808e-02 1.040886e-01 1.840474e-01 2.858149e-01 3.741089e-01 4.910410e-01 5.092424e-01 5.961557e-01 6.385931e-01 6.510497e-01 6.788500e-01 6.289112e-01 2.457762e-02 1.019923e-02 2.061776e-02 3.744771e-02 5.942874e-02 7.944892e-02 1.034576e-01 1.092509e-01 1.254575e-01 1.307141e-01 1.327706e-01 1.363233e-01 1.220181e-01 4.615041e-03
<GCONST> 3.092997e+01
<MIXTURE> 3 3.890337e-01
<MEAN> 39
 -2.919502e+01 -3.721223e+00 -7.252594e+00 -1.746851e+00 -1.812187e+00 1.913632e-01 -7.165796e-01 -9.994276e-01 -2.662300e+00 -7.065829e-03 1.098781e+00 2.080010e+00 1.065881e+02 3.339027e-03 2.207919e-03 4.004695e-03 1.709246e-02 2.848448e-02 5.105739e-02 2.974838e-02 1.366631e-02 1.014354e-02 2.432136e-02 4.765132e-02 2.278925e-02 5.925763e-03 3.149946e-04 1.872787e-03 1.272652e-03 -2.726835e-03 -9.874988e-05 -6.073480e-03 -9.555462e-04 6.596505e-03 8.645405e-03 2.260963e-03 -4.100108e-03 -6.643632e-03 -2.793157e-03
<VARIANCE> 39
 4.661392e-01 9.231780e-01 1.677475e+00 2.764719e+00 3.663651e+00 5.326719e+00 4.869403e+00 5.537420e+00 5.921452e+00 6.105637e+00 6.688331e+00 5.477081e+00 2.898730e-01 5.333809e-02 1.040886e-01 1.840474e-01 2.858149e-01 3.741090e-01 4.910410e-01 5.092424e-01 5.961558e-01 6.385932e-01 6.510498e-01 6.788501e-01 6.289113e-01 2.457763e-02 1.019923e-02 2.061776e-02 3.744772e-02 5.942874e-02 7.944894e-02 1.034575e-01 1.092509e-01 1.254575e-01 1.307141e-01 1.327706e-01 1.363233e-01 1.220181e-01 4.615042e-03
<GCONST> 3.092997e+01
<MIXTURE> 4 1.305435e-01
<MEAN> 39
 -2.925466e+01 -3.802946e+00 -7.370249e+00 -1.893578e+00 -1.927699e+00 5.023718e-03 -8.788497e-01 -1.160253e+00 -2.805065e+00 -1.367238e-01 9.213270e-01 1.965913e+00 1.065229e+02 -8.107895e-02 -1.490909e-01 -2.549394e-01 -3.781146e-01 -4.649394e-01 -5.401446e-01 -5.739928e-01 -5.533159e-01 -5.049592e-01 -4.800992e-01 -4.331326e-01 -3.027448e-01 1.552031e-02 -2.057239e-03 -2.386138e-03 -9.008214e-03 -2.587540e-02 -3.231404e-02 -4.762623e-02 -4.200698e-02 -3.104281e-02 -2.603160e-02 -2.997248e-02 -3.889893e-02 -2.852238e-02 -9.377183e-03
<VARIANCE> 39
 4.890252e-01 9.845196e-01 1.783013e+00 2.972908e+00 3.836698e+00 5.691340e+00 5.181743e+00 5.718081e+00 6.073242e+00 6.400118e+00 6.838665e+00 5.691627e+00 4.820027e-01 2.039816e-01 1.158795e-01 1.999611e-01 2.864531e-01 3.660862e-01 4.893352e-01 5.111517e-01 5.956139e-01 6.360812e-01 6.555569e-01 7.009325e-01 6.487548e-01 2.367780e+00 1.441742e-02 2.212646e-02 3.937081e-02 6.179430e-02 8.111989e-02 1.092633e-01 1.133842e-01 1.262342e-01 1.310596e-01 1.344027e-01 1.369803e-01 1.223026e-01 6.025236e-02
<GCONST> 4.138526e+01
<TRANSP> 3
 0.000000e+00 1.000000e+00 0.000000e+00
 0.000000e+00 9.480131e-01 5.198691e-02
 0.000000e+00 0.000000e+00 0.000000e+00
<ENDHMM>
~h "female"
<BEGINHMM>
<NUMSTATES> 3
<STATE> 2
<NUMMIXES> 4
<MIXTURE> 1 8.167373e-02
<MEAN> 39
 -2.717513e+01 -3.540913e+00 -6.774547e+00 -9.933794e-01 -1.706704e+00 1.439667e+00 -8.309184e-01 -3.671681e-01 -2.334868e+00 -3.356615e-01 2.480037e+00 2.322991e+00 9.877919e+01 1.633698e-01 1.505313e-01 2.126125e-01 4.106515e-01 5.121253e-01 4.852493e-01 6.111067e-01 6.077700e-01 5.973565e-01 5.129836e-01 4.521001e-01 3.408943e-01 3.227643e-01 -1.615016e-01 -1.695270e-02 -2.124394e-02 8.071065e-03 2.447677e-02 3.919101e-02 3.111025e-02 5.447355e-02 2.238725e-02 4.451481e-02 9.192996e-03 3.155392e-02 5.205673e-01
<VARIANCE> 39
 4.662714e+01 2.308258e+00 5.210945e+00 3.204761e+00 4.269374e+00 4.705714e+00 5.408231e+00 6.121012e+00 6.834025e+00 5.856619e+00 6.716866e+00 5.887230e+00 6.483784e+02 8.228524e-01 1.573247e-01 3.123815e-01 3.875965e-01 4.944934e-01 5.755501e-01 7.188952e-01 8.546038e-01 7.287132e-01 8.113706e-01 8.335442e-01 7.392092e-01 1.026741e+01 8.348278e-01 4.552008e-02 9.241328e-02 7.254035e-02 9.410741e-02 9.798880e-02 1.180751e-01 1.335684e-01 1.386210e-01 1.251028e-01 1.311142e-01 1.192103e-01 1.040526e+01
<GCONST> 7.195032e+01
<MIXTURE> 2 4.016139e-01
<MEAN> 39
 -2.892670e+01 -3.848291e+00 -7.388769e+00 -1.155972e+00 -1.805662e+00 1.435273e+00 -1.010967e+00 -7.000543e-01 -2.716174e+00 -6.591151e-01 2.481821e+00 2.348096e+00 1.063187e+02 -6.284162e-03 -5.673798e-03 1.324499e-03 1.130021e-02 1.056688e-02 -4.106136e-03 1.433344e-02 3.745316e-02 1.335031e-02 5.240716e-03 3.794884e-02 1.189355e-02 1.584989e-01 1.077138e-02 4.541457e-03 2.660906e-03 7.595074e-03 7.135309e-03 4.054483e-04 8.008457e-03 1.065383e-02 1.136150e-03 1.153479e-02 -9.153466e-03 1.260956e-02 -4.992232e-02
<VARIANCE> 39
 5.801261e-01 1.071546e+00 1.886677e+00 2.959720e+00 3.838436e+00 5.018798e+00 5.347296e+00 6.041658e+00 6.238426e+00 6.388978e+00 6.443018e+00 5.761119e+00 6.302341e+00 6.879921e-02 1.216528e-01 2.119169e-01 3.263776e-01 4.287280e-01 5.271422e-01 5.764595e-01 6.700889e-01 6.857551e-01 7.016596e-01 7.217753e-01 6.630551e-01 8.368586e-01 1.752703e-02 2.325615e-02 4.156744e-02 6.516546e-02 8.670166e-02 1.068497e-01 1.186842e-01 1.372933e-01 1.394653e-01 1.402888e-01 1.387786e-01 1.279118e-01 1.938344e-01
<GCONST> 4.483516e+01
<MIXTURE> 3 4.016139e-01
<MEAN> 39
 -2.892670e+01 -3.848291e+00 -7.388769e+00 -1.155972e+00 -1.805662e+00 1.435273e+00 -1.010967e+00 -7.000543e-01 -2.716174e+00 -6.591153e-01 2.481821e+00 2.348096e+00 1.063187e+02 -6.284157e-03 -5.673802e-03 1.324493e-03 1.130022e-02 1.056691e-02 -4.106091e-03 1.433345e-02 3.745317e-02 1.335032e-02 5.240716e-03 3.794883e-02 1.189354e-02 1.584989e-01 1.077138e-02 4.541456e-03 2.660909e-03 7.595073e-03 7.135310e-03 4.054481e-04 8.008455e-03 1.065382e-02 1.136154e-03 1.153479e-02 -9.153463e-03 1.260955e-02 -4.992232e-02
<VARIANCE> 39
 5.801261e-01 1.071547e+00 1.886677e+00 2.959720e+00 3.838437e+00 5.018798e+00 5.347296e+00 6.041659e+00 6.238428e+00 6.388978e+00 6.443019e+00 5.761120e+00 6.302341e+00 6.879921e-02 1.216528e-01 2.119169e-01 3.263777e-01 4.287280e-01 5.271423e-01 5.764596e-01 6.700889e-01 6.857553e-01 7.016597e-01 7.217754e-01 6.630552e-01 8.368587e-01 1.752704e-02 2.325616e-02 4.156745e-02 6.516546e-02 8.670167e-02 1.068497e-01 1.186842e-01 1.372933e-01 1.394653e-01 1.402888e-01 1.387787e-01 1.279118e-01 1.938344e-01
<GCONST> 4.483516e+01
<MIXTURE> 4 1.151009e-01
<MEAN> 39
 -2.893471e+01 -3.860154e+00 -7.439332e+00 -1.215076e+00 -1.903873e+00 1.338285e+00 -1.198773e+00 -9.510244e-01 -2.784390e+00 -7.229060e-01 2.305322e+00 2.349489e+00 1.057262e+02 -2.861681e-01 -1.926782e-01 -3.448001e-01 -3.757163e-01 -4.459438e-01 -4.987101e-01 -5.467767e-01 -5.875662e-01 -5.893547e-01 -5.511908e-01 -2.508002e-01 -1.854827e-01 1.448713e+00 -3.928312e-02 -1.147401e-02 -9.631125e-03 -3.173362e-02 -3.866885e-02 -2.737866e-02 -2.374864e-02 6.264549e-03 -3.243991e-02 -1.949912e-02 -4.697633e-02 -2.746897e-02 -2.752991e-02
<VARIANCE> 39
 7.027462e-01 1.273726e+00 2.235763e+00 3.478910e+00 4.551934e+00 6.125913e+00 6.536208e+00 6.665875e+00 6.852310e+00 7.381948e+00 7.405005e+00 6.112325e+00 1.216521e+01 2.703195e+00 2.130216e-01 4.181084e-01 3.666292e-01 4.839227e-01 6.064657e-01 6.389822e-01 6.825424e-01 7.373294e-01 7.149175e-01 8.335578e-01 6.934029e-01 4.046713e+01 1.432513e-01 3.196581e-02 6.073849e-02 8.149855e-02 1.020178e-01 1.315052e-01 1.509644e-01 1.574917e-01 1.487804e-01 1.584306e-01 1.597564e-01 1.420764e-01 2.011414e+00
<GCONST> 6.340433e+01
<TRANSP> 3
 0.000000e+00 1.000000e+00 0.000000e+00
 0.000000e+00 9.492546e-01 5.074541e-02
 0.000000e+00 0.000000e+00 0.000000e+00
<ENDHMM>
