~o
<STREAMINFO> 1 39
<VECSIZE> 39<NULLD><MFCC_D_A_0><DIAGC>
~h "male"
<BEGINHMM>
<NUMSTATES> 3
<STATE> 2
<NUMMIXES> 4
<MIXTURE> 1 9.671045e-03
<MEAN> 39
 -2.828222e+01 -4.030344e+00 -7.236279e+00 -8.797063e-01 -2.310984e+00 -5.783117e-01 -1.778293e+00 -4.892231e-01 -1.955073e+00 -4.363065e-02 -5.327358e-01 1.658029e+00 9.811452e+01 -2.030434e-02 1.365547e-01 6.648581e-02 -1.047653e-01 1.978512e-01 9.886674e-02 2.416431e-01 -2.721022e-02 2.728887e-04 -4.033309e-02 1.651948e-01 2.870749e-02 9.683704e-01 -4.472253e-02 1.676122e-02 2.223299e-02 -5.231886e-02 2.880896e-02 3.806969e-02 4.427414e-02 1.180338e-02 -1.644060e-02 2.257040e-02 6.592114e-02 8.027662e-03 2.945687e-01
<VARIANCE> 39
 2.825713e+01 4.382344e+00 6.626164e+00 7.274452e+00 9.046992e+00 1.078709e+01 1.120772e+01 1.116887e+01 1.071722e+01 1.067894e+01 1.194936e+01 8.386579e+00 3.565690e+02 3.053694e+00 4.915979e-01 7.295378e-01 8.480735e-01 1.012525e+00 1.131523e+00 1.270437e+00 1.386221e+00 1.257634e+00 1.145971e+00 1.287779e+00 1.009188e+00 4.576759e+01 6.388491e-01 9.173856e-02 1.275146e-01 1.409174e-01 1.888053e-01 2.009699e-01 2.288662e-01 2.477111e-01 2.324689e-01 2.091135e-01 2.354639e-01 1.721541e-01 8.498480e+00
<GCONST> 9.299792e+01
<MIXTURE> 2 4.756181e-01
<MEAN> 39
 -2.919272e+01 -3.715067e+00 -7.251428e+00 -1.755861e+00 -1.810242e+00 1.908048e-01 -7.228143e-01 -1.021821e+00 -2.686207e+00 -1.729716e-02 1.110478e+00 2.080938e+00 1.066031e+02 5.044773e-03 3.922970e-03 5.034624e-03 1.771625e-02 2.739375e-02 4.609326e-02 2.723631e-02 1.785257e-02 1.378110e-02 2.169209e-02 3.581009e-02 1.207086e-02 3.553382e-03 -6.831520e-04 7.509850e-04 1.184605e-04 -4.533742e-03 -1.801181e-03 -7.801353e-03 -1.452202e-03 6.620781e-03 8.782870e-03 1.590445e-03 -6.473866e-03 -8.730464e-03 -2.097649e-03
<VARIANCE> 39
 4.538467e-01 8.984661e-01 1.649834e+00 2.726043e+00 3.623464e+00 5.293835e+00 4.832314e+00 5.492222e+00 5.888536e+00 6.106481e+00 6.651937e+00 5.459544e+00 2.898730e-01 5.256111e-02 1.064227e-01 1.940404e-01 3.053525e-01 4.046829e-01 5.358614e-01 5.603716e-01 6.475028e-01 6.842694e-01 6.960416e-01 7.155209e-01 6.441501e-01 1.211102e-02 9.776589e-03 1.989076e-02 3.657485e-02 5.814883e-02 7.775149e-02 1.022238e-01 1.078271e-01 1.239036e-01 1.296894e-01 1.317838e-01 1.345553e-01 1.207036e-01 2.264479e-03
<GCONST> 2.983973e+01
<MIXTURE> 3 4.756171e-01
<MEAN> 39
 -2.919272e+01 -3.715068e+00 -7.251429e+00 -1.755862e+00 -1.810243e+00 1.908045e-01 -7.228147e-01 -1.021821e+00 -2.686207e+00 -1.729694e-02 1.110478e+00 2.080939e+00 1.066031e+02 5.044810e-03 3.923039e-03 5.034803e-03 1.771657e-02 2.739421e-02 4.609390e-02 2.723696e-02 1.785329e-02 1.378177e-02 2.169259e-02 3.581051e-02 1.207103e-02 3.553407e-03 -6.830296e-04 7.511430e-04 1.186446e-04 -4.533602e-03 -1.801083e-03 -7.801285e-03 -1.452158e-03 6.620810e-03 8.782875e-03 1.590395e-03 -6.473939e-03 -8.730552e-03 -2.097597e-03
<VARIANCE> 39
 4.538440e-01 8.984618e-01 1.649826e+00 2.726023e+00 3.623435e+00 5.293791e+00 4.832279e+00 5.492182e+00 5.888490e+00 6.106441e+00 6.651891e+00 5.459510e+00 2.898730e-01 5.256063e-02 1.064217e-01 1.940390e-01 3.053506e-01 4.046798e-01 5.358569e-01 5.603668e-01 6.474976e-01 6.842639e-01 6.960369e-01 7.155149e-01 6.441445e-01 1.211092e-02 9.776517e-03 1.989068e-02 3.657477e-02 5.814848e-02 7.775085e-02 1.022227e-01 1.078262e-01 1.239031e-01 1.296889e-01 1.317832e-01 1.345547e-01 1.207029e-01 2.264465e-03
<GCONST> 2.983947e+01
<MIXTURE> 4 3.928416e-02
<MEAN> 39
 -2.945462e+01 -4.096749e+00 -7.595108e+00 -1.972301e+00 -1.976196e+00 1.074073e-01 -6.689320e-01 -7.043490e-01 -2.277816e+00 1.848882e-01 9.718450e-01 1.960018e+00 1.064183e+02 -8.779027e-02 -1.404539e-01 -2.418057e-01 -4.180023e-01 -5.170322e-01 -5.879476e-01 -6.095088e-01 -5.848875e-01 -4.839786e-01 -4.024436e-01 -2.780376e-01 -2.035174e-01 1.400679e-02 3.821269e-02 4.667564e-02 4.329086e-02 4.377621e-02 1.300311e-02 -1.797055e-02 -3.919168e-02 -3.225137e-02 -3.566148e-02 -2.982060e-02 -2.474763e-02 -3.146468e-03 -4.053592e-02
<VARIANCE> 39
 9.142768e-01 1.545109e+00 2.397776e+00 3.940230e+00 4.837513e+00 6.991926e+00 6.432163e+00 6.989657e+00 7.003284e+00 6.902891e+00 7.488778e+00 6.222954e+00 2.983268e-01 1.109870e-01 1.802318e-01 2.670045e-01 3.822711e-01 5.204722e-01 6.688431e-01 7.114452e-01 7.681320e-01 7.995221e-01 7.893668e-01 8.696501e-01 7.471113e-01 2.308044e-01 2.327441e-02 3.953907e-02 5.875332e-02 8.930935e-02 1.152881e-01 1.450718e-01 1.507039e-01 1.605570e-01 1.575306e-01 1.539644e-01 1.635700e-01 1.428041e-01 4.194180e-02
<GCONST> 4.719394e+01
<TRANSP> 3
 0.000000e+00 1.000000e+00 0.000000e+00
 0.000000e+00 9.480131e-01 5.198691e-02
 0.000000e+00 0.000000e+00 0.000000e+00
<ENDHMM>
~h "female"
<BEGINHMM>
<NUMSTATES> 3
<STATE> 2
<NUMMIXES> 4
<MIXTURE> 1 2.195630e-02
<MEAN> 39
 -2.206424e+01 -1.939107e+00 -4.197659e+00 -5.835990e-01 -1.988372e+00 7.477455e-01 -1.086532e+00 1.790830e-01 -1.646245e+00 -1.469406e-01 -1.343985e-01 9.310752e-01 6.870567e+01 4.705319e-01 1.025320e-01 -1.188466e-01 3.421077e-01 4.234055e-01 2.064070e-01 1.990151e-01 -2.992160e-01 6.686351e-02 -1.444756e-01 5.649119e-01 2.082060e-01 2.387016e+00 -1.204231e+00 -2.865134e-01 -3.769432e-01 -2.121836e-01 -1.364710e-01 5.493286e-02 -7.328496e-02 -2.762356e-02 -1.610172e-01 -1.803099e-03 1.157290e-01 9.995596e-02 4.258572e+00
<VARIANCE> 39
 1.386439e+02 6.884046e+00 1.141691e+01 8.651168e+00 1.162655e+01 1.023085e+01 1.458502e+01 1.238013e+01 1.611901e+01 1.250844e+01 9.481028e+00 1.036774e+01 1.402728e+03 1.009672e+01 6.702880e-01 1.354163e+00 8.568813e-01 1.224273e+00 1.224716e+00 1.718790e+00 1.655445e+00 1.419569e+00 1.314234e+00 1.349674e+00 1.413795e+00 1.395346e+02 1.819264e+00 7.561865e-02 1.600611e-01 1.150757e-01 1.725773e-01 1.688377e-01 2.323440e-01 2.073497e-01 1.934488e-01 1.924705e-01 1.642871e-01 1.874198e-01 2.137508e+01
<GCONST> 1.037107e+02
<MIXTURE> 2 4.386650e-01
<MEAN> 39
 -2.895135e+01 -3.884350e+00 -7.429950e+00 -1.190556e+00 -1.823805e+00 1.404421e+00 -1.024786e+00 -6.971863e-01 -2.726429e+00 -6.448584e-01 2.575950e+00 2.382558e+00 1.067189e+02 2.556739e-03 -9.958151e-04 1.749872e-03 1.011021e-02 -3.602144e-03 -1.976327e-02 5.074524e-03 3.460844e-02 1.655193e-03 -3.928142e-03 -7.324505e-03 1.068487e-02 1.603695e-02 7.178912e-03 5.331420e-03 2.140412e-03 1.155139e-02 9.060977e-03 3.496596e-04 1.073257e-02 1.064804e-02 -5.799808e-04 9.159199e-03 -1.285484e-02 1.333054e-02 -1.408389e-02
<VARIANCE> 39
 4.925438e-01 9.180828e-01 1.679790e+00 2.707185e+00 3.510391e+00 4.672159e+00 4.948310e+00 5.684642e+00 5.853158e+00 6.039889e+00 6.045349e+00 5.471521e+00 2.898730e-01 5.888511e-02 1.083634e-01 1.977625e-01 3.192220e-01 4.210726e-01 5.268629e-01 5.836244e-01 6.847149e-01 6.988397e-01 7.063057e-01 6.880053e-01 6.324746e-01 2.409678e-02 1.103679e-02 2.060437e-02 3.771367e-02 6.093673e-02 8.058396e-02 1.014438e-01 1.122544e-01 1.311364e-01 1.330051e-01 1.340157e-01 1.327761e-01 1.224298e-01 9.394189e-03
<GCONST> 3.255061e+01
<MIXTURE> 3 4.386668e-01
<MEAN> 39
 -2.895135e+01 -3.884354e+00 -7.429955e+00 -1.190561e+00 -1.823809e+00 1.404419e+00 -1.024788e+00 -6.971884e-01 -2.726429e+00 -6.448582e-01 2.575948e+00 2.382557e+00 1.067189e+02 2.556167e-03 -9.962221e-04 1.749596e-03 1.010926e-02 -3.602576e-03 -1.976303e-02 5.074458e-03 3.460890e-02 1.655908e-03 -3.928570e-03 -7.323766e-03 1.068390e-02 1.603832e-02 7.179440e-03 5.332195e-03 2.141251e-03 1.155216e-02 9.061571e-03 3.502231e-04 1.073287e-02 1.064815e-02 -5.798199e-04 9.159147e-03 -1.285514e-02 1.333049e-02 -1.408506e-02
<VARIANCE> 39
 4.925430e-01 9.180817e-01 1.679785e+00 2.707167e+00 3.510357e+00 4.672120e+00 4.948272e+00 5.684603e+00 5.853132e+00 6.039850e+00 6.045330e+00 5.471472e+00 2.898730e-01 5.888460e-02 1.083623e-01 1.977607e-01 3.192192e-01 4.210696e-01 5.268576e-01 5.836189e-01 6.847090e-01 6.988342e-01 7.062986e-01 6.879979e-01 6.324674e-01 2.409801e-02 1.103677e-02 2.060437e-02 3.771362e-02 6.093641e-02 8.058341e-02 1.014433e-01 1.122536e-01 1.311358e-01 1.330048e-01 1.340157e-01 1.327759e-01 1.224291e-01 9.394838e-03
<GCONST> 3.255053e+01
<MIXTURE> 4 1.007141e-01
<MEAN> 39
 -2.879677e+01 -3.714666e+00 -7.285382e+00 -9.151623e-01 -1.639765e+00 1.746634e+00 -9.427242e-01 -9.335518e-01 -2.628840e+00 -7.055644e-01 2.029059e+00 2.338058e+00 1.042418e+02 -3.695276e-01 -1.570553e-01 -2.004067e-01 -1.688955e-01 -7.099006e-02 -8.202587e-02 -1.025854e-01 -1.161779e-01 -1.116448e-01 -1.064130e-01 3.233003e-01 2.085991e-02 2.521385e+00 1.100309e-01 2.537446e-02 5.651357e-02 -2.351920e-02 -1.661891e-02 -1.129835e-02 -1.555955e-02 4.956758e-02 3.029641e-02 2.641429e-02 -3.248280e-02 -4.315386e-02 -8.131595e-01
<VARIANCE> 39
 9.270298e-01 1.628193e+00 2.769544e+00 4.596609e+00 6.144664e+00 7.716108e+00 8.276361e+00 8.486444e+00 8.490642e+00 8.827783e+00 8.827838e+00 7.335928e+00 1.544705e+01 1.521994e+00 2.852662e-01 5.326075e-01 6.128889e-01 8.350176e-01 9.633417e-01 1.078794e+00 1.153630e+00 1.179901e+00 1.176632e+00 1.172034e+00 9.860669e-01 2.570243e+01 1.829142e-01 4.471127e-02 7.876939e-02 1.059018e-01 1.423340e-01 1.627348e-01 1.858407e-01 1.954648e-01 1.889799e-01 1.936537e-01 2.011155e-01 1.691826e-01 3.165384e+00
<GCONST> 7.352592e+01
<TRANSP> 3
 0.000000e+00 1.000000e+00 0.000000e+00
 0.000000e+00 9.492546e-01 5.074541e-02
 0.000000e+00 0.000000e+00 0.000000e+00
<ENDHMM>
