~o
<STREAMINFO> 1 39
<VECSIZE> 39<NULLD><MFCC_D_A_0><DIAGC>
~h "male"
<BEGINHMM>
<NUMSTATES> 3
<STATE> 2
<NUMMIXES> 4
<MIXTURE> 1 9.398015e-03
<MEAN> 39
 -2.821170e+01 -3.969852e+00 -7.164188e+00 -7.964296e-01 -2.255292e+00 -5.146245e-01 -1.740387e+00 -4.593058e-01 -1.946712e+00 -5.060520e-02 -5.424756e-01 1.663817e+00 9.791483e+01 -2.368549e-02 1.283873e-01 5.252852e-02 -1.230846e-01 1.689442e-01 7.094824e-02 2.125865e-01 -5.785166e-02 -2.022045e-02 -5.708181e-02 1.545530e-01 2.208934e-02 1.008250e+00 -5.235426e-02 7.305480e-03 1.352456e-02 -6.025016e-02 2.164559e-02 2.983104e-02 3.944334e-02 1.156462e-02 -1.503038e-02 2.358931e-02 6.511095e-02 5.196470e-03 2.981853e-01
<VARIANCE> 39
 2.888399e+01 4.366459e+00 6.552126e+00 7.048778e+00 9.001119e+00 1.071325e+01 1.115489e+01 1.108321e+01 1.064877e+01 1.054016e+01 1.191167e+01 8.424761e+00 3.655054e+02 3.139447e+00 5.040169e-01 7.417182e-01 8.527824e-01 1.032026e+00 1.147680e+00 1.303116e+00 1.403392e+00 1.263274e+00 1.146413e+00 1.306357e+00 1.018488e+00 4.719324e+01 6.544464e-01 9.080773e-02 1.268004e-01 1.389288e-01 1.880097e-01 1.994959e-01 2.279222e-01 2.472921e-01 2.327725e-01 2.079189e-01 2.365404e-01 1.741481e-01 8.744463e+00
<GCONST> 9.317735e+01
<MIXTURE> 2 4.696932e-01
<MEAN> 39
 -2.918045e+01 -3.697214e+00 -7.231607e+00 -1.737842e+00 -1.797745e+00 1.958662e-01 -7.261704e-01 -1.031192e+00 -2.698114e+00 -2.719255e-02 1.106191e+00 2.078593e+00 1.066080e+02 5.572001e-03 4.680846e-03 6.193475e-03 1.956490e-02 2.979868e-02 4.875309e-02 2.986827e-02 1.996717e-02 1.518586e-02 2.260968e-02 3.599603e-02 1.207532e-02 3.710122e-03 -2.482239e-03 -1.878723e-03 -2.827025e-03 -7.243866e-03 -3.704973e-03 -8.552925e-03 -9.821398e-04 7.972550e-03 1.051584e-02 2.995927e-03 -5.734948e-03 -8.458090e-03 -2.771047e-03
<VARIANCE> 39
 4.429522e-01 8.741379e-01 1.616527e+00 2.692936e+00 3.589475e+00 5.251717e+00 4.789359e+00 5.446922e+00 5.848353e+00 6.073939e+00 6.622332e+00 5.439206e+00 2.898730e-01 5.224862e-02 1.059352e-01 1.934448e-01 3.049525e-01 4.043219e-01 5.355457e-01 5.605314e-01 6.475604e-01 6.841015e-01 6.961468e-01 7.151712e-01 6.438272e-01 1.201476e-02 9.507493e-03 1.934617e-02 3.581231e-02 5.732854e-02 7.690807e-02 1.011697e-01 1.067383e-01 1.228190e-01 1.286566e-01 1.309304e-01 1.338040e-01 1.201950e-01 2.210564e-03
<GCONST> 2.949569e+01
<MIXTURE> 3 4.696893e-01
<MEAN> 39
 -2.918045e+01 -3.697216e+00 -7.231612e+00 -1.737847e+00 -1.797749e+00 1.958630e-01 -7.261710e-01 -1.031192e+00 -2.698113e+00 -2.718965e-02 1.106194e+00 2.078596e+00 1.066080e+02 5.571901e-03 4.680713e-03 6.193259e-03 1.956451e-02 2.979844e-02 4.875278e-02 2.986825e-02 1.996736e-02 1.518626e-02 2.260998e-02 3.599607e-02 1.207529e-02 3.710067e-03 -2.481979e-03 -1.878165e-03 -2.826223e-03 -7.242986e-03 -3.704230e-03 -8.552390e-03 -9.819373e-04 7.972458e-03 1.051554e-02 2.995528e-03 -5.735329e-03 -8.458398e-03 -2.770985e-03
<VARIANCE> 39
 4.429493e-01 8.741356e-01 1.616522e+00 2.692912e+00 3.589439e+00 5.251656e+00 4.789303e+00 5.446867e+00 5.848294e+00 6.073885e+00 6.622290e+00 5.439160e+00 2.898730e-01 5.224800e-02 1.059341e-01 1.934436e-01 3.049511e-01 4.043193e-01 5.355420e-01 5.605272e-01 6.475554e-01 6.840961e-01 6.961408e-01 7.151653e-01 6.438226e-01 1.201464e-02 9.507423e-03 1.934604e-02 3.581218e-02 5.732803e-02 7.690707e-02 1.011678e-01 1.067369e-01 1.228184e-01 1.286556e-01 1.309291e-01 1.338030e-01 1.201942e-01 2.210543e-03
<GCONST> 2.949536e+01
<MIXTURE> 4 5.143217e-02
<MEAN> 39
 -2.962483e+01 -4.345326e+00 -7.888922e+00 -2.260756e+00 -2.178026e+00 1.897962e-02 -6.329110e-01 -6.108692e-01 -2.154529e+00 3.189335e-01 1.075926e+00 2.028100e+00 1.063629e+02 -7.499783e-02 -1.179822e-01 -2.017657e-01 -3.461077e-01 -4.261221e-01 -4.813208e-01 -5.006739e-01 -4.757262e-01 -3.883495e-01 -3.162596e-01 -2.046500e-01 -1.513654e-01 6.512096e-03 6.303609e-02 8.565708e-02 8.858392e-02 8.304284e-02 4.573807e-02 -9.777583e-05 -3.773446e-02 -4.768013e-02 -5.719608e-02 -4.813777e-02 -3.339044e-02 -8.833292e-03 -1.824367e-02
<VARIANCE> 39
 8.803632e-01 1.572720e+00 2.543707e+00 4.073047e+00 5.100593e+00 7.395632e+00 6.894530e+00 7.407375e+00 7.350548e+00 7.273368e+00 7.884274e+00 6.430468e+00 2.898730e-01 1.032496e-01 1.729642e-01 2.652539e-01 3.849933e-01 5.215400e-01 6.721603e-01 7.035510e-01 7.721182e-01 8.041737e-01 7.899721e-01 8.569186e-01 7.374533e-01 1.540000e-01 2.239492e-02 3.970022e-02 6.153506e-02 9.155374e-02 1.204483e-01 1.551065e-01 1.610736e-01 1.705567e-01 1.673722e-01 1.631484e-01 1.702771e-01 1.467543e-01 3.464587e-02
<GCONST> 4.739029e+01
<TRANSP> 3
 0.000000e+00 1.000000e+00 0.000000e+00
 0.000000e+00 9.480131e-01 5.198691e-02
 0.000000e+00 0.000000e+00 0.000000e+00
<ENDHMM>
~h "female"
<BEGINHMM>
<NUMSTATES> 3
<STATE> 2
<NUMMIXES> 4
<MIXTURE> 1 2.363176e-02
<MEAN> 39
 -2.254438e+01 -2.063374e+00 -4.385571e+00 -5.504618e-01 -1.937532e+00 8.702048e-01 -9.948699e-01 1.283957e-01 -1.684872e+00 -1.478140e-01 5.578399e-03 1.029849e+00 7.117603e+01 6.452975e-02 2.944776e-02 -2.424991e-01 2.692265e-01 3.544662e-01 1.955507e-01 1.576510e-01 -3.502918e-01 -2.455857e-02 -1.860628e-01 5.664573e-01 2.302122e-01 3.744441e+00 -1.110928e+00 -2.669176e-01 -3.425504e-01 -2.108828e-01 -1.327326e-01 4.488066e-02 -7.869907e-02 -1.218989e-02 -1.449130e-01 7.949110e-03 1.098682e-01 8.970125e-02 3.847532e+00
<VARIANCE> 39
 1.318814e+02 6.728777e+00 1.119936e+01 8.472084e+00 1.126345e+01 1.068772e+01 1.451458e+01 1.205469e+01 1.547645e+01 1.242143e+01 9.917841e+00 1.060815e+01 1.384283e+03 1.220554e+01 7.151016e-01 1.459540e+00 8.517655e-01 1.194977e+00 1.183045e+00 1.664308e+00 1.510449e+00 1.357875e+00 1.263649e+00 1.309345e+00 1.345120e+00 1.618065e+02 1.869722e+00 8.197731e-02 1.746991e-01 1.233605e-01 1.745228e-01 1.805895e-01 2.435298e-01 2.143672e-01 1.970914e-01 2.013116e-01 1.690596e-01 1.980794e-01 2.278587e+01
<GCONST> 1.043456e+02
<MIXTURE> 2 4.306034e-01
<MEAN> 39
 -2.895430e+01 -3.886455e+00 -7.428804e+00 -1.191118e+00 -1.826822e+00 1.401007e+00 -1.024371e+00 -6.957511e-01 -2.728139e+00 -6.456555e-01 2.578391e+00 2.380081e+00 1.067228e+02 4.054669e-03 -2.476922e-04 2.413042e-03 1.298479e-02 -3.164323e-03 -2.013607e-02 6.292075e-03 3.330776e-02 -1.267566e-03 -4.198305e-03 -1.075623e-02 1.174789e-02 1.078496e-02 7.112258e-03 4.952876e-03 1.484990e-03 1.119577e-02 9.413010e-03 2.063140e-04 1.069242e-02 1.146484e-02 -1.241114e-04 9.743948e-03 -1.183148e-02 1.396060e-02 -9.512190e-03
<VARIANCE> 39
 4.895308e-01 9.139814e-01 1.675747e+00 2.707126e+00 3.503675e+00 4.673167e+00 4.934519e+00 5.655131e+00 5.843436e+00 6.027277e+00 6.043675e+00 5.471203e+00 2.898730e-01 5.839745e-02 1.079051e-01 1.967493e-01 3.171631e-01 4.193844e-01 5.255795e-01 5.808481e-01 6.823090e-01 6.946340e-01 7.039300e-01 6.851084e-01 6.298014e-01 1.713318e-02 1.093621e-02 2.045268e-02 3.742748e-02 6.064222e-02 8.033651e-02 1.014320e-01 1.117322e-01 1.301616e-01 1.321335e-01 1.333881e-01 1.320035e-01 1.218627e-01 6.073961e-03
<GCONST> 3.162384e+01
<MIXTURE> 3 4.306054e-01
<MEAN> 39
 -2.895430e+01 -3.886467e+00 -7.428822e+00 -1.191140e+00 -1.826839e+00 1.400998e+00 -1.024384e+00 -6.957606e-01 -2.728139e+00 -6.456556e-01 2.578395e+00 2.380081e+00 1.067228e+02 4.053703e-03 -2.483897e-04 2.412085e-03 1.298127e-02 -3.166014e-03 -2.013617e-02 6.291206e-03 3.330895e-02 -1.265460e-03 -4.200310e-03 -1.075428e-02 1.174511e-02 1.078770e-02 7.113467e-03 4.955233e-03 1.488098e-03 1.119936e-02 9.415624e-03 2.087204e-04 1.069406e-02 1.146526e-02 -1.239868e-04 9.743754e-03 -1.183284e-02 1.396003e-02 -9.516662e-03
<VARIANCE> 39
 4.895171e-01 9.139484e-01 1.675678e+00 2.706997e+00 3.503498e+00 4.672913e+00 4.934258e+00 5.654857e+00 5.843171e+00 6.027028e+00 6.043430e+00 5.470940e+00 2.898730e-01 5.839568e-02 1.079004e-01 1.967403e-01 3.171483e-01 4.193647e-01 5.255536e-01 5.808196e-01 6.822777e-01 6.946015e-01 7.038953e-01 6.850754e-01 6.297729e-01 1.713495e-02 1.093598e-02 2.045209e-02 3.742628e-02 6.063968e-02 8.033302e-02 1.014275e-01 1.117273e-01 1.301559e-01 1.321284e-01 1.333831e-01 1.319988e-01 1.218583e-01 6.075752e-03
<GCONST> 3.162271e+01
<MIXTURE> 4 1.151633e-01
<MEAN> 39
 -2.879576e+01 -3.722986e+00 -7.320506e+00 -9.610824e-01 -1.648281e+00 1.713683e+00 -9.739951e-01 -9.169472e-01 -2.636081e+00 -6.990490e-01 2.090113e+00 2.363008e+00 1.045694e+02 -2.575402e-01 -1.295776e-01 -1.528710e-01 -1.577978e-01 -5.787079e-02 -7.248773e-02 -9.251313e-02 -7.219788e-02 -5.776715e-02 -8.094981e-02 2.988339e-01 4.250772e-03 1.933278e+00 9.610042e-02 2.590939e-02 5.304198e-02 -1.348203e-02 -1.468693e-02 -7.502896e-03 -9.632260e-03 3.596476e-02 2.204280e-02 1.803526e-02 -3.833742e-02 -3.993284e-02 -7.248928e-01
<VARIANCE> 39
 8.892508e-01 1.555060e+00 2.662593e+00 4.310449e+00 5.822602e+00 7.183200e+00 7.840947e+00 8.332950e+00 8.215595e+00 8.493350e+00 8.422657e+00 7.011956e+00 1.396530e+01 8.576891e-01 2.557542e-01 4.621068e-01 5.917174e-01 7.995595e-01 9.174917e-01 1.035167e+00 1.127794e+00 1.161571e+00 1.137225e+00 1.128360e+00 9.620904e-01 1.596543e+01 1.500366e-01 4.167323e-02 7.398831e-02 9.982195e-02 1.346359e-01 1.519772e-01 1.763815e-01 1.930040e-01 1.878176e-01 1.884183e-01 1.966418e-01 1.646194e-01 2.667420e+00
<GCONST> 7.043428e+01
<TRANSP> 3
 0.000000e+00 1.000000e+00 0.000000e+00
 0.000000e+00 9.492546e-01 5.074541e-02
 0.000000e+00 0.000000e+00 0.000000e+00
<ENDHMM>
