~o
<STREAMINFO> 1 39
<VECSIZE> 39<NULLD><MFCC_D_A_0><DIAGC>
~h "male"
<BEGINHMM>
<NUMSTATES> 3
<STATE> 2
<MEAN> 39
 -2.919407e+01 -3.732826e+00 -7.264613e+00 -1.752829e+00 -1.818287e+00 1.942166e-01 -7.148492e-01 -9.908114e-01 -2.655998e+00 -4.388453e-03 1.098448e+00 2.071871e+00 1.065156e+02 1.951274e-04 -9.121028e-04 -4.116690e-03 -3.841884e-04 7.555825e-03 2.116132e-02 3.860296e-03 -6.311484e-03 -8.078255e-03 3.143493e-03 2.313694e-02 1.435115e-03 1.417037e-02 4.129797e-04 2.877840e-03 2.015903e-03 -3.142906e-03 -7.768810e-04 -7.758279e-03 -2.854097e-03 4.868181e-03 7.033037e-03 5.354114e-04 -6.709815e-03 -8.852465e-03 -6.281985e-04
<VARIANCE> 39
 7.471952e-01 9.603767e-01 1.721881e+00 2.815870e+00 3.716611e+00 5.451261e+00 4.976113e+00 5.633361e+00 6.011134e+00 6.188614e+00 6.750349e+00 5.520415e+00 4.157740e+00 8.340594e-02 1.137960e-01 2.037660e-01 3.203350e-01 4.272739e-01 5.619623e-01 5.911993e-01 6.737512e-01 7.069759e-01 7.180840e-01 7.320747e-01 6.567263e-01 4.469016e-01 1.655164e-02 2.141494e-02 3.840159e-02 6.027028e-02 8.053555e-02 1.050329e-01 1.110704e-01 1.268826e-01 1.325271e-01 1.350763e-01 1.368612e-01 1.225251e-01 8.456783e-02
<GCONST> 4.234653e+01
<TRANSP> 3
 0.000000e+00 1.000000e+00 0.000000e+00
 0.000000e+00 9.478431e-01 5.215686e-02
 0.000000e+00 0.000000e+00 0.000000e+00
<ENDHMM>
~h "female"
<BEGINHMM>
<NUMSTATES> 3
<STATE> 2
<MEAN> 39
 -2.877400e+01 -3.831285e+00 -7.342333e+00 -1.144432e+00 -1.810883e+00 1.431291e+00 -1.030707e+00 -7.195728e-01 -2.711679e+00 -6.624506e-01 2.460262e+00 2.335573e+00 1.056382e+02 -2.350071e-02 -1.311269e-02 -1.931260e-02 -2.544820e-03 -2.223038e-03 -1.588802e-02 5.609806e-03 1.773858e-02 -3.702702e-04 -1.897897e-02 3.753950e-02 1.665916e-02 3.092931e-01 -9.453038e-03 1.276048e-03 -5.426544e-04 4.130190e-03 2.996108e-03 -9.807869e-04 7.329191e-03 1.264440e-02 -1.312528e-03 1.026657e-02 -1.253537e-02 1.246915e-02 6.509488e-04
<VARIANCE> 39
 4.732838e+00 1.163721e+00 2.254936e+00 2.996520e+00 3.915008e+00 5.086855e+00 5.439331e+00 6.229205e+00 6.389284e+00 6.431691e+00 6.534255e+00 5.749094e+00 6.550575e+01 4.667298e-01 1.386397e-01 2.644697e-01 3.590020e-01 4.782166e-01 5.804700e-01 6.486588e-01 7.612335e-01 7.558586e-01 7.596886e-01 7.641013e-01 6.857155e-01 6.467051e+00 1.037115e-01 2.613373e-02 4.796960e-02 6.613664e-02 8.735002e-02 1.083887e-01 1.192740e-01 1.391541e-01 1.387898e-01 1.404683e-01 1.399331e-01 1.283425e-01 1.259887e+00
<GCONST> 5.876998e+01
<TRANSP> 3
 0.000000e+00 1.000000e+00 0.000000e+00
 0.000000e+00 9.492004e-01 5.079963e-02
 0.000000e+00 0.000000e+00 0.000000e+00
<ENDHMM>
