~o
<STREAMINFO> 1 39
<VECSIZE> 39<NULLD><MFCC_D_A_0><DIAGC>
~h "male"
<BEGINHMM>
<NUMSTATES> 3
<STATE> 2
<NUMMIXES> 4
<MIXTURE> 1 2.500000e-01
<MEAN> 39
 -2.884742e+01 -3.340354e+00 -6.738342e+00 -1.083276e+00 -1.049313e+00 1.111378e+00 1.607075e-01 -5.649564e-02 -1.684000e+00 9.851556e-01 2.129425e+00 3.011985e+00 1.073393e+02 1.172348e-01 1.346115e-01 1.768044e-01 2.260249e-01 2.689484e-01 3.216055e-01 3.113123e-01 3.219379e-01 3.296697e-01 3.417130e-01 3.667615e-01 3.271460e-01 2.881078e-01 5.175185e-02 6.128386e-02 8.041924e-02 9.512357e-02 1.124490e-01 1.217992e-01 1.306414e-01 1.474805e-01 1.520558e-01 1.466953e-01 1.414335e-01 1.314202e-01 1.171590e-01
<VARIANCE> 39
 7.515919e-01 9.641116e-01 1.732115e+00 2.827563e+00 3.727712e+00 5.420588e+00 4.968596e+00 5.613386e+00 5.991384e+00 6.184736e+00 6.763727e+00 5.521186e+00 4.260439e+00 8.421978e-02 1.140385e-01 2.044705e-01 3.209571e-01 4.267234e-01 5.621729e-01 5.891317e-01 6.732299e-01 7.038199e-01 7.110075e-01 7.311593e-01 6.536114e-01 4.720126e-01 1.646917e-02 2.144318e-02 3.840716e-02 6.029680e-02 8.033348e-02 1.049056e-01 1.107793e-01 1.266232e-01 1.318831e-01 1.334731e-01 1.367617e-01 1.220965e-01 8.687464e-02
<GCONST> 4.242195e+01
<MIXTURE> 2 2.500000e-01
<MEAN> 39
 -2.919420e+01 -3.733111e+00 -7.264782e+00 -1.755890e+00 -1.821604e+00 1.800913e-01 -7.309064e-01 -1.004199e+00 -2.663092e+00 -9.609520e-03 1.089138e+00 2.072097e+00 1.065137e+02 1.152243e-03 -4.668310e-04 -4.069284e-03 -5.873889e-04 7.652156e-03 2.169275e-02 4.292622e-03 -6.264448e-03 -5.906239e-03 4.427895e-03 2.473010e-02 3.761038e-03 1.329514e-02 4.189424e-04 2.709899e-03 2.028253e-03 -3.098063e-03 -9.236708e-04 -7.757336e-03 -2.492666e-03 5.143844e-03 6.792992e-03 5.593672e-04 -6.491713e-03 -8.349068e-03 -7.389747e-04
<VARIANCE> 39
 7.515919e-01 9.641116e-01 1.732115e+00 2.827563e+00 3.727712e+00 5.420588e+00 4.968596e+00 5.613386e+00 5.991384e+00 6.184736e+00 6.763727e+00 5.521186e+00 4.260439e+00 8.421978e-02 1.140385e-01 2.044705e-01 3.209571e-01 4.267234e-01 5.621729e-01 5.891317e-01 6.732299e-01 7.038199e-01 7.110075e-01 7.311593e-01 6.536114e-01 4.720126e-01 1.646917e-02 2.144318e-02 3.840716e-02 6.029680e-02 8.033348e-02 1.049056e-01 1.107793e-01 1.266232e-01 1.318831e-01 1.334731e-01 1.367617e-01 1.220965e-01 8.687464e-02
<GCONST> 4.242195e+01
<MIXTURE> 3 2.500000e-01
<MEAN> 39
 -2.919420e+01 -3.733111e+00 -7.264782e+00 -1.755890e+00 -1.821604e+00 1.800913e-01 -7.309064e-01 -1.004199e+00 -2.663092e+00 -9.609520e-03 1.089138e+00 2.072097e+00 1.065137e+02 1.152243e-03 -4.668310e-04 -4.069284e-03 -5.873889e-04 7.652164e-03 2.169275e-02 4.292622e-03 -6.264448e-03 -5.906239e-03 4.427895e-03 2.473010e-02 3.761038e-03 1.329514e-02 4.189424e-04 2.709899e-03 2.028253e-03 -3.098063e-03 -9.236708e-04 -7.757336e-03 -2.492666e-03 5.143844e-03 6.792992e-03 5.593672e-04 -6.491713e-03 -8.349065e-03 -7.389747e-04
<VARIANCE> 39
 7.515919e-01 9.641116e-01 1.732115e+00 2.827563e+00 3.727712e+00 5.420588e+00 4.968596e+00 5.613386e+00 5.991384e+00 6.184736e+00 6.763727e+00 5.521186e+00 4.260439e+00 8.421978e-02 1.140385e-01 2.044705e-01 3.209571e-01 4.267234e-01 5.621729e-01 5.891317e-01 6.732299e-01 7.038199e-01 7.110075e-01 7.311593e-01 6.536114e-01 4.720126e-01 1.646917e-02 2.144318e-02 3.840716e-02 6.029680e-02 8.033348e-02 1.049056e-01 1.107793e-01 1.266232e-01 1.318831e-01 1.334731e-01 1.367617e-01 1.220965e-01 8.687464e-02
<GCONST> 4.242195e+01
<MIXTURE> 4 2.500000e-01
<MEAN> 39
 -2.954098e+01 -4.125868e+00 -7.791222e+00 -2.428504e+00 -2.593895e+00 -7.511950e-01 -1.622520e+00 -1.951902e+00 -3.642184e+00 -1.004375e+00 4.885137e-02 1.132209e+00 1.056881e+02 -1.149303e-01 -1.355452e-01 -1.849429e-01 -2.271997e-01 -2.536441e-01 -2.782200e-01 -3.027270e-01 -3.344668e-01 -3.414822e-01 -3.328571e-01 -3.173013e-01 -3.196239e-01 -2.615176e-01 -5.091396e-02 -5.586406e-02 -7.636273e-02 -1.013197e-01 -1.142963e-01 -1.373139e-01 -1.356268e-01 -1.371928e-01 -1.384699e-01 -1.455765e-01 -1.544169e-01 -1.481183e-01 -1.186370e-01
<VARIANCE> 39
 7.515919e-01 9.641116e-01 1.732115e+00 2.827563e+00 3.727712e+00 5.420588e+00 4.968596e+00 5.613386e+00 5.991384e+00 6.184736e+00 6.763727e+00 5.521186e+00 4.260439e+00 8.421978e-02 1.140385e-01 2.044705e-01 3.209571e-01 4.267234e-01 5.621729e-01 5.891317e-01 6.732299e-01 7.038199e-01 7.110075e-01 7.311593e-01 6.536114e-01 4.720126e-01 1.646917e-02 2.144318e-02 3.840716e-02 6.029680e-02 8.033348e-02 1.049056e-01 1.107793e-01 1.266232e-01 1.318831e-01 1.334731e-01 1.367617e-01 1.220965e-01 8.687464e-02
<GCONST> 4.242195e+01
<TRANSP> 3
 0.000000e+00 1.000000e+00 0.000000e+00
 0.000000e+00 9.480131e-01 5.198691e-02
 0.000000e+00 0.000000e+00 0.000000e+00
<ENDHMM>
~h "female"
<BEGINHMM>
<NUMSTATES> 3
<STATE> 2
<NUMMIXES> 4
<MIXTURE> 1 2.500000e-01
<MEAN> 39
 -2.792801e+01 -3.385826e+00 -6.747427e+00 -4.518392e-01 -1.013127e+00 2.329711e+00 -8.015347e-02 2.891130e-01 -1.683357e+00 3.772879e-01 3.487366e+00 3.310524e+00 1.088257e+02 2.420846e-01 1.357730e-01 1.830093e-01 2.414072e-01 2.775115e-01 2.855673e-01 3.235417e-01 3.602270e-01 3.413958e-01 3.332826e-01 3.889389e-01 3.473656e-01 1.327288e+00 1.181068e-01 6.560352e-02 8.691087e-02 1.072653e-01 1.228262e-01 1.325426e-01 1.462439e-01 1.631072e-01 1.490104e-01 1.610353e-01 1.380593e-01 1.532308e-01 4.484754e-01
<VARIANCE> 39
 4.585609e+00 1.203003e+00 2.227521e+00 3.042040e+00 3.957679e+00 5.121661e+00 5.495796e+00 6.136351e+00 6.369642e+00 6.468489e+00 6.579287e+00 5.811939e+00 6.363472e+01 4.446467e-01 1.410252e-01 2.607824e-01 3.661354e-01 4.848525e-01 5.876579e-01 6.603671e-01 7.574840e-01 7.643986e-01 7.683337e-01 7.673770e-01 6.860794e-01 6.336152e+00 1.010716e-01 2.613152e-02 4.797989e-02 6.780577e-02 8.932125e-02 1.091763e-01 1.225068e-01 1.394643e-01 1.406310e-01 1.413364e-01 1.407521e-01 1.290374e-01 1.261277e+00
<GCONST> 5.888841e+01
<MIXTURE> 2 2.500000e-01
<MEAN> 39
 -2.878457e+01 -3.824552e+00 -7.344423e+00 -1.149497e+00 -1.808884e+00 1.424468e+00 -1.017878e+00 -7.017534e-01 -2.692883e+00 -6.400411e-01 2.461361e+00 2.346205e+00 1.056348e+02 -2.464275e-02 -1.444033e-02 -2.125817e-02 -6.292984e-04 -1.013875e-03 -2.106811e-02 -1.510233e-03 1.209275e-02 -8.323774e-03 -1.733597e-02 3.853868e-02 1.604602e-02 3.204195e-01 -9.060271e-03 9.425394e-04 -7.063784e-04 3.107179e-03 3.279530e-03 3.752336e-04 6.239973e-03 1.372755e-02 -9.928048e-04 1.065633e-02 -1.200851e-02 9.543747e-03 -7.509738e-04
<VARIANCE> 39
 4.585609e+00 1.203003e+00 2.227521e+00 3.042040e+00 3.957679e+00 5.121661e+00 5.495796e+00 6.136351e+00 6.369642e+00 6.468489e+00 6.579287e+00 5.811939e+00 6.363472e+01 4.446467e-01 1.410252e-01 2.607824e-01 3.661354e-01 4.848525e-01 5.876579e-01 6.603671e-01 7.574840e-01 7.643986e-01 7.683337e-01 7.673770e-01 6.860794e-01 6.336152e+00 1.010716e-01 2.613152e-02 4.797989e-02 6.780577e-02 8.932125e-02 1.091763e-01 1.225068e-01 1.394643e-01 1.406310e-01 1.413364e-01 1.407521e-01 1.290374e-01 1.261277e+00
<GCONST> 5.888841e+01
<MIXTURE> 3 2.500000e-01
<MEAN> 39
 -2.878457e+01 -3.824552e+00 -7.344423e+00 -1.149497e+00 -1.808884e+00 1.424468e+00 -1.017878e+00 -7.017534e-01 -2.692883e+00 -6.400411e-01 2.461361e+00 2.346205e+00 1.056348e+02 -2.464275e-02 -1.444033e-02 -2.125817e-02 -6.292984e-04 -1.013875e-03 -2.106811e-02 -1.510233e-03 1.209275e-02 -8.323774e-03 -1.733597e-02 3.853868e-02 1.604602e-02 3.204195e-01 -9.060271e-03 9.425394e-04 -7.063784e-04 3.107179e-03 3.279526e-03 3.752336e-04 6.239973e-03 1.372755e-02 -9.928048e-04 1.065633e-02 -1.200851e-02 9.543747e-03 -7.509738e-04
<VARIANCE> 39
 4.585609e+00 1.203003e+00 2.227521e+00 3.042040e+00 3.957679e+00 5.121661e+00 5.495796e+00 6.136351e+00 6.369642e+00 6.468489e+00 6.579287e+00 5.811939e+00 6.363472e+01 4.446467e-01 1.410252e-01 2.607824e-01 3.661354e-01 4.848525e-01 5.876579e-01 6.603671e-01 7.574840e-01 7.643986e-01 7.683337e-01 7.673770e-01 6.860794e-01 6.336152e+00 1.010716e-01 2.613152e-02 4.797989e-02 6.780577e-02 8.932125e-02 1.091763e-01 1.225068e-01 1.394643e-01 1.406310e-01 1.413364e-01 1.407521e-01 1.290374e-01 1.261277e+00
<GCONST> 5.888841e+01
<MIXTURE> 4 2.500000e-01
<MEAN> 39
 -2.964113e+01 -4.263278e+00 -7.941418e+00 -1.847155e+00 -2.604641e+00 5.192245e-01 -1.955603e+00 -1.692620e+00 -3.702409e+00 -1.657370e+00 1.435356e+00 1.381886e+00 1.024439e+02 -2.913701e-01 -1.646536e-01 -2.255256e-01 -2.426658e-01 -2.795393e-01 -3.277035e-01 -3.265621e-01 -3.360415e-01 -3.580433e-01 -3.679546e-01 -3.118616e-01 -3.152736e-01 -6.864491e-01 -1.362273e-01 -6.371845e-02 -8.832362e-02 -1.010510e-01 -1.162671e-01 -1.317921e-01 -1.337639e-01 -1.356521e-01 -1.509960e-01 -1.397226e-01 -1.620763e-01 -1.341434e-01 -4.499773e-01
<VARIANCE> 39
 4.585609e+00 1.203003e+00 2.227521e+00 3.042040e+00 3.957679e+00 5.121661e+00 5.495796e+00 6.136351e+00 6.369642e+00 6.468489e+00 6.579287e+00 5.811939e+00 6.363472e+01 4.446467e-01 1.410252e-01 2.607824e-01 3.661354e-01 4.848525e-01 5.876579e-01 6.603671e-01 7.574840e-01 7.643986e-01 7.683337e-01 7.673770e-01 6.860794e-01 6.336152e+00 1.010716e-01 2.613152e-02 4.797989e-02 6.780577e-02 8.932125e-02 1.091763e-01 1.225068e-01 1.394643e-01 1.406310e-01 1.413364e-01 1.407521e-01 1.290374e-01 1.261277e+00
<GCONST> 5.888841e+01
<TRANSP> 3
 0.000000e+00 1.000000e+00 0.000000e+00
 0.000000e+00 9.492546e-01 5.074541e-02
 0.000000e+00 0.000000e+00 0.000000e+00
<ENDHMM>
