~o
<STREAMINFO> 1 39
<VECSIZE> 39<NULLD><MFCC_D_A_0><DIAGC>
~h "proto"
<BEGINHMM>
<NUMSTATES> 3
<STATE> 2
<MEAN> 39
 -2.879373e+01 -3.803390e+00 -7.910374e+00 -2.572823e+00 -3.574805e+00 -1.602687e+00 -1.794701e+00 -1.074603e-01 -7.162829e-01 1.096842e+00 -2.527528e-02 1.234138e+00 1.069728e+02 1.543577e-03 -2.769712e-04 1.400948e-04 1.524014e-03 8.394084e-05 5.132721e-03 6.381365e-04 1.225494e-03 2.205054e-03 -2.104490e-03 4.551366e-03 -3.546931e-03 2.638533e-03 -9.750649e-04 2.962086e-04 1.976778e-04 -8.169244e-04 -7.036885e-04 -1.154969e-03 1.459418e-05 -8.816979e-05 6.759124e-04 1.348915e-03 -3.762051e-04 1.259456e-03 1.727987e-03
<VARIANCE> 39
 2.339783e+00 1.118733e+00 1.961006e+00 2.805605e+00 3.756667e+00 4.541391e+00 5.259428e+00 5.635605e+00 5.908006e+00 6.492514e+00 6.664403e+00 5.892009e+00 0.000000e+00 2.325970e-01 1.257194e-01 2.228018e-01 3.169789e-01 4.114904e-01 5.007635e-01 5.956440e-01 6.514208e-01 6.804361e-01 7.309965e-01 7.423112e-01 6.645294e-01 2.155725e+00 4.442977e-02 2.527494e-02 4.483666e-02 6.410614e-02 8.318913e-02 1.013443e-01 1.204432e-01 1.315042e-01 1.373381e-01 1.475134e-01 1.502336e-01 1.341540e-01 3.987528e-01
<TRANSP> 3
 0.000000e+00 1.000000e+00 0.000000e+00
 0.000000e+00 7.000000e-01 3.000000e-01
 0.000000e+00 0.000000e+00 0.000000e+00
<ENDHMM>
