~o
<STREAMINFO> 1 39
<VECSIZE> 39<NULLD><MFCC_D_A_0><DIAGC>
~h "male"
<BEGINHMM>
<NUMSTATES> 3
<STATE> 2
<MEAN> 39
 -2.879819e+01 -3.799985e+00 -7.902720e+00 -2.576235e+00 -3.565167e+00 -1.609751e+00 -1.790269e+00 -1.090425e-01 -7.151469e-01 1.098258e+00 -2.847230e-02 1.231584e+00 1.068143e+02 1.579674e-03 -2.531816e-04 1.097210e-04 1.365429e-03 9.493064e-05 5.166695e-03 7.246565e-04 1.221415e-03 2.120846e-03 -2.233607e-03 4.535688e-03 -3.656267e-03 2.636442e-03 -1.008995e-03 3.164115e-04 2.270231e-04 -8.491952e-04 -7.093015e-04 -1.210810e-03 5.044974e-05 -1.012548e-04 6.761192e-04 1.366727e-03 -3.798530e-04 1.278441e-03 1.790072e-03
<VARIANCE> 39
 2.362446e+00 1.118743e+00 1.961386e+00 2.804838e+00 3.751759e+00 4.540086e+00 5.260489e+00 5.637233e+00 5.907647e+00 6.494342e+00 6.661342e+00 5.893963e+00 2.529993e+01 2.367187e-01 1.258964e-01 2.229822e-01 3.169444e-01 4.117957e-01 5.006745e-01 5.959049e-01 6.517514e-01 6.808714e-01 7.311483e-01 7.419983e-01 6.648477e-01 2.207731e+00 4.519982e-02 2.531568e-02 4.487235e-02 6.410968e-02 8.323491e-02 1.013170e-01 1.205003e-01 1.315768e-01 1.374426e-01 1.475212e-01 1.501996e-01 1.342742e-01 4.084168e-01
<GCONST> 5.158588e+01
<TRANSP> 3
 0.000000e+00 1.000000e+00 0.000000e+00
 0.000000e+00 9.834388e-01 1.656123e-02
 0.000000e+00 0.000000e+00 0.000000e+00
<ENDHMM>
~h "female"
<BEGINHMM>
<NUMSTATES> 3
<STATE> 2
<MEAN> 39
 -2.862705e+01 -3.942302e+00 -8.221995e+00 -2.432221e+00 -3.973401e+00 -1.311193e+00 -1.976034e+00 -4.260027e-02 -7.616901e-01 1.037708e+00 1.051663e-01 1.336791e+00 1.071595e+02 6.698980e-05 -1.251920e-03 1.386960e-03 8.017804e-03 -3.668414e-04 3.750894e-03 -2.905190e-03 1.393800e-03 5.653515e-03 3.181183e-03 5.192227e-03 9.247162e-04 2.723621e-03 4.128503e-04 -5.327098e-04 -1.003408e-03 5.025771e-04 -4.738983e-04 1.138043e-03 -1.453054e-03 4.461831e-04 6.673378e-04 6.197259e-04 -2.265833e-04 4.846314e-04 -8.152188e-04
<VARIANCE> 39
 6.028470e-01 1.080691e+00 1.863214e+00 2.826002e+00 3.806315e+00 4.502817e+00 5.220423e+00 5.565817e+00 5.877275e+00 6.427366e+00 6.750749e+00 5.808725e+00 1.935991e-01 6.391897e-02 1.184748e-01 2.153123e-01 3.186968e-01 3.992175e-01 5.051026e-01 5.846976e-01 6.379045e-01 6.629660e-01 7.253900e-01 7.545175e-01 6.515475e-01 3.031058e-02 1.291783e-02 2.363227e-02 4.343949e-02 6.410503e-02 8.133300e-02 1.025512e-01 1.182897e-01 1.286924e-01 1.330733e-01 1.472037e-01 1.517175e-01 1.293744e-01 3.698332e-03
<GCONST> 3.327801e+01
<TRANSP> 3
 0.000000e+00 1.000000e+00 0.000000e+00
 0.000000e+00 9.827985e-01 1.720155e-02
 0.000000e+00 0.000000e+00 0.000000e+00
<ENDHMM>
