~o
<STREAMINFO> 1 39
<VECSIZE> 39<NULLD><MFCC_D_A_0><DIAGC>
~h "male"
<BEGINHMM>
<NUMSTATES> 3
<STATE> 2
<MEAN> 39
 -2.919420e+01 -3.733111e+00 -7.264782e+00 -1.755890e+00 -1.821604e+00 1.800913e-01 -7.309064e-01 -1.004199e+00 -2.663092e+00 -9.609513e-03 1.089138e+00 2.072097e+00 1.065137e+02 1.152243e-03 -4.668345e-04 -4.069280e-03 -5.873897e-04 7.652157e-03 2.169275e-02 4.292626e-03 -6.264446e-03 -5.906241e-03 4.427891e-03 2.473010e-02 3.761037e-03 1.329514e-02 4.189423e-04 2.709900e-03 2.028252e-03 -3.098063e-03 -9.236693e-04 -7.757335e-03 -2.492663e-03 5.143841e-03 6.792993e-03 5.593681e-04 -6.491716e-03 -8.349065e-03 -7.389752e-04
<VARIANCE> 39
 7.515919e-01 9.641116e-01 1.732115e+00 2.827563e+00 3.727712e+00 5.420588e+00 4.968596e+00 5.613386e+00 5.991384e+00 6.184736e+00 6.763727e+00 5.521186e+00 4.260439e+00 8.421978e-02 1.140385e-01 2.044705e-01 3.209571e-01 4.267234e-01 5.621729e-01 5.891317e-01 6.732299e-01 7.038199e-01 7.110075e-01 7.311593e-01 6.536114e-01 4.720126e-01 1.646917e-02 2.144318e-02 3.840716e-02 6.029680e-02 8.033348e-02 1.049056e-01 1.107793e-01 1.266232e-01 1.318831e-01 1.334731e-01 1.367617e-01 1.220965e-01 8.687464e-02
<GCONST> 4.242196e+01
<TRANSP> 3
 0.000000e+00 1.000000e+00 0.000000e+00
 0.000000e+00 9.480131e-01 5.198691e-02
 0.000000e+00 0.000000e+00 0.000000e+00
<ENDHMM>
~h "female"
<BEGINHMM>
<NUMSTATES> 3
<STATE> 2
<MEAN> 39
 -2.878457e+01 -3.824552e+00 -7.344423e+00 -1.149497e+00 -1.808884e+00 1.424468e+00 -1.017878e+00 -7.017534e-01 -2.692883e+00 -6.400411e-01 2.461361e+00 2.346205e+00 1.056348e+02 -2.464275e-02 -1.444033e-02 -2.125817e-02 -6.292951e-04 -1.013868e-03 -2.106811e-02 -1.510226e-03 1.209275e-02 -8.323776e-03 -1.733596e-02 3.853868e-02 1.604602e-02 3.204195e-01 -9.060271e-03 9.425406e-04 -7.063771e-04 3.107178e-03 3.279528e-03 3.752359e-04 6.239972e-03 1.372755e-02 -9.928076e-04 1.065633e-02 -1.200851e-02 9.543749e-03 -7.509765e-04
<VARIANCE> 39
 4.585609e+00 1.203003e+00 2.227521e+00 3.042040e+00 3.957679e+00 5.121661e+00 5.495796e+00 6.136351e+00 6.369642e+00 6.468489e+00 6.579287e+00 5.811939e+00 6.363472e+01 4.446467e-01 1.410252e-01 2.607824e-01 3.661354e-01 4.848525e-01 5.876579e-01 6.603671e-01 7.574840e-01 7.643986e-01 7.683337e-01 7.673770e-01 6.860794e-01 6.336152e+00 1.010716e-01 2.613152e-02 4.797989e-02 6.780577e-02 8.932125e-02 1.091763e-01 1.225068e-01 1.394643e-01 1.406310e-01 1.413364e-01 1.407521e-01 1.290374e-01 1.261277e+00
<GCONST> 5.888841e+01
<TRANSP> 3
 0.000000e+00 1.000000e+00 0.000000e+00
 0.000000e+00 9.492546e-01 5.074541e-02
 0.000000e+00 0.000000e+00 0.000000e+00
<ENDHMM>
