~o
<STREAMINFO> 1 39
<VECSIZE> 39<NULLD><MFCC_D_A_0><DIAGC>
~h "male"
<BEGINHMM>
<NUMSTATES> 3
<STATE> 2
<MEAN> 39
 -2.919407e+01 -3.732826e+00 -7.264612e+00 -1.752829e+00 -1.818287e+00 1.942165e-01 -7.148490e-01 -9.908115e-01 -2.655998e+00 -4.387222e-03 1.098446e+00 2.071871e+00 1.065156e+02 1.950928e-04 -9.121014e-04 -4.116701e-03 -3.841812e-04 7.555844e-03 2.116135e-02 3.860276e-03 -6.311455e-03 -8.078258e-03 3.143496e-03 2.313693e-02 1.435107e-03 1.417053e-02 4.129733e-04 2.877842e-03 2.015912e-03 -3.142910e-03 -7.768788e-04 -7.758275e-03 -2.854092e-03 4.868191e-03 7.033043e-03 5.354116e-04 -6.709825e-03 -8.852473e-03 -6.282059e-04
<VARIANCE> 39
 7.472038e-01 9.603736e-01 1.721855e+00 2.815816e+00 3.716587e+00 5.451270e+00 4.976190e+00 5.633314e+00 6.011132e+00 6.188583e+00 6.750412e+00 5.520508e+00 4.157849e+00 8.340529e-02 1.137971e-01 2.037638e-01 3.203353e-01 4.272748e-01 5.619631e-01 5.911982e-01 6.737475e-01 7.069818e-01 7.180829e-01 7.320728e-01 6.567238e-01 4.469131e-01 1.655153e-02 2.141486e-02 3.840103e-02 6.027057e-02 8.053619e-02 1.050325e-01 1.110697e-01 1.268813e-01 1.325264e-01 1.350772e-01 1.368601e-01 1.225227e-01 8.456778e-02
<GCONST> 4.234652e+01
<TRANSP> 3
 0.000000e+00 1.000000e+00 0.000000e+00
 0.000000e+00 9.478431e-01 5.215686e-02
 0.000000e+00 0.000000e+00 0.000000e+00
<ENDHMM>
~h "female"
<BEGINHMM>
<NUMSTATES> 3
<STATE> 2
<MEAN> 39
 -2.877400e+01 -3.831284e+00 -7.342333e+00 -1.144433e+00 -1.810883e+00 1.431287e+00 -1.030707e+00 -7.195725e-01 -2.711679e+00 -6.624506e-01 2.460262e+00 2.335574e+00 1.056383e+02 -2.350060e-02 -1.311272e-02 -1.931256e-02 -2.544821e-03 -2.223057e-03 -1.588804e-02 5.609834e-03 1.773857e-02 -3.702790e-04 -1.897899e-02 3.753952e-02 1.665918e-02 3.092934e-01 -9.453014e-03 1.276050e-03 -5.426405e-04 4.130186e-03 2.996092e-03 -9.807916e-04 7.329183e-03 1.264438e-02 -1.312526e-03 1.026656e-02 -1.253537e-02 1.246916e-02 6.509741e-04
<VARIANCE> 39
 4.732850e+00 1.163723e+00 2.254921e+00 2.996535e+00 3.915004e+00 5.086826e+00 5.439339e+00 6.229200e+00 6.389298e+00 6.431708e+00 6.534239e+00 5.749126e+00 6.550429e+01 4.667292e-01 1.386397e-01 2.644708e-01 3.590021e-01 4.782159e-01 5.804745e-01 6.486597e-01 7.612358e-01 7.558580e-01 7.596883e-01 7.641028e-01 6.857134e-01 6.466884e+00 1.037119e-01 2.613386e-02 4.796959e-02 6.613654e-02 8.734982e-02 1.083894e-01 1.192740e-01 1.391547e-01 1.387899e-01 1.404691e-01 1.399332e-01 1.283417e-01 1.259888e+00
<GCONST> 5.876995e+01
<TRANSP> 3
 0.000000e+00 1.000000e+00 0.000000e+00
 0.000000e+00 9.492004e-01 5.079963e-02
 0.000000e+00 0.000000e+00 0.000000e+00
<ENDHMM>
