~o
<STREAMINFO> 1 39
<VECSIZE> 39<NULLD><MFCC_D_A_0><DIAGC>
~h "male"
<BEGINHMM>
<NUMSTATES> 3
<STATE> 2
<NUMMIXES> 4
<MIXTURE> 1 1.118192e-02
<MEAN> 39
 -2.847858e+01 -4.085341e+00 -7.328346e+00 -1.073804e+00 -2.320068e+00 -5.666786e-01 -1.683093e+00 -5.183554e-01 -1.973913e+00 -2.928448e-02 -3.801609e-01 1.661121e+00 9.919426e+01 -1.043609e-02 1.368212e-01 8.815898e-02 -4.184446e-02 2.575075e-01 1.844262e-01 3.023835e-01 4.661465e-02 5.284688e-02 1.632042e-02 1.989702e-01 5.111299e-02 8.359227e-01 -2.594008e-02 2.688797e-02 3.137100e-02 -2.624454e-02 3.351928e-02 3.792702e-02 3.564760e-02 1.241446e-02 -1.563426e-02 2.040089e-02 5.227847e-02 1.180361e-02 2.343119e-01
<VARIANCE> 39
 2.489418e+01 4.169048e+00 6.247454e+00 7.213667e+00 8.631011e+00 1.030407e+01 1.075297e+01 1.070491e+01 1.034055e+01 1.025979e+01 1.162825e+01 8.015679e+00 3.159423e+02 2.655420e+00 4.501014e-01 6.668192e-01 7.938124e-01 9.438028e-01 1.082417e+00 1.194288e+00 1.295702e+00 1.213040e+00 1.126617e+00 1.243263e+00 9.675174e-01 3.940171e+01 5.601196e-01 8.958105e-02 1.219018e-01 1.389865e-01 1.820787e-01 1.933597e-01 2.184216e-01 2.378914e-01 2.233465e-01 2.039054e-01 2.311361e-01 1.665341e-01 7.389909e+00
<GCONST> 9.076696e+01
<MIXTURE> 2 4.795308e-01
<MEAN> 39
 -2.919826e+01 -3.722628e+00 -7.258881e+00 -1.762207e+00 -1.813875e+00 1.904829e-01 -7.196512e-01 -1.015599e+00 -2.678998e+00 -1.255628e-02 1.111555e+00 2.080650e+00 1.066008e+02 4.332914e-03 2.912230e-03 3.372742e-03 1.474739e-02 2.370345e-02 4.169120e-02 2.300335e-02 1.401993e-02 1.101491e-02 1.982104e-02 3.478733e-02 1.154469e-02 3.291000e-03 1.207841e-04 1.869188e-03 1.283066e-03 -3.440642e-03 -1.148913e-03 -7.674011e-03 -1.854480e-03 5.883527e-03 7.922002e-03 9.906923e-04 -6.609504e-03 -8.624874e-03 -1.815779e-03
<VARIANCE> 39
 4.607197e-01 9.118887e-01 1.666037e+00 2.744690e+00 3.643571e+00 5.320689e+00 4.858140e+00 5.519344e+00 5.910201e+00 6.120463e+00 6.665194e+00 5.471942e+00 2.898730e-01 5.266245e-02 1.069018e-01 1.948991e-01 3.066383e-01 4.064031e-01 5.380251e-01 5.621008e-01 6.494524e-01 6.854501e-01 6.964490e-01 7.160174e-01 6.446789e-01 1.218311e-02 9.968375e-03 2.022767e-02 3.699484e-02 5.867633e-02 7.832351e-02 1.029481e-01 1.085435e-01 1.245880e-01 1.302463e-01 1.321983e-01 1.350223e-01 1.210757e-01 2.308846e-03
<GCONST> 3.007294e+01
<MIXTURE> 3 4.795312e-01
<MEAN> 39
 -2.919826e+01 -3.722628e+00 -7.258882e+00 -1.762207e+00 -1.813875e+00 1.904829e-01 -7.196513e-01 -1.015599e+00 -2.678998e+00 -1.255628e-02 1.111555e+00 2.080650e+00 1.066008e+02 4.332910e-03 2.912230e-03 3.372773e-03 1.474745e-02 2.370354e-02 4.169134e-02 2.300347e-02 1.402017e-02 1.101511e-02 1.982112e-02 3.478742e-02 1.154471e-02 3.291003e-03 1.208111e-04 1.869218e-03 1.283091e-03 -3.440622e-03 -1.148894e-03 -7.674005e-03 -1.854478e-03 5.883528e-03 7.921995e-03 9.906843e-04 -6.609524e-03 -8.624907e-03 -1.815768e-03
<VARIANCE> 39
 4.607202e-01 9.118907e-01 1.666040e+00 2.744694e+00 3.643574e+00 5.320695e+00 4.858145e+00 5.519346e+00 5.910212e+00 6.120469e+00 6.665201e+00 5.471950e+00 2.898730e-01 5.266250e-02 1.069018e-01 1.948995e-01 3.066387e-01 4.064037e-01 5.380261e-01 5.621016e-01 6.494531e-01 6.854511e-01 6.964505e-01 7.160186e-01 6.446791e-01 1.218313e-02 9.968391e-03 2.022771e-02 3.699495e-02 5.867644e-02 7.832354e-02 1.029481e-01 1.085435e-01 1.245883e-01 1.302466e-01 1.321986e-01 1.350226e-01 1.210760e-01 2.308848e-03
<GCONST> 3.007302e+01
<MIXTURE> 4 2.990385e-02
<MEAN> 39
 -2.933162e+01 -3.937526e+00 -7.430222e+00 -1.808352e+00 -1.883060e+00 1.260893e-01 -7.357370e-01 -8.202751e-01 -2.410737e+00 9.225278e-02 9.197832e-01 1.951532e+00 1.064593e+02 -9.649022e-02 -1.601272e-01 -2.771408e-01 -4.768007e-01 -6.003709e-01 -6.803002e-01 -7.070170e-01 -6.763512e-01 -5.703625e-01 -4.935111e-01 -3.628209e-01 -2.634712e-01 2.648114e-02 1.983521e-02 2.062706e-02 1.495298e-02 1.654505e-02 -6.574891e-03 -2.750467e-02 -3.721163e-02 -2.128771e-02 -2.101872e-02 -2.068599e-02 -2.468510e-02 -7.037256e-03 -5.409810e-02
<VARIANCE> 39
 8.390116e-01 1.343546e+00 2.124726e+00 3.652349e+00 4.474032e+00 6.553902e+00 5.979025e+00 6.571982e+00 6.687503e+00 6.680469e+00 7.219767e+00 6.059351e+00 3.052939e-01 1.245217e-01 1.837999e-01 2.580138e-01 3.667244e-01 4.816387e-01 6.235639e-01 6.766040e-01 7.359495e-01 7.699279e-01 7.629402e-01 8.565876e-01 7.451450e-01 4.073423e-01 2.095978e-02 3.427126e-02 5.177391e-02 8.193042e-02 1.058411e-01 1.329066e-01 1.398953e-01 1.488904e-01 1.484713e-01 1.467637e-01 1.549331e-01 1.374314e-01 4.503544e-02
<GCONST> 4.575980e+01
<TRANSP> 3
 0.000000e+00 1.000000e+00 0.000000e+00
 0.000000e+00 9.480131e-01 5.198691e-02
 0.000000e+00 0.000000e+00 0.000000e+00
<ENDHMM>
~h "female"
<BEGINHMM>
<NUMSTATES> 3
<STATE> 2
<NUMMIXES> 4
<MIXTURE> 1 2.424358e-02
<MEAN> 39
 -2.265688e+01 -2.067680e+00 -4.467982e+00 -6.838503e-01 -2.097172e+00 6.766504e-01 -1.211025e+00 -9.944770e-02 -1.899743e+00 -3.590940e-01 -7.573599e-02 9.746490e-01 7.168420e+01 5.892016e-01 1.161483e-01 -4.539232e-02 3.788956e-01 4.825612e-01 2.576767e-01 2.797305e-01 -1.208330e-01 2.042494e-01 -4.145805e-02 5.651705e-01 1.910932e-01 1.746187e+00 -1.004034e+00 -2.513649e-01 -3.279923e-01 -1.998473e-01 -1.267228e-01 3.875168e-02 -7.568022e-02 -4.359615e-02 -1.524667e-01 -1.022126e-02 1.031661e-01 8.461579e-02 3.547422e+00
<VARIANCE> 39
 1.290922e+02 6.712208e+00 1.165660e+01 8.466676e+00 1.151600e+01 9.583886e+00 1.331427e+01 1.295337e+01 1.600553e+01 1.246653e+01 9.348255e+00 9.978095e+00 1.359830e+03 6.354245e+00 5.821255e-01 1.110940e+00 8.383530e-01 1.193142e+00 1.181844e+00 1.620379e+00 1.832742e+00 1.525502e+00 1.426184e+00 1.355592e+00 1.391325e+00 9.271359e+01 1.996958e+00 8.705703e-02 1.765314e-01 1.081714e-01 1.667447e-01 1.543621e-01 2.042221e-01 1.998067e-01 1.851195e-01 1.848926e-01 1.579923e-01 1.715319e-01 2.394443e+01
<GCONST> 1.021711e+02
<MIXTURE> 2 4.494806e-01
<MEAN> 39
 -2.894719e+01 -3.882233e+00 -7.429353e+00 -1.187502e+00 -1.820063e+00 1.412384e+00 -1.024145e+00 -7.046558e-01 -2.726835e+00 -6.411786e-01 2.572227e+00 2.385764e+00 1.067049e+02 3.858053e-04 -2.436188e-03 1.253108e-03 7.808947e-03 -3.914938e-03 -1.969514e-02 5.485691e-03 3.564801e-02 3.254524e-03 -3.894415e-03 -1.794931e-03 9.307001e-03 2.643591e-02 7.399112e-03 5.726098e-03 2.488294e-03 1.154723e-02 8.678693e-03 5.930056e-04 1.027247e-02 1.058069e-02 -1.172598e-04 8.321794e-03 -1.373693e-02 1.252691e-02 -2.068793e-02
<VARIANCE> 39
 4.964432e-01 9.220729e-01 1.684110e+00 2.720764e+00 3.527494e+00 4.684694e+00 4.973319e+00 5.712877e+00 5.875783e+00 6.071700e+00 6.051775e+00 5.477481e+00 2.898730e-01 5.962843e-02 1.097007e-01 1.996508e-01 3.235133e-01 4.259751e-01 5.300286e-01 5.887241e-01 6.887547e-01 7.044470e-01 7.128394e-01 6.940737e-01 6.391706e-01 4.572486e-02 1.116001e-02 2.080341e-02 3.812551e-02 6.166266e-02 8.129893e-02 1.022593e-01 1.131013e-01 1.323134e-01 1.340277e-01 1.346643e-01 1.336173e-01 1.230244e-01 1.694717e-02
<GCONST> 3.404649e+01
<MIXTURE> 3 4.494811e-01
<MEAN> 39
 -2.894719e+01 -3.882234e+00 -7.429354e+00 -1.187503e+00 -1.820063e+00 1.412384e+00 -1.024145e+00 -7.046564e-01 -2.726835e+00 -6.411786e-01 2.572226e+00 2.385764e+00 1.067049e+02 3.856767e-04 -2.436289e-03 1.253058e-03 7.808846e-03 -3.914931e-03 -1.969493e-02 5.485822e-03 3.564806e-02 3.254639e-03 -3.894516e-03 -1.794831e-03 9.306829e-03 2.643628e-02 7.399211e-03 5.726229e-03 2.488412e-03 1.154732e-02 8.678815e-03 5.931136e-04 1.027250e-02 1.058074e-02 -1.171807e-04 8.321794e-03 -1.373697e-02 1.252690e-02 -2.068811e-02
<VARIANCE> 39
 4.964455e-01 9.220780e-01 1.684118e+00 2.720772e+00 3.527500e+00 4.684704e+00 4.973332e+00 5.712892e+00 5.875808e+00 6.071718e+00 6.051799e+00 5.477502e+00 2.898730e-01 5.962854e-02 1.097009e-01 1.996513e-01 3.235143e-01 4.259767e-01 5.300303e-01 5.887253e-01 6.887570e-01 7.044497e-01 7.128412e-01 6.940753e-01 6.391718e-01 4.572558e-02 1.116006e-02 2.080351e-02 3.812569e-02 6.166279e-02 8.129921e-02 1.022597e-01 1.131016e-01 1.323138e-01 1.340282e-01 1.346651e-01 1.336180e-01 1.230248e-01 1.694741e-02
<GCONST> 3.404665e+01
<MIXTURE> 4 7.679710e-02
<MEAN> 39
 -2.881533e+01 -3.703959e+00 -7.258299e+00 -8.515981e-01 -1.587027e+00 1.801990e+00 -8.835511e-01 -8.579083e-01 -2.545841e+00 -7.154007e-01 1.964517e+00 2.316132e+00 1.038251e+02 -5.113978e-01 -1.961794e-01 -2.771457e-01 -2.192094e-01 -1.197076e-01 -1.251315e-01 -1.721811e-01 -2.216708e-01 -2.109585e-01 -1.670592e-01 3.444195e-01 3.967292e-02 3.311594e+00 1.123677e-01 2.459619e-02 6.521578e-02 -3.161990e-02 -1.888191e-02 -1.428917e-02 -1.510197e-02 6.865900e-02 3.657508e-02 4.457447e-02 -2.813465e-02 -4.907478e-02 -8.874688e-01
<VARIANCE> 39
 9.834930e-01 1.724348e+00 2.907952e+00 4.915933e+00 6.530325e+00 8.506652e+00 9.113211e+00 8.801480e+00 8.874690e+00 9.188609e+00 9.457025e+00 7.798329e+00 1.687749e+01 2.722764e+00 3.283423e-01 6.363795e-01 6.218709e-01 8.624312e-01 1.039226e+00 1.141216e+00 1.155802e+00 1.169010e+00 1.185504e+00 1.239550e+00 1.001765e+00 4.210388e+01 2.246176e-01 4.834334e-02 8.446690e-02 1.119249e-01 1.526106e-01 1.751915e-01 2.040380e-01 1.999421e-01 1.952137e-01 2.043260e-01 2.143356e-01 1.806785e-01 3.901537e+00
<GCONST> 7.708983e+01
<TRANSP> 3
 0.000000e+00 1.000000e+00 0.000000e+00
 0.000000e+00 9.492546e-01 5.074541e-02
 0.000000e+00 0.000000e+00 0.000000e+00
<ENDHMM>
