~o
<STREAMINFO> 1 39
<VECSIZE> 39<NULLD><MFCC_D_A_0><DIAGC>
~h "male"
<BEGINHMM>
<NUMSTATES> 3
<STATE> 2
<MEAN> 39
 -2.879819e+01 -3.800020e+00 -7.902782e+00 -2.576251e+00 -3.565226e+00 -1.609708e+00 -1.790308e+00 -1.089759e-01 -7.150893e-01 1.098129e+00 -2.839497e-02 1.231563e+00 1.068143e+02 1.579741e-03 -2.530316e-04 1.092263e-04 1.366097e-03 9.476567e-05 5.166376e-03 7.241463e-04 1.223037e-03 2.126369e-03 -2.223941e-03 4.537413e-03 -3.654624e-03 2.636318e-03 -1.008865e-03 3.164591e-04 2.275222e-04 -8.492910e-04 -7.094461e-04 -1.211173e-03 5.204569e-05 -9.885184e-05 6.796707e-04 1.368783e-03 -3.781616e-04 1.278725e-03 1.789981e-03
<VARIANCE> 39
 2.362245e+00 1.118745e+00 1.961345e+00 2.805040e+00 3.752664e+00 4.540586e+00 5.260564e+00 5.637225e+00 5.908938e+00 6.495152e+00 6.662091e+00 5.894641e+00 2.530524e+01 2.367014e-01 1.258947e-01 2.229793e-01 3.169344e-01 4.117824e-01 5.006672e-01 5.959163e-01 6.517603e-01 6.808756e-01 7.311451e-01 7.420179e-01 6.648684e-01 2.207554e+00 4.519632e-02 2.531518e-02 4.486935e-02 6.410532e-02 8.323210e-02 1.013159e-01 1.204971e-01 1.315758e-01 1.374472e-01 1.475208e-01 1.502004e-01 1.342835e-01 4.083790e-01
<GCONST> 5.158651e+01
<TRANSP> 3
 0.000000e+00 1.000000e+00 0.000000e+00
 0.000000e+00 9.834388e-01 1.656117e-02
 0.000000e+00 0.000000e+00 0.000000e+00
<ENDHMM>
~h "female"
<BEGINHMM>
<NUMSTATES> 3
<STATE> 2
<MEAN> 39
 -2.862644e+01 -3.941305e+00 -8.221450e+00 -2.431982e+00 -3.971691e+00 -1.313028e+00 -1.976129e+00 -4.517573e-02 -7.653924e-01 1.043477e+00 1.030665e-01 1.339192e+00 1.071596e+02 5.670183e-05 -1.261108e-03 1.408491e-03 8.015357e-03 -3.607841e-04 3.750001e-03 -2.896646e-03 1.326471e-03 5.437029e-03 2.805334e-03 5.122599e-03 8.779845e-04 2.727210e-03 4.130553e-04 -5.362229e-04 -1.029278e-03 5.125248e-04 -4.670849e-04 1.154463e-03 -1.524468e-03 3.509362e-04 5.200405e-04 5.329332e-04 -2.961697e-04 4.682727e-04 -8.211082e-04
<VARIANCE> 39
 6.033518e-01 1.080745e+00 1.865504e+00 2.830259e+00 3.810943e+00 4.507018e+00 5.224521e+00 5.565503e+00 5.875437e+00 6.413548e+00 6.750505e+00 5.804102e+00 1.940955e-01 6.399069e-02 1.185673e-01 2.157116e-01 3.192115e-01 3.999224e-01 5.055761e-01 5.849028e-01 6.378943e-01 6.625354e-01 7.250256e-01 7.545453e-01 6.504031e-01 3.040411e-02 1.293249e-02 2.365485e-02 4.352644e-02 6.420408e-02 8.150315e-02 1.026432e-01 1.182941e-01 1.287074e-01 1.329326e-01 1.470740e-01 1.516714e-01 1.290363e-01 3.708489e-03
<GCONST> 3.329903e+01
<TRANSP> 3
 0.000000e+00 1.000000e+00 0.000000e+00
 0.000000e+00 9.827933e-01 1.720667e-02
 0.000000e+00 0.000000e+00 0.000000e+00
<ENDHMM>
