~o
<STREAMINFO> 1 39
<VECSIZE> 39<NULLD><MFCC_D_A_0><DIAGC>
~h "male"
<BEGINHMM>
<NUMSTATES> 3
<STATE> 2
<MEAN> 39
 -2.916370e+01 -3.723483e+00 -7.270443e+00 -1.725497e+00 -1.768238e+00 2.473605e-01 -7.413323e-01 -9.696528e-01 -2.663766e+00 -7.762139e-03 1.206950e+00 2.069322e+00 1.064733e+02 1.903976e-03 1.114810e-03 -2.997882e-03 1.231363e-03 9.349808e-03 1.958305e-02 9.707785e-03 -4.765873e-03 -6.238875e-03 7.446697e-03 2.030757e-02 4.978295e-03 1.981410e-02 2.642851e-04 2.331855e-03 1.814846e-03 -2.786529e-03 -1.616375e-03 -6.938394e-03 -3.430623e-03 5.680672e-03 7.403715e-03 -3.890247e-06 -5.734704e-03 -9.051596e-03 -7.476016e-04
<VARIANCE> 39
 9.337663e-01 9.883780e-01 1.753025e+00 2.840762e+00 3.712289e+00 5.395926e+00 4.996993e+00 5.666294e+00 5.994498e+00 6.165998e+00 6.775105e+00 5.509320e+00 6.981040e+00 1.025973e-01 1.169549e-01 2.078051e-01 3.273336e-01 4.304703e-01 5.635348e-01 5.956059e-01 6.808044e-01 7.083626e-01 7.206127e-01 7.320079e-01 6.568802e-01 7.463766e-01 2.033057e-02 2.182396e-02 3.886239e-02 6.126343e-02 8.065128e-02 1.048936e-01 1.116827e-01 1.276328e-01 1.322476e-01 1.352065e-01 1.363871e-01 1.222873e-01 1.382565e-01
<GCONST> 4.470865e+01
<TRANSP> 3
 0.000000e+00 1.000000e+00 0.000000e+00
 0.000000e+00 9.462941e-01 5.370586e-02
 0.000000e+00 0.000000e+00 0.000000e+00
<ENDHMM>
~h "female"
<BEGINHMM>
<NUMSTATES> 3
<STATE> 2
<MEAN> 39
 -2.892204e+01 -3.833043e+00 -7.518085e+00 -1.229684e+00 -1.643379e+00 1.100273e+00 -6.113519e-01 -9.095230e-01 -2.966589e+00 7.992556e-02 1.962251e+00 2.736011e+00 1.066880e+02 -5.582456e-03 -1.489393e-02 -1.874875e-02 -1.666130e-02 -2.266065e-02 -1.172190e-02 -1.110106e-02 -3.725115e-03 -2.725538e-02 -2.715174e-02 6.787628e-04 5.195051e-03 -7.121898e-03 2.967919e-03 8.098584e-03 7.974182e-03 3.143237e-05 6.326848e-03 5.277204e-04 3.002854e-03 1.055910e-02 1.687011e-02 -1.526706e-03 -8.551766e-03 1.588641e-04 1.370130e-03
<VARIANCE> 39
 5.295405e-01 9.688045e-01 1.823760e+00 2.953416e+00 3.559523e+00 5.929298e+00 4.894144e+00 5.385937e+00 6.348682e+00 6.010186e+00 6.873654e+00 5.858556e+00 1.337703e-01 5.485456e-02 1.131445e-01 2.106346e-01 3.096258e-01 4.267841e-01 5.569235e-01 5.743188e-01 6.478305e-01 7.266607e-01 7.186381e-01 7.233525e-01 6.354376e-01 1.339424e-02 1.020773e-02 2.058662e-02 3.807790e-02 5.612161e-02 7.724739e-02 1.028911e-01 1.053215e-01 1.195906e-01 1.299237e-01 1.343405e-01 1.380394e-01 1.203430e-01 2.400769e-03
<GCONST> 3.035994e+01
<TRANSP> 3
 0.000000e+00 1.000000e+00 0.000000e+00
 0.000000e+00 9.446734e-01 5.532667e-02
 0.000000e+00 0.000000e+00 0.000000e+00
<ENDHMM>
