~o
<STREAMINFO> 1 39
<VECSIZE> 39<NULLD><MFCC_D_A_0><DIAGC>
~h "proto"
<BEGINHMM>
<NUMSTATES> 3
<STATE> 2
<MEAN> 39
 -2.915685e+01 -3.726624e+00 -7.277516e+00 -1.711341e+00 -1.764668e+00 2.717044e-01 -7.376205e-01 -9.679310e-01 -2.672405e+00 -5.259224e-03 1.228505e+00 2.088338e+00 1.064588e+02 1.690259e-03 6.579093e-04 -3.447455e-03 7.206977e-04 8.436264e-03 1.868961e-02 9.113883e-03 -4.736178e-03 -6.838778e-03 6.459252e-03 1.974709e-02 4.984448e-03 1.904520e-02 3.414532e-04 2.496472e-03 1.990672e-03 -2.706107e-03 -1.389674e-03 -6.725269e-03 -3.247010e-03 5.819861e-03 7.673889e-03 -4.733922e-05 -5.815255e-03 -8.788710e-03 -6.871958e-04
<VARIANCE> 39
 9.171753e-01 9.880905e-01 1.756245e+00 2.850741e+00 3.708290e+00 5.431302e+00 4.994530e+00 5.658393e+00 6.007013e+00 6.161770e+00 6.793573e+00 5.531579e+00 1.104004e+01 1.012361e-01 1.168518e-01 2.078944e-01 3.268344e-01 4.303914e-01 5.633738e-01 5.950033e-01 6.798627e-01 7.088964e-01 7.205892e-01 7.317761e-01 6.562664e-01 7.254725e-01 2.004191e-02 2.178943e-02 3.884125e-02 6.111726e-02 8.055502e-02 1.048370e-01 1.115029e-01 1.274056e-01 1.321835e-01 1.351816e-01 1.364336e-01 1.222335e-01 1.343788e-01
<GCONST> 4.506553e+01
<TRANSP> 3
 0.000000e+00 1.000000e+00 0.000000e+00
 0.000000e+00 7.000000e-01 3.000000e-01
 0.000000e+00 0.000000e+00 0.000000e+00
<ENDHMM>
