~o
<STREAMINFO> 1 39
<VECSIZE> 39<NULLD><MFCC_D_A_0><DIAGC>
~h "male"
<BEGINHMM>
<NUMSTATES> 3
<STATE> 2
<MEAN> 39
 -2.879819e+01 -3.799982e+00 -7.902739e+00 -2.576259e+00 -3.565145e+00 -1.609782e+00 -1.790294e+00 -1.090450e-01 -7.151749e-01 1.098275e+00 -2.845854e-02 1.231612e+00 1.068143e+02 1.579586e-03 -2.531531e-04 1.096284e-04 1.365428e-03 9.496096e-05 5.166474e-03 7.246631e-04 1.221398e-03 2.120777e-03 -2.233596e-03 4.535694e-03 -3.656195e-03 2.636489e-03 -1.008989e-03 3.164504e-04 2.270079e-04 -8.491713e-04 -7.093050e-04 -1.210990e-03 5.043723e-05 -1.012172e-04 6.760983e-04 1.366736e-03 -3.798613e-04 1.278401e-03 1.790103e-03
<VARIANCE> 39
 2.362424e+00 1.118742e+00 1.961392e+00 2.805145e+00 3.752720e+00 4.540648e+00 5.260666e+00 5.637208e+00 5.908912e+00 6.494806e+00 6.662055e+00 5.894537e+00 2.530760e+01 2.367194e-01 1.258977e-01 2.229898e-01 3.169466e-01 4.118008e-01 5.006782e-01 5.959226e-01 6.517615e-01 6.808658e-01 7.311364e-01 7.420174e-01 6.648414e-01 2.207761e+00 4.519970e-02 2.531589e-02 4.487155e-02 6.410774e-02 8.323640e-02 1.013181e-01 1.204974e-01 1.315765e-01 1.374444e-01 1.475177e-01 1.501991e-01 1.342756e-01 4.084172e-01
<GCONST> 5.158726e+01
<TRANSP> 3
 0.000000e+00 1.000000e+00 0.000000e+00
 0.000000e+00 9.834388e-01 1.656123e-02
 0.000000e+00 0.000000e+00 0.000000e+00
<ENDHMM>
~h "female"
<BEGINHMM>
<NUMSTATES> 3
<STATE> 2
<MEAN> 39
 -2.862705e+01 -3.942300e+00 -8.221997e+00 -2.432220e+00 -3.973394e+00 -1.311188e+00 -1.976035e+00 -4.259725e-02 -7.616899e-01 1.037705e+00 1.051625e-01 1.336791e+00 1.071595e+02 6.697220e-05 -1.251905e-03 1.386962e-03 8.017853e-03 -3.668131e-04 3.750911e-03 -2.905240e-03 1.393792e-03 5.653548e-03 3.181177e-03 5.192208e-03 9.247207e-04 2.723370e-03 4.128518e-04 -5.327025e-04 -1.003404e-03 5.025729e-04 -4.739023e-04 1.138040e-03 -1.453068e-03 4.461767e-04 6.673186e-04 6.197292e-04 -2.265949e-04 4.846174e-04 -8.152194e-04
<VARIANCE> 39
 6.028465e-01 1.080697e+00 1.863211e+00 2.826004e+00 3.806356e+00 4.502853e+00 5.220399e+00 5.565808e+00 5.877287e+00 6.427372e+00 6.750732e+00 5.808724e+00 1.935983e-01 6.391913e-02 1.184745e-01 2.153127e-01 3.186972e-01 3.992166e-01 5.051032e-01 5.846970e-01 6.379036e-01 6.629662e-01 7.253898e-01 7.545183e-01 6.515484e-01 3.031055e-02 1.291775e-02 2.363214e-02 4.343949e-02 6.410491e-02 8.133350e-02 1.025510e-01 1.182897e-01 1.286923e-01 1.330728e-01 1.472036e-01 1.517174e-01 1.293743e-01 3.698335e-03
<GCONST> 3.327801e+01
<TRANSP> 3
 0.000000e+00 1.000000e+00 0.000000e+00
 0.000000e+00 9.827985e-01 1.720155e-02
 0.000000e+00 0.000000e+00 0.000000e+00
<ENDHMM>
