~o
<STREAMINFO> 1 39
<VECSIZE> 39<NULLD><MFCC_D_A_0><DIAGC>
~h "male"
<BEGINHMM>
<NUMSTATES> 3
<STATE> 2
<NUMMIXES> 4
<MIXTURE> 1 1.177766e-01
<MEAN> 39
 -2.908551e+01 -3.606843e+00 -7.076645e+00 -1.452250e+00 -1.523466e+00 6.493337e-01 -3.622840e-01 -6.065127e-01 -2.273773e+00 3.568187e-01 1.582447e+00 2.345433e+00 1.064980e+02 9.000984e-02 1.549938e-01 2.163199e-01 2.893038e-01 3.587556e-01 4.109207e-01 4.256764e-01 4.329187e-01 4.214611e-01 4.199811e-01 4.143307e-01 2.722867e-01 6.688583e-02 1.367119e-02 2.571680e-02 3.527854e-02 4.492807e-02 5.470621e-02 5.697580e-02 6.278529e-02 7.164926e-02 6.924736e-02 6.185304e-02 5.227792e-02 3.332646e-02 1.314172e-02
<VARIANCE> 39
 1.122125e+00 9.748476e-01 1.729666e+00 2.775608e+00 3.708856e+00 5.303863e+00 4.942830e+00 5.624375e+00 6.014952e+00 6.176311e+00 6.681043e+00 5.441495e+00 9.247289e+00 7.875335e-02 1.121118e-01 1.968547e-01 2.970340e-01 3.931881e-01 5.079462e-01 5.395056e-01 6.284458e-01 6.627659e-01 6.731152e-01 6.863772e-01 6.321198e-01 4.877985e-01 2.071537e-02 2.138751e-02 3.786786e-02 5.881866e-02 7.848295e-02 1.017133e-01 1.090360e-01 1.253342e-01 1.317308e-01 1.310477e-01 1.332171e-01 1.199111e-01 1.277687e-01
<GCONST> 4.324564e+01
<MIXTURE> 2 3.821478e-01
<MEAN> 39
 -2.919353e+01 -3.729848e+00 -7.259680e+00 -1.751683e+00 -1.819343e+00 1.801244e-01 -7.263286e-01 -1.000157e+00 -2.660207e+00 -8.306061e-03 1.084777e+00 2.076036e+00 1.065228e+02 4.290772e-04 -2.052104e-03 -5.166808e-03 1.103539e-03 8.278532e-03 2.679526e-02 5.897711e-03 -9.343144e-03 -1.024390e-02 3.597182e-03 2.823820e-02 9.416691e-03 1.423769e-02 2.995291e-04 2.524780e-03 1.883630e-03 -3.070136e-03 -7.519285e-04 -7.028958e-03 -1.939588e-03 5.290108e-03 6.991775e-03 8.836448e-04 -5.116610e-03 -7.463037e-03 -7.850562e-04
<VARIANCE> 39
 7.081026e-01 9.537764e-01 1.715621e+00 2.797605e+00 3.695885e+00 5.357049e+00 4.918403e+00 5.565577e+00 5.945518e+00 6.128978e+00 6.697871e+00 5.489666e+00 3.724630e+00 8.136826e-02 1.079767e-01 1.924003e-01 3.004863e-01 3.981628e-01 5.237865e-01 5.456357e-01 6.298226e-01 6.638926e-01 6.694568e-01 6.917521e-01 6.326390e-01 4.469190e-01 1.586802e-02 2.126742e-02 3.815466e-02 5.987932e-02 7.982481e-02 1.039751e-01 1.099180e-01 1.258680e-01 1.310585e-01 1.328867e-01 1.363406e-01 1.220157e-01 8.041595e-02
<GCONST> 4.118551e+01
<MIXTURE> 3 3.821478e-01
<MEAN> 39
 -2.919353e+01 -3.729848e+00 -7.259680e+00 -1.751683e+00 -1.819343e+00 1.801244e-01 -7.263286e-01 -1.000157e+00 -2.660207e+00 -8.306062e-03 1.084777e+00 2.076036e+00 1.065228e+02 4.290774e-04 -2.052102e-03 -5.166807e-03 1.103543e-03 8.278543e-03 2.679526e-02 5.897712e-03 -9.343144e-03 -1.024390e-02 3.597181e-03 2.823821e-02 9.416690e-03 1.423769e-02 2.995295e-04 2.524781e-03 1.883630e-03 -3.070136e-03 -7.519290e-04 -7.028958e-03 -1.939588e-03 5.290109e-03 6.991775e-03 8.836451e-04 -5.116610e-03 -7.463035e-03 -7.850557e-04
<VARIANCE> 39
 7.081026e-01 9.537765e-01 1.715621e+00 2.797605e+00 3.695885e+00 5.357049e+00 4.918403e+00 5.565577e+00 5.945518e+00 6.128978e+00 6.697871e+00 5.489666e+00 3.724630e+00 8.136826e-02 1.079767e-01 1.924003e-01 3.004863e-01 3.981628e-01 5.237865e-01 5.456357e-01 6.298226e-01 6.638926e-01 6.694568e-01 6.917521e-01 6.326390e-01 4.469190e-01 1.586802e-02 2.126742e-02 3.815466e-02 5.987932e-02 7.982481e-02 1.039751e-01 1.099180e-01 1.258680e-01 1.310585e-01 1.328867e-01 1.363406e-01 1.220157e-01 8.041596e-02
<GCONST> 4.118551e+01
<MIXTURE> 4 1.178863e-01
<MEAN> 39
 -2.930710e+01 -3.880411e+00 -7.485823e+00 -2.086511e+00 -2.134114e+00 -2.889258e-01 -1.128856e+00 -1.427713e+00 -3.070746e+00 -3.841265e-01 6.245821e-01 1.773484e+00 1.064706e+02 -8.293229e-02 -1.455038e-01 -2.171356e-01 -3.011688e-01 -3.471829e-01 -4.002526e-01 -4.271025e-01 -4.250738e-01 -4.047484e-01 -4.053490e-01 -3.872481e-01 -3.011786e-01 -4.635575e-02 -1.204575e-02 -1.907482e-02 -3.025274e-02 -5.125960e-02 -5.761417e-02 -7.715147e-02 -7.129361e-02 -6.224652e-02 -5.689086e-02 -6.277870e-02 -7.412075e-02 -5.572923e-02 -1.430894e-02
<VARIANCE> 39
 6.388426e-01 9.827167e-01 1.757371e+00 2.872455e+00 3.766193e+00 5.509497e+00 5.025781e+00 5.575202e+00 5.947698e+00 6.280789e+00 6.815033e+00 5.641033e+00 2.746445e+00 9.319604e-02 1.100783e-01 1.964445e-01 3.032486e-01 3.964207e-01 5.357197e-01 5.573147e-01 6.312646e-01 6.621718e-01 6.777762e-01 7.100131e-01 6.458683e-01 6.127135e-01 1.579119e-02 2.163402e-02 3.843677e-02 5.986096e-02 7.917802e-02 1.051262e-01 1.091228e-01 1.238528e-01 1.294355e-01 1.319360e-01 1.349947e-01 1.208318e-01 8.754301e-02
<GCONST> 4.164082e+01
<TRANSP> 3
 0.000000e+00 1.000000e+00 0.000000e+00
 0.000000e+00 9.480131e-01 5.198691e-02
 0.000000e+00 0.000000e+00 0.000000e+00
<ENDHMM>
~h "female"
<BEGINHMM>
<NUMSTATES> 3
<STATE> 2
<NUMMIXES> 4
<MIXTURE> 1 1.087478e-01
<MEAN> 39
 -2.851143e+01 -3.675637e+00 -7.105664e+00 -8.258226e-01 -1.495843e+00 1.806547e+00 -5.767778e-01 -2.142795e-01 -2.220508e+00 -2.173180e-01 2.914906e+00 2.689432e+00 1.052088e+02 1.085267e-01 1.356365e-01 2.037803e-01 3.115658e-01 3.729245e-01 3.573937e-01 4.495382e-01 4.937044e-01 4.521056e-01 4.526055e-01 3.765293e-01 3.264959e-01 1.058364e-01 -1.081869e-02 2.497644e-02 3.149161e-02 4.903405e-02 6.404531e-02 5.650564e-02 7.299831e-02 8.825692e-02 6.817986e-02 8.036917e-02 4.059734e-02 5.517934e-02 5.522513e-02
<VARIANCE> 39
 9.973763e+00 1.244386e+00 2.346361e+00 2.935173e+00 3.809693e+00 4.718446e+00 5.267657e+00 5.896455e+00 6.153896e+00 6.055270e+00 6.128731e+00 5.683280e+00 1.329152e+02 3.506085e-01 1.224908e-01 2.322335e-01 3.340315e-01 4.348823e-01 5.328773e-01 6.141506e-01 6.983272e-01 6.820229e-01 7.047924e-01 7.391508e-01 6.579056e-01 4.409900e+00 1.522353e-01 2.583382e-02 4.735762e-02 6.459375e-02 8.563115e-02 1.004016e-01 1.165679e-01 1.330692e-01 1.368396e-01 1.326592e-01 1.326995e-01 1.220737e-01 1.816668e+00
<GCONST> 5.874070e+01
<MIXTURE> 2 3.916806e-01
<MEAN> 39
 -2.879930e+01 -3.822912e+00 -7.342449e+00 -1.150797e+00 -1.807083e+00 1.430115e+00 -1.018019e+00 -7.061297e-01 -2.697621e+00 -6.423291e-01 2.450619e+00 2.333511e+00 1.056448e+02 -1.601955e-02 -1.377453e-02 -1.846510e-02 -1.371512e-03 -6.700440e-04 -1.923997e-02 -3.199286e-03 6.840532e-03 -8.892418e-03 -2.125725e-02 4.196330e-02 8.547978e-03 2.870846e-01 -7.907510e-03 6.803008e-04 -1.051163e-03 3.622256e-03 3.720627e-03 9.006052e-04 6.105806e-03 1.222897e-02 -1.103125e-03 1.048014e-02 -1.085513e-02 1.033040e-02 -7.499050e-04
<VARIANCE> 39
 4.154749e+00 1.197970e+00 2.209276e+00 3.025007e+00 3.950840e+00 5.118990e+00 5.479578e+00 6.136438e+00 6.346250e+00 6.469438e+00 6.571511e+00 5.820560e+00 5.871796e+01 3.674519e-01 1.362371e-01 2.466048e-01 3.470632e-01 4.585246e-01 5.576401e-01 6.201014e-01 7.160250e-01 7.228667e-01 7.266756e-01 7.413400e-01 6.732718e-01 5.327084e+00 9.670905e-02 2.603382e-02 4.772105e-02 6.716179e-02 8.845285e-02 1.087656e-01 1.214921e-01 1.390014e-01 1.401789e-01 1.407226e-01 1.404951e-01 1.293561e-01 1.204336e+00
<GCONST> 5.764123e+01
<MIXTURE> 3 3.916806e-01
<MEAN> 39
 -2.879930e+01 -3.822912e+00 -7.342449e+00 -1.150797e+00 -1.807083e+00 1.430115e+00 -1.018019e+00 -7.061297e-01 -2.697621e+00 -6.423292e-01 2.450619e+00 2.333511e+00 1.056448e+02 -1.601954e-02 -1.377453e-02 -1.846510e-02 -1.371512e-03 -6.700445e-04 -1.923996e-02 -3.199283e-03 6.840532e-03 -8.892418e-03 -2.125725e-02 4.196330e-02 8.547978e-03 2.870846e-01 -7.907510e-03 6.803009e-04 -1.051163e-03 3.622256e-03 3.720628e-03 9.006044e-04 6.105805e-03 1.222897e-02 -1.103124e-03 1.048014e-02 -1.085513e-02 1.033040e-02 -7.499045e-04
<VARIANCE> 39
 4.154749e+00 1.197970e+00 2.209276e+00 3.025007e+00 3.950840e+00 5.118990e+00 5.479578e+00 6.136439e+00 6.346250e+00 6.469438e+00 6.571511e+00 5.820560e+00 5.871796e+01 3.674519e-01 1.362371e-01 2.466048e-01 3.470632e-01 4.585246e-01 5.576401e-01 6.201014e-01 7.160250e-01 7.228667e-01 7.266756e-01 7.413400e-01 6.732718e-01 5.327084e+00 9.670905e-02 2.603382e-02 4.772105e-02 6.716179e-02 8.845285e-02 1.087656e-01 1.214921e-01 1.390014e-01 1.401789e-01 1.407226e-01 1.404951e-01 1.293561e-01 1.204336e+00
<GCONST> 5.764123e+01
<MIXTURE> 4 1.078881e-01
<MEAN> 39
 -2.895291e+01 -3.986557e+00 -7.599407e+00 -1.466288e+00 -2.137490e+00 9.983533e-01 -1.461458e+00 -1.161326e+00 -3.134616e+00 -1.049503e+00 2.082194e+00 2.092433e+00 1.059913e+02 -2.214825e-01 -1.705464e-01 -2.683682e-01 -3.099207e-01 -3.804264e-01 -4.158177e-01 -4.438865e-01 -4.352199e-01 -4.682913e-01 -4.625468e-01 -3.270081e-01 -2.424333e-01 7.787526e-01 -1.565664e-02 -2.137823e-02 -3.065716e-02 -4.692473e-02 -6.117194e-02 -6.001610e-02 -6.007512e-02 -5.051395e-02 -6.991475e-02 -5.833132e-02 -7.340726e-02 -4.216627e-02 -5.717665e-02
<VARIANCE> 39
 2.177684e+00 1.149211e+00 2.117743e+00 3.067360e+00 3.949757e+00 5.218411e+00 5.450922e+00 5.926564e+00 6.336727e+00 6.530379e+00 6.738189e+00 5.694703e+00 2.920015e+01 1.042750e+00 1.473965e-01 2.803337e-01 3.430753e-01 4.414894e-01 5.605776e-01 5.985485e-01 6.840507e-01 7.237671e-01 7.139307e-01 7.360262e-01 6.431109e-01 1.534158e+01 8.111775e-02 2.605937e-02 4.854407e-02 7.108854e-02 9.146978e-02 1.141774e-01 1.269682e-01 1.395279e-01 1.381677e-01 1.448832e-01 1.441721e-01 1.289618e-01 1.108588e+00
<GCONST> 5.831339e+01
<TRANSP> 3
 0.000000e+00 1.000000e+00 0.000000e+00
 0.000000e+00 9.492546e-01 5.074541e-02
 0.000000e+00 0.000000e+00 0.000000e+00
<ENDHMM>
