~o
<STREAMINFO> 1 39
<VECSIZE> 39<NULLD><MFCC_D_A_0><DIAGC>
~h "male"
<BEGINHMM>
<NUMSTATES> 3
<STATE> 2
<MEAN> 39
 -2.919407e+01 -3.732826e+00 -7.264613e+00 -1.752829e+00 -1.818287e+00 1.942166e-01 -7.148492e-01 -9.908114e-01 -2.655998e+00 -4.388437e-03 1.098448e+00 2.071871e+00 1.065156e+02 1.950869e-04 -9.121042e-04 -4.116699e-03 -3.841704e-04 7.555816e-03 2.116132e-02 3.860280e-03 -6.311481e-03 -8.078254e-03 3.143490e-03 2.313694e-02 1.435121e-03 1.417046e-02 4.129751e-04 2.877840e-03 2.015913e-03 -3.142912e-03 -7.768804e-04 -7.758280e-03 -2.854094e-03 4.868180e-03 7.033036e-03 5.354112e-04 -6.709811e-03 -8.852467e-03 -6.282184e-04
<VARIANCE> 39
 7.471952e-01 9.603767e-01 1.721881e+00 2.815870e+00 3.716611e+00 5.451261e+00 4.976114e+00 5.633361e+00 6.011134e+00 6.188610e+00 6.750349e+00 5.520415e+00 4.157740e+00 8.340596e-02 1.137960e-01 2.037660e-01 3.203350e-01 4.272739e-01 5.619625e-01 5.911993e-01 6.737512e-01 7.069759e-01 7.180840e-01 7.320747e-01 6.567263e-01 4.469016e-01 1.655164e-02 2.141494e-02 3.840159e-02 6.027028e-02 8.053555e-02 1.050329e-01 1.110704e-01 1.268826e-01 1.325271e-01 1.350763e-01 1.368612e-01 1.225251e-01 8.456783e-02
<GCONST> 4.234654e+01
<TRANSP> 3
 0.000000e+00 1.000000e+00 0.000000e+00
 0.000000e+00 9.478431e-01 5.215686e-02
 0.000000e+00 0.000000e+00 0.000000e+00
<ENDHMM>
~h "female"
<BEGINHMM>
<NUMSTATES> 3
<STATE> 2
<MEAN> 39
 -2.877400e+01 -3.831285e+00 -7.342333e+00 -1.144432e+00 -1.810883e+00 1.431291e+00 -1.030707e+00 -7.195728e-01 -2.711679e+00 -6.624506e-01 2.460262e+00 2.335573e+00 1.056382e+02 -2.350066e-02 -1.311269e-02 -1.931260e-02 -2.544828e-03 -2.223043e-03 -1.588803e-02 5.609824e-03 1.773859e-02 -3.702679e-04 -1.897897e-02 3.753950e-02 1.665917e-02 3.092933e-01 -9.453039e-03 1.276048e-03 -5.426584e-04 4.130192e-03 2.996108e-03 -9.807857e-04 7.329192e-03 1.264440e-02 -1.312529e-03 1.026657e-02 -1.253537e-02 1.246916e-02 6.509341e-04
<VARIANCE> 39
 4.732838e+00 1.163722e+00 2.254936e+00 2.996521e+00 3.915008e+00 5.086853e+00 5.439331e+00 6.229205e+00 6.389284e+00 6.431691e+00 6.534255e+00 5.749091e+00 6.550578e+01 4.667299e-01 1.386397e-01 2.644698e-01 3.590020e-01 4.782166e-01 5.804700e-01 6.486588e-01 7.612335e-01 7.558587e-01 7.596886e-01 7.641013e-01 6.857154e-01 6.467051e+00 1.037115e-01 2.613373e-02 4.796960e-02 6.613664e-02 8.735002e-02 1.083887e-01 1.192740e-01 1.391541e-01 1.387898e-01 1.404683e-01 1.399331e-01 1.283425e-01 1.259887e+00
<GCONST> 5.876997e+01
<TRANSP> 3
 0.000000e+00 1.000000e+00 0.000000e+00
 0.000000e+00 9.492004e-01 5.079963e-02
 0.000000e+00 0.000000e+00 0.000000e+00
<ENDHMM>
