~o
<STREAMINFO> 1 39
<VECSIZE> 39<NULLD><MFCC_D_A_0><DIAGC>
~h "male"
<BEGINHMM>
<NUMSTATES> 3
<STATE> 2
<NUMMIXES> 15
<MIXTURE> 1 6.250000e-02
<MEAN> 39
 -2.756861e+01 -2.953855e+00 -6.782381e+00 -1.236439e+00 -2.015701e+00 9.490651e-02 4.455894e-02 1.790457e+00 1.229396e+00 3.136887e+00 2.036362e+00 3.173751e+00 1.108380e+02 3.907950e-01 2.835986e-01 3.778684e-01 4.517398e-01 5.134538e-01 5.712273e-01 6.182799e-01 6.470715e-01 6.622503e-01 6.818378e-01 6.936522e-01 6.486640e-01 1.191256e+00 1.690668e-01 1.276018e-01 1.696881e-01 2.017060e-01 2.300883e-01 2.534290e-01 2.777569e-01 2.900886e-01 2.972690e-01 3.086398e-01 3.096679e-01 2.944348e-01 5.130261e-01
<VARIANCE> 39
 2.362267e+00 1.118746e+00 1.961340e+00 2.804738e+00 3.751704e+00 4.540013e+00 5.260388e+00 5.637242e+00 5.907678e+00 6.494690e+00 6.661374e+00 5.894060e+00 2.529758e+01 2.367007e-01 1.258934e-01 2.229717e-01 3.169320e-01 4.117774e-01 5.006635e-01 5.958988e-01 6.517504e-01 6.808805e-01 7.311568e-01 7.419987e-01 6.648744e-01 2.207525e+00 4.519644e-02 2.531497e-02 4.487010e-02 6.410726e-02 8.323061e-02 1.013149e-01 1.205000e-01 1.315762e-01 1.374456e-01 1.475242e-01 1.502009e-01 1.342820e-01 4.083786e-01
<GCONST> 5.158515e+01
<MIXTURE> 2 6.250000e-02
<MEAN> 39
 -2.818340e+01 -3.376938e+00 -7.342572e+00 -1.906333e+00 -2.790473e+00 -7.573856e-01 -8.728628e-01 8.407420e-01 2.571675e-01 2.117499e+00 1.003977e+00 2.202643e+00 1.088262e+02 1.961874e-01 1.416728e-01 1.889888e-01 2.265530e-01 2.567743e-01 2.881969e-01 3.095020e-01 3.241473e-01 3.321884e-01 3.398069e-01 3.490948e-01 3.225046e-01 5.969460e-01 8.402895e-02 6.395914e-02 8.495779e-02 1.004283e-01 1.146894e-01 1.261090e-01 1.389045e-01 1.449949e-01 1.489743e-01 1.550043e-01 1.546449e-01 1.478568e-01 2.574080e-01
<VARIANCE> 39
 2.362267e+00 1.118746e+00 1.961340e+00 2.804738e+00 3.751704e+00 4.540013e+00 5.260388e+00 5.637242e+00 5.907678e+00 6.494690e+00 6.661374e+00 5.894060e+00 2.529758e+01 2.367007e-01 1.258934e-01 2.229717e-01 3.169320e-01 4.117774e-01 5.006635e-01 5.958988e-01 6.517504e-01 6.808805e-01 7.311568e-01 7.419987e-01 6.648744e-01 2.207525e+00 4.519644e-02 2.531497e-02 4.487010e-02 6.410726e-02 8.323061e-02 1.013149e-01 1.205000e-01 1.315762e-01 1.374456e-01 1.475242e-01 1.502009e-01 1.342820e-01 4.083786e-01
<GCONST> 5.158515e+01
<MIXTURE> 3 6.250000e-02
<MEAN> 39
 -2.818340e+01 -3.376939e+00 -7.342572e+00 -1.906333e+00 -2.790473e+00 -7.573857e-01 -8.728625e-01 8.407420e-01 2.571675e-01 2.117499e+00 1.003977e+00 2.202643e+00 1.088262e+02 1.961874e-01 1.416728e-01 1.889888e-01 2.265530e-01 2.567743e-01 2.881969e-01 3.095020e-01 3.241473e-01 3.321884e-01 3.398069e-01 3.490948e-01 3.225046e-01 5.969460e-01 8.402895e-02 6.395914e-02 8.495779e-02 1.004283e-01 1.146894e-01 1.261090e-01 1.389045e-01 1.449949e-01 1.489743e-01 1.550043e-01 1.546449e-01 1.478568e-01 2.574080e-01
<VARIANCE> 39
 2.362267e+00 1.118746e+00 1.961340e+00 2.804738e+00 3.751704e+00 4.540013e+00 5.260388e+00 5.637242e+00 5.907678e+00 6.494690e+00 6.661374e+00 5.894060e+00 2.529758e+01 2.367007e-01 1.258934e-01 2.229717e-01 3.169320e-01 4.117774e-01 5.006635e-01 5.958988e-01 6.517504e-01 6.808805e-01 7.311568e-01 7.419987e-01 6.648744e-01 2.207525e+00 4.519644e-02 2.531497e-02 4.487010e-02 6.410726e-02 8.323061e-02 1.013149e-01 1.205000e-01 1.315762e-01 1.374456e-01 1.475242e-01 1.502009e-01 1.342820e-01 4.083786e-01
<GCONST> 5.158515e+01
<MIXTURE> 4 6.250000e-02
<MEAN> 39
 -2.879819e+01 -3.800022e+00 -7.902763e+00 -2.576227e+00 -3.565246e+00 -1.609678e+00 -1.790284e+00 -1.089731e-01 -7.150611e-01 1.098112e+00 -2.840889e-02 1.231536e+00 1.068143e+02 1.579791e-03 -2.530515e-04 1.093149e-04 1.366109e-03 9.474158e-05 5.166590e-03 7.241070e-04 1.223058e-03 2.126426e-03 -2.223939e-03 4.537433e-03 -3.654689e-03 2.636313e-03 -1.008868e-03 3.164187e-04 2.275333e-04 -8.493066e-04 -7.094443e-04 -1.210988e-03 5.203485e-05 -9.888411e-05 6.797016e-04 1.368776e-03 -3.781468e-04 1.278758e-03 1.789987e-03
<VARIANCE> 39
 2.362267e+00 1.118746e+00 1.961340e+00 2.804738e+00 3.751704e+00 4.540013e+00 5.260388e+00 5.637242e+00 5.907678e+00 6.494690e+00 6.661374e+00 5.894060e+00 2.529758e+01 2.367007e-01 1.258934e-01 2.229717e-01 3.169320e-01 4.117774e-01 5.006635e-01 5.958988e-01 6.517504e-01 6.808805e-01 7.311568e-01 7.419987e-01 6.648744e-01 2.207525e+00 4.519644e-02 2.531497e-02 4.487010e-02 6.410726e-02 8.323061e-02 1.013149e-01 1.205000e-01 1.315762e-01 1.374456e-01 1.475242e-01 1.502009e-01 1.342820e-01 4.083786e-01
<GCONST> 5.158515e+01
<MIXTURE> 5 6.250000e-02
<MEAN> 39
 -2.818340e+01 -3.376939e+00 -7.342572e+00 -1.906333e+00 -2.790473e+00 -7.573857e-01 -8.728625e-01 8.407420e-01 2.571675e-01 2.117499e+00 1.003977e+00 2.202643e+00 1.088262e+02 1.961874e-01 1.416728e-01 1.889888e-01 2.265530e-01 2.567743e-01 2.881969e-01 3.095020e-01 3.241473e-01 3.321884e-01 3.398069e-01 3.490948e-01 3.225046e-01 5.969460e-01 8.402895e-02 6.395914e-02 8.495779e-02 1.004283e-01 1.146894e-01 1.261090e-01 1.389045e-01 1.449949e-01 1.489743e-01 1.550043e-01 1.546449e-01 1.478568e-01 2.574080e-01
<VARIANCE> 39
 2.362267e+00 1.118746e+00 1.961340e+00 2.804738e+00 3.751704e+00 4.540013e+00 5.260388e+00 5.637242e+00 5.907678e+00 6.494690e+00 6.661374e+00 5.894060e+00 2.529758e+01 2.367007e-01 1.258934e-01 2.229717e-01 3.169320e-01 4.117774e-01 5.006635e-01 5.958988e-01 6.517504e-01 6.808805e-01 7.311568e-01 7.419987e-01 6.648744e-01 2.207525e+00 4.519644e-02 2.531497e-02 4.487010e-02 6.410726e-02 8.323061e-02 1.013149e-01 1.205000e-01 1.315762e-01 1.374456e-01 1.475242e-01 1.502009e-01 1.342820e-01 4.083786e-01
<GCONST> 5.158515e+01
<MIXTURE> 6 6.250000e-02
<MEAN> 39
 -2.879819e+01 -3.800022e+00 -7.902763e+00 -2.576227e+00 -3.565246e+00 -1.609678e+00 -1.790284e+00 -1.089731e-01 -7.150611e-01 1.098112e+00 -2.840889e-02 1.231536e+00 1.068143e+02 1.579784e-03 -2.530515e-04 1.093149e-04 1.366109e-03 9.474158e-05 5.166575e-03 7.241070e-04 1.223072e-03 2.126440e-03 -2.223954e-03 4.537448e-03 -3.654703e-03 2.636343e-03 -1.008868e-03 3.164187e-04 2.275370e-04 -8.493103e-04 -7.094443e-04 -1.210988e-03 5.204231e-05 -9.888411e-05 6.797016e-04 1.368769e-03 -3.781468e-04 1.278758e-03 1.789972e-03
<VARIANCE> 39
 2.362267e+00 1.118746e+00 1.961340e+00 2.804738e+00 3.751704e+00 4.540013e+00 5.260388e+00 5.637242e+00 5.907678e+00 6.494690e+00 6.661374e+00 5.894060e+00 2.529758e+01 2.367007e-01 1.258934e-01 2.229717e-01 3.169320e-01 4.117774e-01 5.006635e-01 5.958988e-01 6.517504e-01 6.808805e-01 7.311568e-01 7.419987e-01 6.648744e-01 2.207525e+00 4.519644e-02 2.531497e-02 4.487010e-02 6.410726e-02 8.323061e-02 1.013149e-01 1.205000e-01 1.315762e-01 1.374456e-01 1.475242e-01 1.502009e-01 1.342820e-01 4.083786e-01
<GCONST> 5.158515e+01
<MIXTURE> 7 6.250000e-02
<MEAN> 39
 -2.879819e+01 -3.800022e+00 -7.902763e+00 -2.576227e+00 -3.565246e+00 -1.609678e+00 -1.790284e+00 -1.089731e-01 -7.150611e-01 1.098112e+00 -2.840889e-02 1.231536e+00 1.068143e+02 1.579784e-03 -2.530515e-04 1.093149e-04 1.366109e-03 9.474158e-05 5.166575e-03 7.241070e-04 1.223072e-03 2.126440e-03 -2.223954e-03 4.537448e-03 -3.654703e-03 2.636343e-03 -1.008868e-03 3.164187e-04 2.275370e-04 -8.493103e-04 -7.094443e-04 -1.210995e-03 5.204231e-05 -9.888411e-05 6.797016e-04 1.368769e-03 -3.781468e-04 1.278758e-03 1.789972e-03
<VARIANCE> 39
 2.362267e+00 1.118746e+00 1.961340e+00 2.804738e+00 3.751704e+00 4.540013e+00 5.260388e+00 5.637242e+00 5.907678e+00 6.494690e+00 6.661374e+00 5.894060e+00 2.529758e+01 2.367007e-01 1.258934e-01 2.229717e-01 3.169320e-01 4.117774e-01 5.006635e-01 5.958988e-01 6.517504e-01 6.808805e-01 7.311568e-01 7.419987e-01 6.648744e-01 2.207525e+00 4.519644e-02 2.531497e-02 4.487010e-02 6.410726e-02 8.323061e-02 1.013149e-01 1.205000e-01 1.315762e-01 1.374456e-01 1.475242e-01 1.502009e-01 1.342820e-01 4.083786e-01
<GCONST> 5.158515e+01
<MIXTURE> 8 1.250000e-01
<MEAN> 39
 -2.972037e+01 -4.434647e+00 -8.743051e+00 -3.581068e+00 -4.727405e+00 -2.888116e+00 -3.166416e+00 -1.533546e+00 -2.173404e+00 -4.309689e-01 -1.576987e+00 -2.251251e-01 1.037965e+02 -2.903316e-01 -2.131418e-01 -2.832100e-01 -3.364142e-01 -3.849246e-01 -4.193789e-01 -4.624428e-01 -4.831633e-01 -4.929665e-01 -5.152702e-01 -5.122986e-01 -4.928937e-01 -8.888282e-01 -1.285656e-01 -9.514765e-02 -1.268679e-01 -1.527658e-01 -1.738077e-01 -1.921910e-01 -2.082266e-01 -2.177395e-01 -2.217622e-01 -2.290845e-01 -2.329127e-01 -2.185883e-01 -3.816371e-01
<VARIANCE> 39
 2.362267e+00 1.118746e+00 1.961340e+00 2.804738e+00 3.751704e+00 4.540013e+00 5.260388e+00 5.637242e+00 5.907678e+00 6.494690e+00 6.661374e+00 5.894060e+00 2.529758e+01 2.367007e-01 1.258934e-01 2.229717e-01 3.169320e-01 4.117774e-01 5.006635e-01 5.958988e-01 6.517504e-01 6.808805e-01 7.311568e-01 7.419987e-01 6.648744e-01 2.207525e+00 4.519644e-02 2.531497e-02 4.487010e-02 6.410726e-02 8.323061e-02 1.013149e-01 1.205000e-01 1.315762e-01 1.374456e-01 1.475242e-01 1.502009e-01 1.342820e-01 4.083786e-01
<GCONST> 5.158515e+01
<MIXTURE> 9 6.250000e-02
<MEAN> 39
 -2.818340e+01 -3.376939e+00 -7.342572e+00 -1.906333e+00 -2.790473e+00 -7.573857e-01 -8.728625e-01 8.407420e-01 2.571675e-01 2.117499e+00 1.003977e+00 2.202643e+00 1.088262e+02 1.961874e-01 1.416728e-01 1.889888e-01 2.265529e-01 2.567743e-01 2.881969e-01 3.095020e-01 3.241473e-01 3.321884e-01 3.398069e-01 3.490948e-01 3.225046e-01 5.969460e-01 8.402894e-02 6.395914e-02 8.495779e-02 1.004283e-01 1.146894e-01 1.261090e-01 1.389045e-01 1.449949e-01 1.489743e-01 1.550043e-01 1.546449e-01 1.478568e-01 2.574080e-01
<VARIANCE> 39
 2.362267e+00 1.118746e+00 1.961340e+00 2.804738e+00 3.751704e+00 4.540013e+00 5.260388e+00 5.637242e+00 5.907678e+00 6.494690e+00 6.661374e+00 5.894060e+00 2.529758e+01 2.367007e-01 1.258934e-01 2.229717e-01 3.169320e-01 4.117774e-01 5.006635e-01 5.958988e-01 6.517504e-01 6.808805e-01 7.311568e-01 7.419987e-01 6.648744e-01 2.207525e+00 4.519644e-02 2.531497e-02 4.487010e-02 6.410726e-02 8.323061e-02 1.013149e-01 1.205000e-01 1.315762e-01 1.374456e-01 1.475242e-01 1.502009e-01 1.342820e-01 4.083786e-01
<GCONST> 5.158515e+01
<MIXTURE> 10 6.250000e-02
<MEAN> 39
 -2.879819e+01 -3.800022e+00 -7.902763e+00 -2.576227e+00 -3.565246e+00 -1.609678e+00 -1.790284e+00 -1.089731e-01 -7.150611e-01 1.098112e+00 -2.840889e-02 1.231536e+00 1.068143e+02 1.579784e-03 -2.530515e-04 1.093149e-04 1.366109e-03 9.474158e-05 5.166575e-03 7.241070e-04 1.223072e-03 2.126440e-03 -2.223954e-03 4.537448e-03 -3.654703e-03 2.636343e-03 -1.008868e-03 3.164187e-04 2.275370e-04 -8.493103e-04 -7.094443e-04 -1.210988e-03 5.204231e-05 -9.888411e-05 6.797016e-04 1.368769e-03 -3.781468e-04 1.278758e-03 1.789972e-03
<VARIANCE> 39
 2.362267e+00 1.118746e+00 1.961340e+00 2.804738e+00 3.751704e+00 4.540013e+00 5.260388e+00 5.637242e+00 5.907678e+00 6.494690e+00 6.661374e+00 5.894060e+00 2.529758e+01 2.367007e-01 1.258934e-01 2.229717e-01 3.169320e-01 4.117774e-01 5.006635e-01 5.958988e-01 6.517504e-01 6.808805e-01 7.311568e-01 7.419987e-01 6.648744e-01 2.207525e+00 4.519644e-02 2.531497e-02 4.487010e-02 6.410726e-02 8.323061e-02 1.013149e-01 1.205000e-01 1.315762e-01 1.374456e-01 1.475242e-01 1.502009e-01 1.342820e-01 4.083786e-01
<GCONST> 5.158515e+01
<MIXTURE> 11 6.250000e-02
<MEAN> 39
 -2.879819e+01 -3.800022e+00 -7.902763e+00 -2.576227e+00 -3.565246e+00 -1.609678e+00 -1.790284e+00 -1.089731e-01 -7.150612e-01 1.098112e+00 -2.840889e-02 1.231536e+00 1.068143e+02 1.579784e-03 -2.530515e-04 1.093149e-04 1.366109e-03 9.474158e-05 5.166575e-03 7.241070e-04 1.223072e-03 2.126440e-03 -2.223954e-03 4.537448e-03 -3.654703e-03 2.636343e-03 -1.008868e-03 3.164187e-04 2.275370e-04 -8.493103e-04 -7.094443e-04 -1.210991e-03 5.204231e-05 -9.888411e-05 6.797016e-04 1.368769e-03 -3.781468e-04 1.278758e-03 1.789972e-03
<VARIANCE> 39
 2.362267e+00 1.118746e+00 1.961340e+00 2.804738e+00 3.751704e+00 4.540013e+00 5.260388e+00 5.637242e+00 5.907678e+00 6.494690e+00 6.661374e+00 5.894060e+00 2.529758e+01 2.367007e-01 1.258934e-01 2.229717e-01 3.169320e-01 4.117774e-01 5.006635e-01 5.958988e-01 6.517504e-01 6.808805e-01 7.311568e-01 7.419987e-01 6.648744e-01 2.207525e+00 4.519644e-02 2.531497e-02 4.487010e-02 6.410726e-02 8.323061e-02 1.013149e-01 1.205000e-01 1.315762e-01 1.374456e-01 1.475242e-01 1.502009e-01 1.342820e-01 4.083786e-01
<GCONST> 5.158515e+01
<MIXTURE> 12 6.250000e-02
<MEAN> 39
 -2.941298e+01 -4.223105e+00 -8.462955e+00 -3.246121e+00 -4.340019e+00 -2.461970e+00 -2.707705e+00 -1.058688e+00 -1.687290e+00 7.872474e-02 -1.060794e+00 2.604286e-01 1.048024e+02 -1.930278e-01 -1.421789e-01 -1.887702e-01 -2.238207e-01 -2.565848e-01 -2.778637e-01 -3.080538e-01 -3.217012e-01 -3.279355e-01 -3.442548e-01 -3.400199e-01 -3.298140e-01 -5.916734e-01 -8.604669e-02 -6.332630e-02 -8.450273e-02 -1.021270e-01 -1.161083e-01 -1.285310e-01 -1.388004e-01 -1.451926e-01 -1.476149e-01 -1.522667e-01 -1.554012e-01 -1.452993e-01 -2.538280e-01
<VARIANCE> 39
 2.362267e+00 1.118746e+00 1.961340e+00 2.804738e+00 3.751704e+00 4.540013e+00 5.260388e+00 5.637242e+00 5.907678e+00 6.494690e+00 6.661374e+00 5.894060e+00 2.529758e+01 2.367007e-01 1.258934e-01 2.229717e-01 3.169320e-01 4.117774e-01 5.006635e-01 5.958988e-01 6.517504e-01 6.808805e-01 7.311568e-01 7.419987e-01 6.648744e-01 2.207525e+00 4.519644e-02 2.531497e-02 4.487010e-02 6.410726e-02 8.323061e-02 1.013149e-01 1.205000e-01 1.315762e-01 1.374456e-01 1.475242e-01 1.502009e-01 1.342820e-01 4.083786e-01
<GCONST> 5.158515e+01
<MIXTURE> 13 6.250000e-02
<MEAN> 39
 -2.879819e+01 -3.800022e+00 -7.902763e+00 -2.576227e+00 -3.565246e+00 -1.609678e+00 -1.790284e+00 -1.089731e-01 -7.150612e-01 1.098112e+00 -2.840889e-02 1.231536e+00 1.068143e+02 1.579791e-03 -2.530515e-04 1.093149e-04 1.366109e-03 9.474158e-05 5.166590e-03 7.241070e-04 1.223058e-03 2.126426e-03 -2.223939e-03 4.537433e-03 -3.654689e-03 2.636313e-03 -1.008868e-03 3.164187e-04 2.275333e-04 -8.493066e-04 -7.094443e-04 -1.210988e-03 5.203485e-05 -9.888411e-05 6.797016e-04 1.368776e-03 -3.781468e-04 1.278758e-03 1.789987e-03
<VARIANCE> 39
 2.362267e+00 1.118746e+00 1.961340e+00 2.804738e+00 3.751704e+00 4.540013e+00 5.260388e+00 5.637242e+00 5.907678e+00 6.494690e+00 6.661374e+00 5.894060e+00 2.529758e+01 2.367007e-01 1.258934e-01 2.229717e-01 3.169320e-01 4.117774e-01 5.006635e-01 5.958988e-01 6.517504e-01 6.808805e-01 7.311568e-01 7.419987e-01 6.648744e-01 2.207525e+00 4.519644e-02 2.531497e-02 4.487010e-02 6.410726e-02 8.323061e-02 1.013149e-01 1.205000e-01 1.315762e-01 1.374456e-01 1.475242e-01 1.502009e-01 1.342820e-01 4.083786e-01
<GCONST> 5.158515e+01
<MIXTURE> 14 6.250000e-02
<MEAN> 39
 -2.941298e+01 -4.223105e+00 -8.462955e+00 -3.246121e+00 -4.340019e+00 -2.461970e+00 -2.707705e+00 -1.058688e+00 -1.687290e+00 7.872474e-02 -1.060794e+00 2.604286e-01 1.048024e+02 -1.930278e-01 -1.421789e-01 -1.887702e-01 -2.238207e-01 -2.565848e-01 -2.778637e-01 -3.080538e-01 -3.217012e-01 -3.279355e-01 -3.442548e-01 -3.400199e-01 -3.298140e-01 -5.916734e-01 -8.604669e-02 -6.332630e-02 -8.450273e-02 -1.021270e-01 -1.161083e-01 -1.285310e-01 -1.388004e-01 -1.451926e-01 -1.476149e-01 -1.522667e-01 -1.554012e-01 -1.452993e-01 -2.538280e-01
<VARIANCE> 39
 2.362267e+00 1.118746e+00 1.961340e+00 2.804738e+00 3.751704e+00 4.540013e+00 5.260388e+00 5.637242e+00 5.907678e+00 6.494690e+00 6.661374e+00 5.894060e+00 2.529758e+01 2.367007e-01 1.258934e-01 2.229717e-01 3.169320e-01 4.117774e-01 5.006635e-01 5.958988e-01 6.517504e-01 6.808805e-01 7.311568e-01 7.419987e-01 6.648744e-01 2.207525e+00 4.519644e-02 2.531497e-02 4.487010e-02 6.410726e-02 8.323061e-02 1.013149e-01 1.205000e-01 1.315762e-01 1.374456e-01 1.475242e-01 1.502009e-01 1.342820e-01 4.083786e-01
<GCONST> 5.158515e+01
<MIXTURE> 15 6.250000e-02
<MEAN> 39
 -2.941298e+01 -4.223105e+00 -8.462955e+00 -3.246121e+00 -4.340019e+00 -2.461970e+00 -2.707705e+00 -1.058688e+00 -1.687290e+00 7.872474e-02 -1.060794e+00 2.604286e-01 1.048024e+02 -1.930278e-01 -1.421789e-01 -1.887702e-01 -2.238207e-01 -2.565848e-01 -2.778637e-01 -3.080538e-01 -3.217012e-01 -3.279355e-01 -3.442548e-01 -3.400199e-01 -3.298140e-01 -5.916734e-01 -8.604669e-02 -6.332630e-02 -8.450273e-02 -1.021270e-01 -1.161083e-01 -1.285310e-01 -1.388004e-01 -1.451926e-01 -1.476149e-01 -1.522667e-01 -1.554012e-01 -1.452993e-01 -2.538280e-01
<VARIANCE> 39
 2.362267e+00 1.118746e+00 1.961340e+00 2.804738e+00 3.751704e+00 4.540013e+00 5.260388e+00 5.637242e+00 5.907678e+00 6.494690e+00 6.661374e+00 5.894060e+00 2.529758e+01 2.367007e-01 1.258934e-01 2.229717e-01 3.169320e-01 4.117774e-01 5.006635e-01 5.958988e-01 6.517504e-01 6.808805e-01 7.311568e-01 7.419987e-01 6.648744e-01 2.207525e+00 4.519644e-02 2.531497e-02 4.487010e-02 6.410726e-02 8.323061e-02 1.013149e-01 1.205000e-01 1.315762e-01 1.374456e-01 1.475242e-01 1.502009e-01 1.342820e-01 4.083786e-01
<GCONST> 5.158515e+01
<TRANSP> 3
 0.000000e+00 1.000000e+00 0.000000e+00
 0.000000e+00 9.834388e-01 1.656117e-02
 0.000000e+00 0.000000e+00 0.000000e+00
<ENDHMM>
~h "female"
<BEGINHMM>
<NUMSTATES> 3
<STATE> 2
<NUMMIXES> 15
<MIXTURE> 1 6.250000e-02
<MEAN> 39
 -2.800503e+01 -3.109637e+00 -7.128777e+00 -1.086115e+00 -2.409976e+00 3.853407e-01 -1.475452e-01 1.842128e+00 1.173749e+00 3.069480e+00 2.181611e+00 3.266524e+00 1.075120e+02 2.024276e-01 2.742078e-01 3.729658e-01 4.600055e-01 5.055549e-01 5.725805e-01 6.089346e-01 6.402713e-01 6.566065e-01 6.839925e-01 7.000388e-01 6.460586e-01 1.422217e-01 9.139022e-02 1.225052e-01 1.658744e-01 2.032209e-01 2.279222e-01 2.574584e-01 2.736263e-01 2.873571e-01 2.921990e-01 3.073351e-01 3.112641e-01 2.878412e-01 4.789681e-02
<VARIANCE> 39
 6.033506e-01 1.080741e+00 1.865512e+00 2.830251e+00 3.810899e+00 4.506984e+00 5.224555e+00 5.565513e+00 5.875422e+00 6.413554e+00 6.750521e+00 5.804081e+00 1.940959e-01 6.399053e-02 1.185674e-01 2.157107e-01 3.192111e-01 3.999230e-01 5.055753e-01 5.849022e-01 6.378915e-01 6.625338e-01 7.250248e-01 7.545444e-01 6.504030e-01 3.040414e-02 1.293257e-02 2.365499e-02 4.352629e-02 6.420424e-02 8.150261e-02 1.026433e-01 1.182937e-01 1.287071e-01 1.329322e-01 1.470743e-01 1.516716e-01 1.290362e-01 3.708493e-03
<GCONST> 3.329902e+01
<MIXTURE> 2 6.250000e-02
<MEAN> 39
 -2.831574e+01 -3.525472e+00 -7.675112e+00 -1.759049e+00 -3.190837e+00 -4.638456e-01 -1.061837e+00 8.984748e-01 2.041779e-01 2.056480e+00 1.142340e+00 2.302857e+00 1.073358e+02 1.012421e-01 1.364734e-01 1.871872e-01 2.340104e-01 2.525970e-01 2.881652e-01 3.030190e-01 3.207989e-01 3.310218e-01 3.433989e-01 3.525807e-01 3.234683e-01 7.247460e-02 4.590164e-02 6.098449e-02 8.242254e-02 1.018667e-01 1.137276e-01 1.293065e-01 1.360509e-01 1.438540e-01 1.463595e-01 1.539340e-01 1.554840e-01 1.441547e-01 2.353785e-02
<VARIANCE> 39
 6.033506e-01 1.080741e+00 1.865512e+00 2.830251e+00 3.810899e+00 4.506984e+00 5.224555e+00 5.565513e+00 5.875422e+00 6.413554e+00 6.750521e+00 5.804081e+00 1.940959e-01 6.399053e-02 1.185674e-01 2.157107e-01 3.192111e-01 3.999230e-01 5.055753e-01 5.849022e-01 6.378915e-01 6.625338e-01 7.250248e-01 7.545444e-01 6.504030e-01 3.040414e-02 1.293257e-02 2.365499e-02 4.352629e-02 6.420424e-02 8.150261e-02 1.026433e-01 1.182937e-01 1.287071e-01 1.329322e-01 1.470743e-01 1.516716e-01 1.290362e-01 3.708493e-03
<GCONST> 3.329902e+01
<MIXTURE> 3 6.250000e-02
<MEAN> 39
 -2.831574e+01 -3.525472e+00 -7.675112e+00 -1.759049e+00 -3.190837e+00 -4.638456e-01 -1.061837e+00 8.984748e-01 2.041779e-01 2.056480e+00 1.142340e+00 2.302857e+00 1.073358e+02 1.012421e-01 1.364734e-01 1.871872e-01 2.340104e-01 2.525970e-01 2.881652e-01 3.030190e-01 3.207989e-01 3.310218e-01 3.433989e-01 3.525807e-01 3.234683e-01 7.247460e-02 4.590164e-02 6.098449e-02 8.242254e-02 1.018667e-01 1.137276e-01 1.293065e-01 1.360509e-01 1.438540e-01 1.463595e-01 1.539340e-01 1.554840e-01 1.441547e-01 2.353785e-02
<VARIANCE> 39
 6.033506e-01 1.080741e+00 1.865512e+00 2.830251e+00 3.810899e+00 4.506984e+00 5.224555e+00 5.565513e+00 5.875422e+00 6.413554e+00 6.750521e+00 5.804081e+00 1.940959e-01 6.399053e-02 1.185674e-01 2.157107e-01 3.192111e-01 3.999230e-01 5.055753e-01 5.849022e-01 6.378915e-01 6.625338e-01 7.250248e-01 7.545444e-01 6.504030e-01 3.040414e-02 1.293257e-02 2.365499e-02 4.352629e-02 6.420424e-02 8.150261e-02 1.026433e-01 1.182937e-01 1.287071e-01 1.329322e-01 1.470743e-01 1.516716e-01 1.290362e-01 3.708493e-03
<GCONST> 3.329902e+01
<MIXTURE> 4 6.250000e-02
<MEAN> 39
 -2.862644e+01 -3.941307e+00 -8.221447e+00 -2.431983e+00 -3.971698e+00 -1.313032e+00 -1.976128e+00 -4.517883e-02 -7.653929e-01 1.043480e+00 1.030693e-01 1.339191e+00 1.071596e+02 5.673617e-05 -1.261115e-03 1.408502e-03 8.015320e-03 -3.608167e-04 3.749967e-03 -2.896607e-03 1.326472e-03 5.437016e-03 2.805322e-03 5.122602e-03 8.779764e-04 2.727464e-03 4.130565e-04 -5.362239e-04 -1.029283e-03 5.125180e-04 -4.670769e-04 1.154467e-03 -1.524463e-03 3.509372e-04 5.200505e-04 5.329251e-04 -2.961606e-04 4.682839e-04 -8.211080e-04
<VARIANCE> 39
 6.033506e-01 1.080741e+00 1.865512e+00 2.830251e+00 3.810899e+00 4.506984e+00 5.224555e+00 5.565513e+00 5.875422e+00 6.413554e+00 6.750521e+00 5.804081e+00 1.940959e-01 6.399053e-02 1.185674e-01 2.157107e-01 3.192111e-01 3.999230e-01 5.055753e-01 5.849022e-01 6.378915e-01 6.625338e-01 7.250248e-01 7.545444e-01 6.504030e-01 3.040414e-02 1.293257e-02 2.365499e-02 4.352629e-02 6.420424e-02 8.150261e-02 1.026433e-01 1.182937e-01 1.287071e-01 1.329322e-01 1.470743e-01 1.516716e-01 1.290362e-01 3.708493e-03
<GCONST> 3.329902e+01
<MIXTURE> 5 6.250000e-02
<MEAN> 39
 -2.831574e+01 -3.525472e+00 -7.675112e+00 -1.759049e+00 -3.190837e+00 -4.638456e-01 -1.061837e+00 8.984748e-01 2.041779e-01 2.056480e+00 1.142340e+00 2.302857e+00 1.073358e+02 1.012421e-01 1.364734e-01 1.871872e-01 2.340104e-01 2.525970e-01 2.881652e-01 3.030190e-01 3.207989e-01 3.310218e-01 3.433989e-01 3.525807e-01 3.234683e-01 7.247460e-02 4.590164e-02 6.098449e-02 8.242254e-02 1.018667e-01 1.137276e-01 1.293065e-01 1.360509e-01 1.438540e-01 1.463595e-01 1.539340e-01 1.554840e-01 1.441547e-01 2.353785e-02
<VARIANCE> 39
 6.033506e-01 1.080741e+00 1.865512e+00 2.830251e+00 3.810899e+00 4.506984e+00 5.224555e+00 5.565513e+00 5.875422e+00 6.413554e+00 6.750521e+00 5.804081e+00 1.940959e-01 6.399053e-02 1.185674e-01 2.157107e-01 3.192111e-01 3.999230e-01 5.055753e-01 5.849022e-01 6.378915e-01 6.625338e-01 7.250248e-01 7.545444e-01 6.504030e-01 3.040414e-02 1.293257e-02 2.365499e-02 4.352629e-02 6.420424e-02 8.150261e-02 1.026433e-01 1.182937e-01 1.287071e-01 1.329322e-01 1.470743e-01 1.516716e-01 1.290362e-01 3.708493e-03
<GCONST> 3.329902e+01
<MIXTURE> 6 6.250000e-02
<MEAN> 39
 -2.862644e+01 -3.941307e+00 -8.221447e+00 -2.431983e+00 -3.971698e+00 -1.313032e+00 -1.976128e+00 -4.517883e-02 -7.653929e-01 1.043480e+00 1.030693e-01 1.339191e+00 1.071596e+02 5.673245e-05 -1.261123e-03 1.408502e-03 8.015327e-03 -3.608167e-04 3.749967e-03 -2.896607e-03 1.326472e-03 5.437016e-03 2.805322e-03 5.122617e-03 8.779913e-04 2.727464e-03 4.130546e-04 -5.362239e-04 -1.029283e-03 5.125217e-04 -4.670806e-04 1.154467e-03 -1.524456e-03 3.509447e-04 5.200580e-04 5.329251e-04 -2.961680e-04 4.682764e-04 -8.211080e-04
<VARIANCE> 39
 6.033506e-01 1.080741e+00 1.865512e+00 2.830251e+00 3.810899e+00 4.506984e+00 5.224555e+00 5.565513e+00 5.875422e+00 6.413554e+00 6.750521e+00 5.804081e+00 1.940959e-01 6.399053e-02 1.185674e-01 2.157107e-01 3.192111e-01 3.999230e-01 5.055753e-01 5.849022e-01 6.378915e-01 6.625338e-01 7.250248e-01 7.545444e-01 6.504030e-01 3.040414e-02 1.293257e-02 2.365499e-02 4.352629e-02 6.420424e-02 8.150261e-02 1.026433e-01 1.182937e-01 1.287071e-01 1.329322e-01 1.470743e-01 1.516716e-01 1.290362e-01 3.708493e-03
<GCONST> 3.329902e+01
<MIXTURE> 7 6.250000e-02
<MEAN> 39
 -2.862644e+01 -3.941307e+00 -8.221447e+00 -2.431983e+00 -3.971698e+00 -1.313032e+00 -1.976128e+00 -4.517883e-02 -7.653929e-01 1.043480e+00 1.030693e-01 1.339191e+00 1.071596e+02 5.673245e-05 -1.261123e-03 1.408502e-03 8.015327e-03 -3.608167e-04 3.749967e-03 -2.896607e-03 1.326472e-03 5.437016e-03 2.805322e-03 5.122617e-03 8.779913e-04 2.727464e-03 4.130546e-04 -5.362239e-04 -1.029283e-03 5.125217e-04 -4.670806e-04 1.154467e-03 -1.524456e-03 3.509447e-04 5.200580e-04 5.329251e-04 -2.961680e-04 4.682764e-04 -8.211080e-04
<VARIANCE> 39
 6.033506e-01 1.080741e+00 1.865512e+00 2.830251e+00 3.810899e+00 4.506984e+00 5.224555e+00 5.565513e+00 5.875422e+00 6.413554e+00 6.750521e+00 5.804081e+00 1.940959e-01 6.399053e-02 1.185674e-01 2.157107e-01 3.192111e-01 3.999230e-01 5.055753e-01 5.849022e-01 6.378915e-01 6.625338e-01 7.250248e-01 7.545444e-01 6.504030e-01 3.040414e-02 1.293257e-02 2.365499e-02 4.352629e-02 6.420424e-02 8.150261e-02 1.026433e-01 1.182937e-01 1.287071e-01 1.329322e-01 1.470743e-01 1.516716e-01 1.290362e-01 3.708493e-03
<GCONST> 3.329902e+01
<MIXTURE> 8 1.250000e-01
<MEAN> 39
 -2.909249e+01 -4.565059e+00 -9.040950e+00 -3.441384e+00 -5.142990e+00 -2.586812e+00 -3.347565e+00 -1.460659e+00 -2.219749e+00 -4.760198e-01 -1.455837e+00 -1.063087e-01 1.068953e+02 -1.517214e-01 -2.078628e-01 -2.772595e-01 -3.309773e-01 -3.797976e-01 -4.228730e-01 -4.617700e-01 -4.778822e-01 -4.829401e-01 -5.080850e-01 -5.160645e-01 -4.830075e-01 -1.018932e-01 -6.781982e-02 -9.281729e-02 -1.262070e-01 -1.515188e-01 -1.717590e-01 -1.910735e-01 -2.078876e-01 -2.149037e-01 -2.182392e-01 -2.295687e-01 -2.339664e-01 -2.150614e-01 -3.735955e-02
<VARIANCE> 39
 6.033506e-01 1.080741e+00 1.865512e+00 2.830251e+00 3.810899e+00 4.506984e+00 5.224555e+00 5.565513e+00 5.875422e+00 6.413554e+00 6.750521e+00 5.804081e+00 1.940959e-01 6.399053e-02 1.185674e-01 2.157107e-01 3.192111e-01 3.999230e-01 5.055753e-01 5.849022e-01 6.378915e-01 6.625338e-01 7.250248e-01 7.545444e-01 6.504030e-01 3.040414e-02 1.293257e-02 2.365499e-02 4.352629e-02 6.420424e-02 8.150261e-02 1.026433e-01 1.182937e-01 1.287071e-01 1.329322e-01 1.470743e-01 1.516716e-01 1.290362e-01 3.708493e-03
<GCONST> 3.329902e+01
<MIXTURE> 9 6.250000e-02
<MEAN> 39
 -2.831574e+01 -3.525472e+00 -7.675112e+00 -1.759049e+00 -3.190837e+00 -4.638456e-01 -1.061837e+00 8.984747e-01 2.041779e-01 2.056480e+00 1.142340e+00 2.302857e+00 1.073358e+02 1.012421e-01 1.364734e-01 1.871872e-01 2.340104e-01 2.525970e-01 2.881653e-01 3.030190e-01 3.207989e-01 3.310217e-01 3.433989e-01 3.525807e-01 3.234683e-01 7.247460e-02 4.590164e-02 6.098449e-02 8.242254e-02 1.018667e-01 1.137276e-01 1.293065e-01 1.360509e-01 1.438540e-01 1.463595e-01 1.539340e-01 1.554840e-01 1.441547e-01 2.353785e-02
<VARIANCE> 39
 6.033506e-01 1.080741e+00 1.865512e+00 2.830251e+00 3.810899e+00 4.506984e+00 5.224555e+00 5.565513e+00 5.875422e+00 6.413554e+00 6.750521e+00 5.804081e+00 1.940959e-01 6.399053e-02 1.185674e-01 2.157107e-01 3.192111e-01 3.999230e-01 5.055753e-01 5.849022e-01 6.378915e-01 6.625338e-01 7.250248e-01 7.545444e-01 6.504030e-01 3.040414e-02 1.293257e-02 2.365499e-02 4.352629e-02 6.420424e-02 8.150261e-02 1.026433e-01 1.182937e-01 1.287071e-01 1.329322e-01 1.470743e-01 1.516716e-01 1.290362e-01 3.708493e-03
<GCONST> 3.329902e+01
<MIXTURE> 10 6.250000e-02
<MEAN> 39
 -2.862644e+01 -3.941307e+00 -8.221447e+00 -2.431983e+00 -3.971698e+00 -1.313032e+00 -1.976128e+00 -4.517883e-02 -7.653929e-01 1.043480e+00 1.030693e-01 1.339191e+00 1.071596e+02 5.673245e-05 -1.261123e-03 1.408502e-03 8.015327e-03 -3.608167e-04 3.749967e-03 -2.896607e-03 1.326472e-03 5.437016e-03 2.805322e-03 5.122617e-03 8.779913e-04 2.727464e-03 4.130546e-04 -5.362239e-04 -1.029283e-03 5.125217e-04 -4.670806e-04 1.154467e-03 -1.524456e-03 3.509447e-04 5.200580e-04 5.329251e-04 -2.961680e-04 4.682764e-04 -8.211080e-04
<VARIANCE> 39
 6.033506e-01 1.080741e+00 1.865512e+00 2.830251e+00 3.810899e+00 4.506984e+00 5.224555e+00 5.565513e+00 5.875422e+00 6.413554e+00 6.750521e+00 5.804081e+00 1.940959e-01 6.399053e-02 1.185674e-01 2.157107e-01 3.192111e-01 3.999230e-01 5.055753e-01 5.849022e-01 6.378915e-01 6.625338e-01 7.250248e-01 7.545444e-01 6.504030e-01 3.040414e-02 1.293257e-02 2.365499e-02 4.352629e-02 6.420424e-02 8.150261e-02 1.026433e-01 1.182937e-01 1.287071e-01 1.329322e-01 1.470743e-01 1.516716e-01 1.290362e-01 3.708493e-03
<GCONST> 3.329902e+01
<MIXTURE> 11 6.250000e-02
<MEAN> 39
 -2.862644e+01 -3.941307e+00 -8.221447e+00 -2.431983e+00 -3.971698e+00 -1.313032e+00 -1.976128e+00 -4.517883e-02 -7.653929e-01 1.043480e+00 1.030693e-01 1.339191e+00 1.071596e+02 5.673245e-05 -1.261123e-03 1.408502e-03 8.015327e-03 -3.608167e-04 3.749967e-03 -2.896607e-03 1.326472e-03 5.437016e-03 2.805322e-03 5.122617e-03 8.779913e-04 2.727464e-03 4.130546e-04 -5.362257e-04 -1.029283e-03 5.125217e-04 -4.670806e-04 1.154467e-03 -1.524456e-03 3.509447e-04 5.200580e-04 5.329251e-04 -2.961680e-04 4.682764e-04 -8.211080e-04
<VARIANCE> 39
 6.033506e-01 1.080741e+00 1.865512e+00 2.830251e+00 3.810899e+00 4.506984e+00 5.224555e+00 5.565513e+00 5.875422e+00 6.413554e+00 6.750521e+00 5.804081e+00 1.940959e-01 6.399053e-02 1.185674e-01 2.157107e-01 3.192111e-01 3.999230e-01 5.055753e-01 5.849022e-01 6.378915e-01 6.625338e-01 7.250248e-01 7.545444e-01 6.504030e-01 3.040414e-02 1.293257e-02 2.365499e-02 4.352629e-02 6.420424e-02 8.150261e-02 1.026433e-01 1.182937e-01 1.287071e-01 1.329322e-01 1.470743e-01 1.516716e-01 1.290362e-01 3.708493e-03
<GCONST> 3.329902e+01
<MIXTURE> 12 6.250000e-02
<MEAN> 39
 -2.893714e+01 -4.357141e+00 -8.767782e+00 -3.104917e+00 -4.752559e+00 -2.162218e+00 -2.890419e+00 -9.888324e-01 -1.734964e+00 3.048015e-02 -9.362013e-01 3.755245e-01 1.069834e+02 -1.011287e-01 -1.389956e-01 -1.843702e-01 -2.179798e-01 -2.533187e-01 -2.806653e-01 -3.088122e-01 -3.181460e-01 -3.201477e-01 -3.377883e-01 -3.423355e-01 -3.217123e-01 -6.701967e-02 -4.507553e-02 -6.205694e-02 -8.448111e-02 -1.008417e-01 -1.146617e-01 -1.269975e-01 -1.390999e-01 -1.431521e-01 -1.453194e-01 -1.528682e-01 -1.560763e-01 -1.432182e-01 -2.518007e-02
<VARIANCE> 39
 6.033506e-01 1.080741e+00 1.865512e+00 2.830251e+00 3.810899e+00 4.506984e+00 5.224555e+00 5.565513e+00 5.875422e+00 6.413554e+00 6.750521e+00 5.804081e+00 1.940959e-01 6.399053e-02 1.185674e-01 2.157107e-01 3.192111e-01 3.999230e-01 5.055753e-01 5.849022e-01 6.378915e-01 6.625338e-01 7.250248e-01 7.545444e-01 6.504030e-01 3.040414e-02 1.293257e-02 2.365499e-02 4.352629e-02 6.420424e-02 8.150261e-02 1.026433e-01 1.182937e-01 1.287071e-01 1.329322e-01 1.470743e-01 1.516716e-01 1.290362e-01 3.708493e-03
<GCONST> 3.329902e+01
<MIXTURE> 13 6.250000e-02
<MEAN> 39
 -2.862644e+01 -3.941307e+00 -8.221447e+00 -2.431983e+00 -3.971698e+00 -1.313032e+00 -1.976128e+00 -4.517883e-02 -7.653929e-01 1.043480e+00 1.030693e-01 1.339191e+00 1.071596e+02 5.673617e-05 -1.261115e-03 1.408502e-03 8.015320e-03 -3.608167e-04 3.749967e-03 -2.896607e-03 1.326472e-03 5.437016e-03 2.805322e-03 5.122602e-03 8.779764e-04 2.727464e-03 4.130565e-04 -5.362257e-04 -1.029283e-03 5.125180e-04 -4.670769e-04 1.154467e-03 -1.524463e-03 3.509372e-04 5.200505e-04 5.329251e-04 -2.961606e-04 4.682839e-04 -8.211080e-04
<VARIANCE> 39
 6.033506e-01 1.080741e+00 1.865512e+00 2.830251e+00 3.810899e+00 4.506984e+00 5.224555e+00 5.565513e+00 5.875422e+00 6.413554e+00 6.750521e+00 5.804081e+00 1.940959e-01 6.399053e-02 1.185674e-01 2.157107e-01 3.192111e-01 3.999230e-01 5.055753e-01 5.849022e-01 6.378915e-01 6.625338e-01 7.250248e-01 7.545444e-01 6.504030e-01 3.040414e-02 1.293257e-02 2.365499e-02 4.352629e-02 6.420424e-02 8.150261e-02 1.026433e-01 1.182937e-01 1.287071e-01 1.329322e-01 1.470743e-01 1.516716e-01 1.290362e-01 3.708493e-03
<GCONST> 3.329902e+01
<MIXTURE> 14 6.250000e-02
<MEAN> 39
 -2.893714e+01 -4.357141e+00 -8.767782e+00 -3.104917e+00 -4.752559e+00 -2.162218e+00 -2.890419e+00 -9.888324e-01 -1.734964e+00 3.048015e-02 -9.362013e-01 3.755245e-01 1.069834e+02 -1.011287e-01 -1.389956e-01 -1.843702e-01 -2.179798e-01 -2.533187e-01 -2.806653e-01 -3.088122e-01 -3.181460e-01 -3.201477e-01 -3.377883e-01 -3.423355e-01 -3.217123e-01 -6.701967e-02 -4.507553e-02 -6.205694e-02 -8.448111e-02 -1.008417e-01 -1.146617e-01 -1.269975e-01 -1.390999e-01 -1.431521e-01 -1.453194e-01 -1.528682e-01 -1.560763e-01 -1.432182e-01 -2.518007e-02
<VARIANCE> 39
 6.033506e-01 1.080741e+00 1.865512e+00 2.830251e+00 3.810899e+00 4.506984e+00 5.224555e+00 5.565513e+00 5.875422e+00 6.413554e+00 6.750521e+00 5.804081e+00 1.940959e-01 6.399053e-02 1.185674e-01 2.157107e-01 3.192111e-01 3.999230e-01 5.055753e-01 5.849022e-01 6.378915e-01 6.625338e-01 7.250248e-01 7.545444e-01 6.504030e-01 3.040414e-02 1.293257e-02 2.365499e-02 4.352629e-02 6.420424e-02 8.150261e-02 1.026433e-01 1.182937e-01 1.287071e-01 1.329322e-01 1.470743e-01 1.516716e-01 1.290362e-01 3.708493e-03
<GCONST> 3.329902e+01
<MIXTURE> 15 6.250000e-02
<MEAN> 39
 -2.893714e+01 -4.357141e+00 -8.767782e+00 -3.104917e+00 -4.752559e+00 -2.162218e+00 -2.890419e+00 -9.888324e-01 -1.734964e+00 3.048003e-02 -9.362013e-01 3.755245e-01 1.069834e+02 -1.011287e-01 -1.389956e-01 -1.843702e-01 -2.179798e-01 -2.533187e-01 -2.806653e-01 -3.088122e-01 -3.181460e-01 -3.201477e-01 -3.377883e-01 -3.423355e-01 -3.217123e-01 -6.701967e-02 -4.507553e-02 -6.205694e-02 -8.448111e-02 -1.008417e-01 -1.146617e-01 -1.269975e-01 -1.390999e-01 -1.431521e-01 -1.453194e-01 -1.528682e-01 -1.560763e-01 -1.432182e-01 -2.518007e-02
<VARIANCE> 39
 6.033506e-01 1.080741e+00 1.865512e+00 2.830251e+00 3.810899e+00 4.506984e+00 5.224555e+00 5.565513e+00 5.875422e+00 6.413554e+00 6.750521e+00 5.804081e+00 1.940959e-01 6.399053e-02 1.185674e-01 2.157107e-01 3.192111e-01 3.999230e-01 5.055753e-01 5.849022e-01 6.378915e-01 6.625338e-01 7.250248e-01 7.545444e-01 6.504030e-01 3.040414e-02 1.293257e-02 2.365499e-02 4.352629e-02 6.420424e-02 8.150261e-02 1.026433e-01 1.182937e-01 1.287071e-01 1.329322e-01 1.470743e-01 1.516716e-01 1.290362e-01 3.708493e-03
<GCONST> 3.329902e+01
<TRANSP> 3
 0.000000e+00 1.000000e+00 0.000000e+00
 0.000000e+00 9.827933e-01 1.720667e-02
 0.000000e+00 0.000000e+00 0.000000e+00
<ENDHMM>
