~o
<STREAMINFO> 1 39
<VECSIZE> 39<NULLD><MFCC_D_A_0><DIAGC>
~h "male"
<BEGINHMM>
<NUMSTATES> 3
<STATE> 2
<NUMMIXES> 15
<MIXTURE> 1 6.250000e-02
<MEAN> 39
 -2.756862e+01 -2.953854e+00 -6.782398e+00 -1.236391e+00 -2.015482e+00 9.498423e-02 4.456562e-02 1.790451e+00 1.229575e+00 3.136976e+00 2.036487e+00 3.173873e+00 1.108387e+02 3.907955e-01 2.836001e-01 3.778747e-01 4.517415e-01 5.134570e-01 5.712291e-01 6.182891e-01 6.470764e-01 6.622478e-01 6.818322e-01 6.936611e-01 6.486611e-01 1.191264e+00 1.690665e-01 1.276024e-01 1.696866e-01 2.017029e-01 2.300903e-01 2.534301e-01 2.777536e-01 2.900882e-01 2.972707e-01 3.086363e-01 3.096674e-01 2.944364e-01 5.130263e-01
<VARIANCE> 39
 2.362245e+00 1.118745e+00 1.961345e+00 2.805040e+00 3.752664e+00 4.540586e+00 5.260564e+00 5.637225e+00 5.908938e+00 6.495152e+00 6.662091e+00 5.894641e+00 2.530524e+01 2.367014e-01 1.258947e-01 2.229793e-01 3.169344e-01 4.117824e-01 5.006672e-01 5.959163e-01 6.517603e-01 6.808756e-01 7.311451e-01 7.420179e-01 6.648684e-01 2.207554e+00 4.519632e-02 2.531518e-02 4.486935e-02 6.410532e-02 8.323210e-02 1.013159e-01 1.204971e-01 1.315758e-01 1.374472e-01 1.475208e-01 1.502004e-01 1.342835e-01 4.083790e-01
<GCONST> 5.158651e+01
<MIXTURE> 2 6.250000e-02
<MEAN> 39
 -2.818340e+01 -3.376937e+00 -7.342590e+00 -1.906321e+00 -2.790354e+00 -7.573621e-01 -8.728710e-01 8.407377e-01 2.572430e-01 2.117553e+00 1.004046e+00 2.202718e+00 1.088265e+02 1.961876e-01 1.416735e-01 1.889920e-01 2.265538e-01 2.567759e-01 2.881978e-01 3.095066e-01 3.241497e-01 3.321871e-01 3.398041e-01 3.490993e-01 3.225032e-01 5.969499e-01 8.402884e-02 6.395943e-02 8.495706e-02 1.004268e-01 1.146905e-01 1.261095e-01 1.389028e-01 1.449947e-01 1.489752e-01 1.550025e-01 1.546446e-01 1.478576e-01 2.574081e-01
<VARIANCE> 39
 2.362245e+00 1.118745e+00 1.961345e+00 2.805040e+00 3.752664e+00 4.540586e+00 5.260564e+00 5.637225e+00 5.908938e+00 6.495152e+00 6.662091e+00 5.894641e+00 2.530524e+01 2.367014e-01 1.258947e-01 2.229793e-01 3.169344e-01 4.117824e-01 5.006672e-01 5.959163e-01 6.517603e-01 6.808756e-01 7.311451e-01 7.420179e-01 6.648684e-01 2.207554e+00 4.519632e-02 2.531518e-02 4.486935e-02 6.410532e-02 8.323210e-02 1.013159e-01 1.204971e-01 1.315758e-01 1.374472e-01 1.475208e-01 1.502004e-01 1.342835e-01 4.083790e-01
<GCONST> 5.158651e+01
<MIXTURE> 3 6.250000e-02
<MEAN> 39
 -2.818340e+01 -3.376937e+00 -7.342590e+00 -1.906321e+00 -2.790354e+00 -7.573618e-01 -8.728712e-01 8.407377e-01 2.572430e-01 2.117553e+00 1.004046e+00 2.202718e+00 1.088265e+02 1.961876e-01 1.416735e-01 1.889920e-01 2.265538e-01 2.567759e-01 2.881978e-01 3.095066e-01 3.241497e-01 3.321871e-01 3.398041e-01 3.490993e-01 3.225032e-01 5.969499e-01 8.402884e-02 6.395943e-02 8.495706e-02 1.004268e-01 1.146905e-01 1.261095e-01 1.389028e-01 1.449947e-01 1.489752e-01 1.550025e-01 1.546446e-01 1.478576e-01 2.574081e-01
<VARIANCE> 39
 2.362245e+00 1.118745e+00 1.961345e+00 2.805040e+00 3.752664e+00 4.540586e+00 5.260564e+00 5.637225e+00 5.908938e+00 6.495152e+00 6.662091e+00 5.894641e+00 2.530524e+01 2.367014e-01 1.258947e-01 2.229793e-01 3.169344e-01 4.117824e-01 5.006672e-01 5.959163e-01 6.517603e-01 6.808756e-01 7.311451e-01 7.420179e-01 6.648684e-01 2.207554e+00 4.519632e-02 2.531518e-02 4.486935e-02 6.410532e-02 8.323210e-02 1.013159e-01 1.204971e-01 1.315758e-01 1.374472e-01 1.475208e-01 1.502004e-01 1.342835e-01 4.083790e-01
<GCONST> 5.158651e+01
<MIXTURE> 4 6.250000e-02
<MEAN> 39
 -2.879819e+01 -3.800020e+00 -7.902782e+00 -2.576251e+00 -3.565226e+00 -1.609708e+00 -1.790308e+00 -1.089759e-01 -7.150893e-01 1.098129e+00 -2.839506e-02 1.231563e+00 1.068143e+02 1.579747e-03 -2.530366e-04 1.092255e-04 1.366094e-03 9.477139e-05 5.166382e-03 7.241368e-04 1.223028e-03 2.126366e-03 -2.223939e-03 4.537433e-03 -3.654629e-03 2.636313e-03 -1.008868e-03 3.164560e-04 2.275184e-04 -8.492917e-04 -7.094443e-04 -1.211181e-03 5.203485e-05 -9.885430e-05 6.796718e-04 1.368791e-03 -3.781617e-04 1.278728e-03 1.789987e-03
<VARIANCE> 39
 2.362245e+00 1.118745e+00 1.961345e+00 2.805040e+00 3.752664e+00 4.540586e+00 5.260564e+00 5.637225e+00 5.908938e+00 6.495152e+00 6.662091e+00 5.894641e+00 2.530524e+01 2.367014e-01 1.258947e-01 2.229793e-01 3.169344e-01 4.117824e-01 5.006672e-01 5.959163e-01 6.517603e-01 6.808756e-01 7.311451e-01 7.420179e-01 6.648684e-01 2.207554e+00 4.519632e-02 2.531518e-02 4.486935e-02 6.410532e-02 8.323210e-02 1.013159e-01 1.204971e-01 1.315758e-01 1.374472e-01 1.475208e-01 1.502004e-01 1.342835e-01 4.083790e-01
<GCONST> 5.158651e+01
<MIXTURE> 5 6.250000e-02
<MEAN> 39
 -2.818340e+01 -3.376937e+00 -7.342590e+00 -1.906321e+00 -2.790354e+00 -7.573618e-01 -8.728712e-01 8.407377e-01 2.572430e-01 2.117553e+00 1.004046e+00 2.202718e+00 1.088265e+02 1.961876e-01 1.416735e-01 1.889920e-01 2.265538e-01 2.567759e-01 2.881978e-01 3.095066e-01 3.241497e-01 3.321871e-01 3.398041e-01 3.490993e-01 3.225032e-01 5.969499e-01 8.402884e-02 6.395943e-02 8.495706e-02 1.004268e-01 1.146905e-01 1.261095e-01 1.389028e-01 1.449947e-01 1.489752e-01 1.550025e-01 1.546446e-01 1.478576e-01 2.574081e-01
<VARIANCE> 39
 2.362245e+00 1.118745e+00 1.961345e+00 2.805040e+00 3.752664e+00 4.540586e+00 5.260564e+00 5.637225e+00 5.908938e+00 6.495152e+00 6.662091e+00 5.894641e+00 2.530524e+01 2.367014e-01 1.258947e-01 2.229793e-01 3.169344e-01 4.117824e-01 5.006672e-01 5.959163e-01 6.517603e-01 6.808756e-01 7.311451e-01 7.420179e-01 6.648684e-01 2.207554e+00 4.519632e-02 2.531518e-02 4.486935e-02 6.410532e-02 8.323210e-02 1.013159e-01 1.204971e-01 1.315758e-01 1.374472e-01 1.475208e-01 1.502004e-01 1.342835e-01 4.083790e-01
<GCONST> 5.158651e+01
<MIXTURE> 6 6.250000e-02
<MEAN> 39
 -2.879819e+01 -3.800020e+00 -7.902782e+00 -2.576251e+00 -3.565226e+00 -1.609708e+00 -1.790308e+00 -1.089759e-01 -7.150893e-01 1.098129e+00 -2.839500e-02 1.231563e+00 1.068143e+02 1.579739e-03 -2.530292e-04 1.092255e-04 1.366094e-03 9.477139e-05 5.166382e-03 7.241517e-04 1.223043e-03 2.126366e-03 -2.223939e-03 4.537418e-03 -3.654629e-03 2.636313e-03 -1.008864e-03 3.164597e-04 2.275221e-04 -8.492917e-04 -7.094443e-04 -1.211174e-03 5.204231e-05 -9.885430e-05 6.796718e-04 1.368783e-03 -3.781617e-04 1.278728e-03 1.789987e-03
<VARIANCE> 39
 2.362245e+00 1.118745e+00 1.961345e+00 2.805040e+00 3.752664e+00 4.540586e+00 5.260564e+00 5.637225e+00 5.908938e+00 6.495152e+00 6.662091e+00 5.894641e+00 2.530524e+01 2.367014e-01 1.258947e-01 2.229793e-01 3.169344e-01 4.117824e-01 5.006672e-01 5.959163e-01 6.517603e-01 6.808756e-01 7.311451e-01 7.420179e-01 6.648684e-01 2.207554e+00 4.519632e-02 2.531518e-02 4.486935e-02 6.410532e-02 8.323210e-02 1.013159e-01 1.204971e-01 1.315758e-01 1.374472e-01 1.475208e-01 1.502004e-01 1.342835e-01 4.083790e-01
<GCONST> 5.158651e+01
<MIXTURE> 7 6.250000e-02
<MEAN> 39
 -2.879819e+01 -3.800020e+00 -7.902782e+00 -2.576251e+00 -3.565226e+00 -1.609708e+00 -1.790308e+00 -1.089759e-01 -7.150893e-01 1.098129e+00 -2.839500e-02 1.231563e+00 1.068143e+02 1.579739e-03 -2.530292e-04 1.092255e-04 1.366094e-03 9.477139e-05 5.166382e-03 7.241517e-04 1.223043e-03 2.126366e-03 -2.223939e-03 4.537418e-03 -3.654629e-03 2.636313e-03 -1.008864e-03 3.164597e-04 2.275221e-04 -8.492917e-04 -7.094443e-04 -1.211174e-03 5.204231e-05 -9.885430e-05 6.796718e-04 1.368783e-03 -3.781617e-04 1.278728e-03 1.789987e-03
<VARIANCE> 39
 2.362245e+00 1.118745e+00 1.961345e+00 2.805040e+00 3.752664e+00 4.540586e+00 5.260564e+00 5.637225e+00 5.908938e+00 6.495152e+00 6.662091e+00 5.894641e+00 2.530524e+01 2.367014e-01 1.258947e-01 2.229793e-01 3.169344e-01 4.117824e-01 5.006672e-01 5.959163e-01 6.517603e-01 6.808756e-01 7.311451e-01 7.420179e-01 6.648684e-01 2.207554e+00 4.519632e-02 2.531518e-02 4.486935e-02 6.410532e-02 8.323210e-02 1.013159e-01 1.204971e-01 1.315758e-01 1.374472e-01 1.475208e-01 1.502004e-01 1.342835e-01 4.083790e-01
<GCONST> 5.158651e+01
<MIXTURE> 8 1.250000e-01
<MEAN> 39
 -2.972037e+01 -4.434645e+00 -8.743071e+00 -3.581146e+00 -4.727534e+00 -2.888227e+00 -3.166463e+00 -1.533546e+00 -2.173588e+00 -4.310062e-01 -1.577057e+00 -2.251700e-01 1.037960e+02 -2.903320e-01 -2.131429e-01 -2.832149e-01 -3.364155e-01 -3.849269e-01 -4.193807e-01 -4.624496e-01 -4.831670e-01 -4.929647e-01 -5.152661e-01 -5.123053e-01 -4.928914e-01 -8.888341e-01 -1.285654e-01 -9.514801e-02 -1.268668e-01 -1.527635e-01 -1.738093e-01 -1.921921e-01 -2.082241e-01 -2.177391e-01 -2.217636e-01 -2.290818e-01 -2.329123e-01 -2.185895e-01 -3.816372e-01
<VARIANCE> 39
 2.362245e+00 1.118745e+00 1.961345e+00 2.805040e+00 3.752664e+00 4.540586e+00 5.260564e+00 5.637225e+00 5.908938e+00 6.495152e+00 6.662091e+00 5.894641e+00 2.530524e+01 2.367014e-01 1.258947e-01 2.229793e-01 3.169344e-01 4.117824e-01 5.006672e-01 5.959163e-01 6.517603e-01 6.808756e-01 7.311451e-01 7.420179e-01 6.648684e-01 2.207554e+00 4.519632e-02 2.531518e-02 4.486935e-02 6.410532e-02 8.323210e-02 1.013159e-01 1.204971e-01 1.315758e-01 1.374472e-01 1.475208e-01 1.502004e-01 1.342835e-01 4.083790e-01
<GCONST> 5.158651e+01
<MIXTURE> 9 6.250000e-02
<MEAN> 39
 -2.818340e+01 -3.376937e+00 -7.342590e+00 -1.906321e+00 -2.790354e+00 -7.573618e-01 -8.728712e-01 8.407377e-01 2.572430e-01 2.117553e+00 1.004046e+00 2.202718e+00 1.088265e+02 1.961876e-01 1.416735e-01 1.889919e-01 2.265538e-01 2.567759e-01 2.881978e-01 3.095066e-01 3.241497e-01 3.321871e-01 3.398041e-01 3.490993e-01 3.225032e-01 5.969499e-01 8.402884e-02 6.395943e-02 8.495706e-02 1.004268e-01 1.146905e-01 1.261095e-01 1.389028e-01 1.449947e-01 1.489752e-01 1.550025e-01 1.546446e-01 1.478576e-01 2.574081e-01
<VARIANCE> 39
 2.362245e+00 1.118745e+00 1.961345e+00 2.805040e+00 3.752664e+00 4.540586e+00 5.260564e+00 5.637225e+00 5.908938e+00 6.495152e+00 6.662091e+00 5.894641e+00 2.530524e+01 2.367014e-01 1.258947e-01 2.229793e-01 3.169344e-01 4.117824e-01 5.006672e-01 5.959163e-01 6.517603e-01 6.808756e-01 7.311451e-01 7.420179e-01 6.648684e-01 2.207554e+00 4.519632e-02 2.531518e-02 4.486935e-02 6.410532e-02 8.323210e-02 1.013159e-01 1.204971e-01 1.315758e-01 1.374472e-01 1.475208e-01 1.502004e-01 1.342835e-01 4.083790e-01
<GCONST> 5.158651e+01
<MIXTURE> 10 6.250000e-02
<MEAN> 39
 -2.879819e+01 -3.800020e+00 -7.902782e+00 -2.576251e+00 -3.565226e+00 -1.609708e+00 -1.790308e+00 -1.089759e-01 -7.150893e-01 1.098129e+00 -2.839500e-02 1.231563e+00 1.068143e+02 1.579739e-03 -2.530292e-04 1.092255e-04 1.366094e-03 9.477139e-05 5.166382e-03 7.241517e-04 1.223043e-03 2.126366e-03 -2.223939e-03 4.537418e-03 -3.654629e-03 2.636313e-03 -1.008864e-03 3.164597e-04 2.275221e-04 -8.492917e-04 -7.094443e-04 -1.211174e-03 5.204231e-05 -9.885430e-05 6.796718e-04 1.368783e-03 -3.781617e-04 1.278728e-03 1.789987e-03
<VARIANCE> 39
 2.362245e+00 1.118745e+00 1.961345e+00 2.805040e+00 3.752664e+00 4.540586e+00 5.260564e+00 5.637225e+00 5.908938e+00 6.495152e+00 6.662091e+00 5.894641e+00 2.530524e+01 2.367014e-01 1.258947e-01 2.229793e-01 3.169344e-01 4.117824e-01 5.006672e-01 5.959163e-01 6.517603e-01 6.808756e-01 7.311451e-01 7.420179e-01 6.648684e-01 2.207554e+00 4.519632e-02 2.531518e-02 4.486935e-02 6.410532e-02 8.323210e-02 1.013159e-01 1.204971e-01 1.315758e-01 1.374472e-01 1.475208e-01 1.502004e-01 1.342835e-01 4.083790e-01
<GCONST> 5.158651e+01
<MIXTURE> 11 6.250000e-02
<MEAN> 39
 -2.879819e+01 -3.800020e+00 -7.902782e+00 -2.576251e+00 -3.565226e+00 -1.609708e+00 -1.790308e+00 -1.089759e-01 -7.150893e-01 1.098129e+00 -2.839497e-02 1.231563e+00 1.068143e+02 1.579739e-03 -2.530292e-04 1.092255e-04 1.366094e-03 9.477139e-05 5.166382e-03 7.241517e-04 1.223043e-03 2.126366e-03 -2.223939e-03 4.537418e-03 -3.654629e-03 2.636313e-03 -1.008864e-03 3.164597e-04 2.275221e-04 -8.492917e-04 -7.094443e-04 -1.211174e-03 5.204231e-05 -9.885430e-05 6.796718e-04 1.368783e-03 -3.781617e-04 1.278728e-03 1.789987e-03
<VARIANCE> 39
 2.362245e+00 1.118745e+00 1.961345e+00 2.805040e+00 3.752664e+00 4.540586e+00 5.260564e+00 5.637225e+00 5.908938e+00 6.495152e+00 6.662091e+00 5.894641e+00 2.530524e+01 2.367014e-01 1.258947e-01 2.229793e-01 3.169344e-01 4.117824e-01 5.006672e-01 5.959163e-01 6.517603e-01 6.808756e-01 7.311451e-01 7.420179e-01 6.648684e-01 2.207554e+00 4.519632e-02 2.531518e-02 4.486935e-02 6.410532e-02 8.323210e-02 1.013159e-01 1.204971e-01 1.315758e-01 1.374472e-01 1.475208e-01 1.502004e-01 1.342835e-01 4.083790e-01
<GCONST> 5.158651e+01
<MIXTURE> 12 6.250000e-02
<MEAN> 39
 -2.941297e+01 -4.223103e+00 -8.462975e+00 -3.246181e+00 -4.340098e+00 -2.462054e+00 -2.707745e+00 -1.058690e+00 -1.687422e+00 7.870555e-02 -1.060836e+00 2.604077e-01 1.048021e+02 -1.930281e-01 -1.421796e-01 -1.887735e-01 -2.238216e-01 -2.565863e-01 -2.778650e-01 -3.080583e-01 -3.217037e-01 -3.279344e-01 -3.442520e-01 -3.400244e-01 -3.298125e-01 -5.916773e-01 -8.604658e-02 -6.332652e-02 -8.450203e-02 -1.021254e-01 -1.161093e-01 -1.285318e-01 -1.387987e-01 -1.451924e-01 -1.476158e-01 -1.522650e-01 -1.554009e-01 -1.453001e-01 -2.538282e-01
<VARIANCE> 39
 2.362245e+00 1.118745e+00 1.961345e+00 2.805040e+00 3.752664e+00 4.540586e+00 5.260564e+00 5.637225e+00 5.908938e+00 6.495152e+00 6.662091e+00 5.894641e+00 2.530524e+01 2.367014e-01 1.258947e-01 2.229793e-01 3.169344e-01 4.117824e-01 5.006672e-01 5.959163e-01 6.517603e-01 6.808756e-01 7.311451e-01 7.420179e-01 6.648684e-01 2.207554e+00 4.519632e-02 2.531518e-02 4.486935e-02 6.410532e-02 8.323210e-02 1.013159e-01 1.204971e-01 1.315758e-01 1.374472e-01 1.475208e-01 1.502004e-01 1.342835e-01 4.083790e-01
<GCONST> 5.158651e+01
<MIXTURE> 13 6.250000e-02
<MEAN> 39
 -2.879819e+01 -3.800020e+00 -7.902782e+00 -2.576251e+00 -3.565226e+00 -1.609708e+00 -1.790308e+00 -1.089759e-01 -7.150893e-01 1.098129e+00 -2.839494e-02 1.231563e+00 1.068143e+02 1.579747e-03 -2.530366e-04 1.092255e-04 1.366094e-03 9.477139e-05 5.166382e-03 7.241368e-04 1.223028e-03 2.126366e-03 -2.223939e-03 4.537433e-03 -3.654629e-03 2.636313e-03 -1.008868e-03 3.164560e-04 2.275184e-04 -8.492917e-04 -7.094443e-04 -1.211181e-03 5.203485e-05 -9.885430e-05 6.796718e-04 1.368791e-03 -3.781617e-04 1.278728e-03 1.789987e-03
<VARIANCE> 39
 2.362245e+00 1.118745e+00 1.961345e+00 2.805040e+00 3.752664e+00 4.540586e+00 5.260564e+00 5.637225e+00 5.908938e+00 6.495152e+00 6.662091e+00 5.894641e+00 2.530524e+01 2.367014e-01 1.258947e-01 2.229793e-01 3.169344e-01 4.117824e-01 5.006672e-01 5.959163e-01 6.517603e-01 6.808756e-01 7.311451e-01 7.420179e-01 6.648684e-01 2.207554e+00 4.519632e-02 2.531518e-02 4.486935e-02 6.410532e-02 8.323210e-02 1.013159e-01 1.204971e-01 1.315758e-01 1.374472e-01 1.475208e-01 1.502004e-01 1.342835e-01 4.083790e-01
<GCONST> 5.158651e+01
<MIXTURE> 14 6.250000e-02
<MEAN> 39
 -2.941297e+01 -4.223103e+00 -8.462975e+00 -3.246181e+00 -4.340098e+00 -2.462054e+00 -2.707745e+00 -1.058690e+00 -1.687422e+00 7.870555e-02 -1.060836e+00 2.604077e-01 1.048021e+02 -1.930281e-01 -1.421796e-01 -1.887735e-01 -2.238216e-01 -2.565863e-01 -2.778650e-01 -3.080583e-01 -3.217037e-01 -3.279344e-01 -3.442520e-01 -3.400244e-01 -3.298125e-01 -5.916773e-01 -8.604658e-02 -6.332652e-02 -8.450203e-02 -1.021254e-01 -1.161093e-01 -1.285318e-01 -1.387987e-01 -1.451924e-01 -1.476158e-01 -1.522650e-01 -1.554009e-01 -1.453001e-01 -2.538282e-01
<VARIANCE> 39
 2.362245e+00 1.118745e+00 1.961345e+00 2.805040e+00 3.752664e+00 4.540586e+00 5.260564e+00 5.637225e+00 5.908938e+00 6.495152e+00 6.662091e+00 5.894641e+00 2.530524e+01 2.367014e-01 1.258947e-01 2.229793e-01 3.169344e-01 4.117824e-01 5.006672e-01 5.959163e-01 6.517603e-01 6.808756e-01 7.311451e-01 7.420179e-01 6.648684e-01 2.207554e+00 4.519632e-02 2.531518e-02 4.486935e-02 6.410532e-02 8.323210e-02 1.013159e-01 1.204971e-01 1.315758e-01 1.374472e-01 1.475208e-01 1.502004e-01 1.342835e-01 4.083790e-01
<GCONST> 5.158651e+01
<MIXTURE> 15 6.250000e-02
<MEAN> 39
 -2.941297e+01 -4.223103e+00 -8.462975e+00 -3.246181e+00 -4.340098e+00 -2.462054e+00 -2.707745e+00 -1.058690e+00 -1.687422e+00 7.870555e-02 -1.060836e+00 2.604078e-01 1.048021e+02 -1.930281e-01 -1.421796e-01 -1.887735e-01 -2.238216e-01 -2.565863e-01 -2.778650e-01 -3.080583e-01 -3.217037e-01 -3.279344e-01 -3.442520e-01 -3.400244e-01 -3.298125e-01 -5.916773e-01 -8.604658e-02 -6.332652e-02 -8.450203e-02 -1.021254e-01 -1.161093e-01 -1.285318e-01 -1.387987e-01 -1.451924e-01 -1.476158e-01 -1.522650e-01 -1.554009e-01 -1.453001e-01 -2.538282e-01
<VARIANCE> 39
 2.362245e+00 1.118745e+00 1.961345e+00 2.805040e+00 3.752664e+00 4.540586e+00 5.260564e+00 5.637225e+00 5.908938e+00 6.495152e+00 6.662091e+00 5.894641e+00 2.530524e+01 2.367014e-01 1.258947e-01 2.229793e-01 3.169344e-01 4.117824e-01 5.006672e-01 5.959163e-01 6.517603e-01 6.808756e-01 7.311451e-01 7.420179e-01 6.648684e-01 2.207554e+00 4.519632e-02 2.531518e-02 4.486935e-02 6.410532e-02 8.323210e-02 1.013159e-01 1.204971e-01 1.315758e-01 1.374472e-01 1.475208e-01 1.502004e-01 1.342835e-01 4.083790e-01
<GCONST> 5.158651e+01
<TRANSP> 3
 0.000000e+00 1.000000e+00 0.000000e+00
 0.000000e+00 9.834388e-01 1.656117e-02
 0.000000e+00 0.000000e+00 0.000000e+00
<ENDHMM>
~h "female"
<BEGINHMM>
<NUMSTATES> 3
<STATE> 2
<NUMMIXES> 15
<MIXTURE> 1 6.250000e-02
<MEAN> 39
 -2.800503e+01 -3.109634e+00 -7.128781e+00 -1.086112e+00 -2.409960e+00 3.853512e-01 -1.475520e-01 1.842130e+00 1.173752e+00 3.069476e+00 2.181605e+00 3.266529e+00 1.075120e+02 2.024278e-01 2.742077e-01 3.729666e-01 4.600058e-01 5.055546e-01 5.725809e-01 6.089349e-01 6.402727e-01 6.566073e-01 6.839929e-01 7.000391e-01 6.460586e-01 1.422214e-01 9.138995e-02 1.225048e-01 1.658746e-01 2.032207e-01 2.279230e-01 2.574583e-01 2.736268e-01 2.873574e-01 2.921994e-01 3.073348e-01 3.112639e-01 2.878413e-01 4.789679e-02
<VARIANCE> 39
 6.033518e-01 1.080745e+00 1.865504e+00 2.830259e+00 3.810943e+00 4.507018e+00 5.224521e+00 5.565503e+00 5.875437e+00 6.413548e+00 6.750505e+00 5.804102e+00 1.940955e-01 6.399069e-02 1.185673e-01 2.157116e-01 3.192115e-01 3.999224e-01 5.055761e-01 5.849028e-01 6.378943e-01 6.625354e-01 7.250256e-01 7.545453e-01 6.504031e-01 3.040411e-02 1.293249e-02 2.365485e-02 4.352644e-02 6.420408e-02 8.150315e-02 1.026432e-01 1.182941e-01 1.287074e-01 1.329326e-01 1.470740e-01 1.516714e-01 1.290363e-01 3.708489e-03
<GCONST> 3.329905e+01
<MIXTURE> 2 6.250000e-02
<MEAN> 39
 -2.831574e+01 -3.525470e+00 -7.675116e+00 -1.759047e+00 -3.190825e+00 -4.638384e-01 -1.061841e+00 8.984770e-01 2.041796e-01 2.056477e+00 1.142336e+00 2.302860e+00 1.073358e+02 1.012422e-01 1.364733e-01 1.871875e-01 2.340106e-01 2.525969e-01 2.881655e-01 3.030191e-01 3.207996e-01 3.310221e-01 3.433991e-01 3.525809e-01 3.234683e-01 7.247431e-02 4.590150e-02 6.098431e-02 8.242269e-02 1.018666e-01 1.137279e-01 1.293064e-01 1.360512e-01 1.438542e-01 1.463597e-01 1.539339e-01 1.554839e-01 1.441548e-01 2.353784e-02
<VARIANCE> 39
 6.033518e-01 1.080745e+00 1.865504e+00 2.830259e+00 3.810943e+00 4.507018e+00 5.224521e+00 5.565503e+00 5.875437e+00 6.413548e+00 6.750505e+00 5.804102e+00 1.940955e-01 6.399069e-02 1.185673e-01 2.157116e-01 3.192115e-01 3.999224e-01 5.055761e-01 5.849028e-01 6.378943e-01 6.625354e-01 7.250256e-01 7.545453e-01 6.504031e-01 3.040411e-02 1.293249e-02 2.365485e-02 4.352644e-02 6.420408e-02 8.150315e-02 1.026432e-01 1.182941e-01 1.287074e-01 1.329326e-01 1.470740e-01 1.516714e-01 1.290363e-01 3.708489e-03
<GCONST> 3.329905e+01
<MIXTURE> 3 6.250000e-02
<MEAN> 39
 -2.831574e+01 -3.525470e+00 -7.675116e+00 -1.759047e+00 -3.190825e+00 -4.638384e-01 -1.061841e+00 8.984770e-01 2.041796e-01 2.056477e+00 1.142336e+00 2.302860e+00 1.073358e+02 1.012422e-01 1.364733e-01 1.871875e-01 2.340106e-01 2.525969e-01 2.881655e-01 3.030191e-01 3.207996e-01 3.310221e-01 3.433991e-01 3.525809e-01 3.234683e-01 7.247431e-02 4.590150e-02 6.098431e-02 8.242269e-02 1.018666e-01 1.137279e-01 1.293064e-01 1.360512e-01 1.438542e-01 1.463597e-01 1.539339e-01 1.554839e-01 1.441548e-01 2.353784e-02
<VARIANCE> 39
 6.033518e-01 1.080745e+00 1.865504e+00 2.830259e+00 3.810943e+00 4.507018e+00 5.224521e+00 5.565503e+00 5.875437e+00 6.413548e+00 6.750505e+00 5.804102e+00 1.940955e-01 6.399069e-02 1.185673e-01 2.157116e-01 3.192115e-01 3.999224e-01 5.055761e-01 5.849028e-01 6.378943e-01 6.625354e-01 7.250256e-01 7.545453e-01 6.504031e-01 3.040411e-02 1.293249e-02 2.365485e-02 4.352644e-02 6.420408e-02 8.150315e-02 1.026432e-01 1.182941e-01 1.287074e-01 1.329326e-01 1.470740e-01 1.516714e-01 1.290363e-01 3.708489e-03
<GCONST> 3.329905e+01
<MIXTURE> 4 6.250000e-02
<MEAN> 39
 -2.862644e+01 -3.941305e+00 -8.221450e+00 -2.431982e+00 -3.971691e+00 -1.313028e+00 -1.976129e+00 -4.517573e-02 -7.653924e-01 1.043477e+00 1.030665e-01 1.339192e+00 1.071596e+02 5.670637e-05 -1.261115e-03 1.408488e-03 8.015350e-03 -3.607869e-04 3.749996e-03 -2.896667e-03 1.326472e-03 5.437016e-03 2.805352e-03 5.122602e-03 8.779764e-04 2.727211e-03 4.130565e-04 -5.362239e-04 -1.029275e-03 5.125254e-04 -4.670843e-04 1.154467e-03 -1.524463e-03 3.509372e-04 5.200505e-04 5.329400e-04 -2.961755e-04 4.682690e-04 -8.211080e-04
<VARIANCE> 39
 6.033518e-01 1.080745e+00 1.865504e+00 2.830259e+00 3.810943e+00 4.507018e+00 5.224521e+00 5.565503e+00 5.875437e+00 6.413548e+00 6.750505e+00 5.804102e+00 1.940955e-01 6.399069e-02 1.185673e-01 2.157116e-01 3.192115e-01 3.999224e-01 5.055761e-01 5.849028e-01 6.378943e-01 6.625354e-01 7.250256e-01 7.545453e-01 6.504031e-01 3.040411e-02 1.293249e-02 2.365485e-02 4.352644e-02 6.420408e-02 8.150315e-02 1.026432e-01 1.182941e-01 1.287074e-01 1.329326e-01 1.470740e-01 1.516714e-01 1.290363e-01 3.708489e-03
<GCONST> 3.329905e+01
<MIXTURE> 5 6.250000e-02
<MEAN> 39
 -2.831574e+01 -3.525470e+00 -7.675116e+00 -1.759047e+00 -3.190825e+00 -4.638384e-01 -1.061841e+00 8.984770e-01 2.041796e-01 2.056477e+00 1.142336e+00 2.302860e+00 1.073358e+02 1.012422e-01 1.364733e-01 1.871875e-01 2.340106e-01 2.525969e-01 2.881655e-01 3.030191e-01 3.207996e-01 3.310221e-01 3.433991e-01 3.525809e-01 3.234683e-01 7.247431e-02 4.590150e-02 6.098431e-02 8.242269e-02 1.018666e-01 1.137279e-01 1.293064e-01 1.360512e-01 1.438542e-01 1.463597e-01 1.539339e-01 1.554839e-01 1.441548e-01 2.353784e-02
<VARIANCE> 39
 6.033518e-01 1.080745e+00 1.865504e+00 2.830259e+00 3.810943e+00 4.507018e+00 5.224521e+00 5.565503e+00 5.875437e+00 6.413548e+00 6.750505e+00 5.804102e+00 1.940955e-01 6.399069e-02 1.185673e-01 2.157116e-01 3.192115e-01 3.999224e-01 5.055761e-01 5.849028e-01 6.378943e-01 6.625354e-01 7.250256e-01 7.545453e-01 6.504031e-01 3.040411e-02 1.293249e-02 2.365485e-02 4.352644e-02 6.420408e-02 8.150315e-02 1.026432e-01 1.182941e-01 1.287074e-01 1.329326e-01 1.470740e-01 1.516714e-01 1.290363e-01 3.708489e-03
<GCONST> 3.329905e+01
<MIXTURE> 6 6.250000e-02
<MEAN> 39
 -2.862644e+01 -3.941305e+00 -8.221450e+00 -2.431982e+00 -3.971691e+00 -1.313028e+00 -1.976129e+00 -4.517573e-02 -7.653924e-01 1.043477e+00 1.030665e-01 1.339192e+00 1.071596e+02 5.670264e-05 -1.261108e-03 1.408488e-03 8.015357e-03 -3.607869e-04 3.749996e-03 -2.896652e-03 1.326472e-03 5.437031e-03 2.805337e-03 5.122602e-03 8.779913e-04 2.727211e-03 4.130546e-04 -5.362239e-04 -1.029279e-03 5.125254e-04 -4.670843e-04 1.154460e-03 -1.524471e-03 3.509372e-04 5.200431e-04 5.329326e-04 -2.961680e-04 4.682690e-04 -8.211080e-04
<VARIANCE> 39
 6.033518e-01 1.080745e+00 1.865504e+00 2.830259e+00 3.810943e+00 4.507018e+00 5.224521e+00 5.565503e+00 5.875437e+00 6.413548e+00 6.750505e+00 5.804102e+00 1.940955e-01 6.399069e-02 1.185673e-01 2.157116e-01 3.192115e-01 3.999224e-01 5.055761e-01 5.849028e-01 6.378943e-01 6.625354e-01 7.250256e-01 7.545453e-01 6.504031e-01 3.040411e-02 1.293249e-02 2.365485e-02 4.352644e-02 6.420408e-02 8.150315e-02 1.026432e-01 1.182941e-01 1.287074e-01 1.329326e-01 1.470740e-01 1.516714e-01 1.290363e-01 3.708489e-03
<GCONST> 3.329905e+01
<MIXTURE> 7 6.250000e-02
<MEAN> 39
 -2.862644e+01 -3.941305e+00 -8.221450e+00 -2.431982e+00 -3.971691e+00 -1.313028e+00 -1.976129e+00 -4.517573e-02 -7.653924e-01 1.043477e+00 1.030665e-01 1.339192e+00 1.071596e+02 5.670264e-05 -1.261108e-03 1.408488e-03 8.015357e-03 -3.607869e-04 3.749996e-03 -2.896652e-03 1.326472e-03 5.437031e-03 2.805337e-03 5.122602e-03 8.779913e-04 2.727211e-03 4.130546e-04 -5.362239e-04 -1.029279e-03 5.125254e-04 -4.670843e-04 1.154460e-03 -1.524471e-03 3.509372e-04 5.200431e-04 5.329326e-04 -2.961680e-04 4.682690e-04 -8.211080e-04
<VARIANCE> 39
 6.033518e-01 1.080745e+00 1.865504e+00 2.830259e+00 3.810943e+00 4.507018e+00 5.224521e+00 5.565503e+00 5.875437e+00 6.413548e+00 6.750505e+00 5.804102e+00 1.940955e-01 6.399069e-02 1.185673e-01 2.157116e-01 3.192115e-01 3.999224e-01 5.055761e-01 5.849028e-01 6.378943e-01 6.625354e-01 7.250256e-01 7.545453e-01 6.504031e-01 3.040411e-02 1.293249e-02 2.365485e-02 4.352644e-02 6.420408e-02 8.150315e-02 1.026432e-01 1.182941e-01 1.287074e-01 1.329326e-01 1.470740e-01 1.516714e-01 1.290363e-01 3.708489e-03
<GCONST> 3.329905e+01
<MIXTURE> 8 1.250000e-01
<MEAN> 39
 -2.909249e+01 -4.565058e+00 -9.040950e+00 -3.441385e+00 -5.142989e+00 -2.586812e+00 -3.347562e+00 -1.460655e+00 -2.219750e+00 -4.760221e-01 -1.455837e+00 -1.063102e-01 1.068953e+02 -1.517216e-01 -2.078627e-01 -2.772601e-01 -3.309775e-01 -3.797973e-01 -4.228732e-01 -4.617703e-01 -4.778832e-01 -4.829407e-01 -5.080853e-01 -5.160648e-01 -4.830075e-01 -1.018934e-01 -6.781961e-02 -9.281702e-02 -1.262072e-01 -1.515186e-01 -1.717596e-01 -1.910734e-01 -2.078879e-01 -2.149039e-01 -2.182395e-01 -2.295684e-01 -2.339662e-01 -2.150615e-01 -3.735953e-02
<VARIANCE> 39
 6.033518e-01 1.080745e+00 1.865504e+00 2.830259e+00 3.810943e+00 4.507018e+00 5.224521e+00 5.565503e+00 5.875437e+00 6.413548e+00 6.750505e+00 5.804102e+00 1.940955e-01 6.399069e-02 1.185673e-01 2.157116e-01 3.192115e-01 3.999224e-01 5.055761e-01 5.849028e-01 6.378943e-01 6.625354e-01 7.250256e-01 7.545453e-01 6.504031e-01 3.040411e-02 1.293249e-02 2.365485e-02 4.352644e-02 6.420408e-02 8.150315e-02 1.026432e-01 1.182941e-01 1.287074e-01 1.329326e-01 1.470740e-01 1.516714e-01 1.290363e-01 3.708489e-03
<GCONST> 3.329905e+01
<MIXTURE> 9 6.250000e-02
<MEAN> 39
 -2.831574e+01 -3.525470e+00 -7.675116e+00 -1.759047e+00 -3.190825e+00 -4.638384e-01 -1.061841e+00 8.984770e-01 2.041796e-01 2.056477e+00 1.142336e+00 2.302860e+00 1.073358e+02 1.012422e-01 1.364733e-01 1.871876e-01 2.340106e-01 2.525969e-01 2.881655e-01 3.030191e-01 3.207996e-01 3.310221e-01 3.433991e-01 3.525809e-01 3.234683e-01 7.247432e-02 4.590150e-02 6.098431e-02 8.242269e-02 1.018666e-01 1.137279e-01 1.293064e-01 1.360512e-01 1.438542e-01 1.463597e-01 1.539339e-01 1.554839e-01 1.441548e-01 2.353784e-02
<VARIANCE> 39
 6.033518e-01 1.080745e+00 1.865504e+00 2.830259e+00 3.810943e+00 4.507018e+00 5.224521e+00 5.565503e+00 5.875437e+00 6.413548e+00 6.750505e+00 5.804102e+00 1.940955e-01 6.399069e-02 1.185673e-01 2.157116e-01 3.192115e-01 3.999224e-01 5.055761e-01 5.849028e-01 6.378943e-01 6.625354e-01 7.250256e-01 7.545453e-01 6.504031e-01 3.040411e-02 1.293249e-02 2.365485e-02 4.352644e-02 6.420408e-02 8.150315e-02 1.026432e-01 1.182941e-01 1.287074e-01 1.329326e-01 1.470740e-01 1.516714e-01 1.290363e-01 3.708489e-03
<GCONST> 3.329905e+01
<MIXTURE> 10 6.250000e-02
<MEAN> 39
 -2.862644e+01 -3.941305e+00 -8.221450e+00 -2.431982e+00 -3.971691e+00 -1.313028e+00 -1.976129e+00 -4.517573e-02 -7.653924e-01 1.043477e+00 1.030665e-01 1.339192e+00 1.071596e+02 5.670264e-05 -1.261108e-03 1.408488e-03 8.015357e-03 -3.607869e-04 3.749996e-03 -2.896652e-03 1.326472e-03 5.437031e-03 2.805337e-03 5.122602e-03 8.779913e-04 2.727211e-03 4.130546e-04 -5.362239e-04 -1.029279e-03 5.125254e-04 -4.670843e-04 1.154460e-03 -1.524471e-03 3.509372e-04 5.200431e-04 5.329326e-04 -2.961680e-04 4.682690e-04 -8.211080e-04
<VARIANCE> 39
 6.033518e-01 1.080745e+00 1.865504e+00 2.830259e+00 3.810943e+00 4.507018e+00 5.224521e+00 5.565503e+00 5.875437e+00 6.413548e+00 6.750505e+00 5.804102e+00 1.940955e-01 6.399069e-02 1.185673e-01 2.157116e-01 3.192115e-01 3.999224e-01 5.055761e-01 5.849028e-01 6.378943e-01 6.625354e-01 7.250256e-01 7.545453e-01 6.504031e-01 3.040411e-02 1.293249e-02 2.365485e-02 4.352644e-02 6.420408e-02 8.150315e-02 1.026432e-01 1.182941e-01 1.287074e-01 1.329326e-01 1.470740e-01 1.516714e-01 1.290363e-01 3.708489e-03
<GCONST> 3.329905e+01
<MIXTURE> 11 6.250000e-02
<MEAN> 39
 -2.862644e+01 -3.941305e+00 -8.221450e+00 -2.431982e+00 -3.971691e+00 -1.313028e+00 -1.976129e+00 -4.517573e-02 -7.653924e-01 1.043477e+00 1.030665e-01 1.339192e+00 1.071596e+02 5.670264e-05 -1.261108e-03 1.408488e-03 8.015357e-03 -3.607869e-04 3.749996e-03 -2.896652e-03 1.326472e-03 5.437031e-03 2.805337e-03 5.122602e-03 8.779913e-04 2.727211e-03 4.130546e-04 -5.362220e-04 -1.029279e-03 5.125254e-04 -4.670843e-04 1.154460e-03 -1.524471e-03 3.509372e-04 5.200431e-04 5.329326e-04 -2.961680e-04 4.682690e-04 -8.211080e-04
<VARIANCE> 39
 6.033518e-01 1.080745e+00 1.865504e+00 2.830259e+00 3.810943e+00 4.507018e+00 5.224521e+00 5.565503e+00 5.875437e+00 6.413548e+00 6.750505e+00 5.804102e+00 1.940955e-01 6.399069e-02 1.185673e-01 2.157116e-01 3.192115e-01 3.999224e-01 5.055761e-01 5.849028e-01 6.378943e-01 6.625354e-01 7.250256e-01 7.545453e-01 6.504031e-01 3.040411e-02 1.293249e-02 2.365485e-02 4.352644e-02 6.420408e-02 8.150315e-02 1.026432e-01 1.182941e-01 1.287074e-01 1.329326e-01 1.470740e-01 1.516714e-01 1.290363e-01 3.708489e-03
<GCONST> 3.329905e+01
<MIXTURE> 12 6.250000e-02
<MEAN> 39
 -2.893714e+01 -4.357141e+00 -8.767783e+00 -3.104917e+00 -4.752556e+00 -2.162218e+00 -2.890418e+00 -9.888285e-01 -1.734964e+00 3.047764e-02 -9.362028e-01 3.755239e-01 1.069834e+02 -1.011288e-01 -1.389955e-01 -1.843706e-01 -2.179799e-01 -2.533185e-01 -2.806655e-01 -3.088124e-01 -3.181467e-01 -3.201481e-01 -3.377884e-01 -3.423357e-01 -3.217123e-01 -6.701989e-02 -4.507539e-02 -6.205676e-02 -8.448124e-02 -1.008416e-01 -1.146621e-01 -1.269974e-01 -1.391001e-01 -1.431523e-01 -1.453196e-01 -1.528680e-01 -1.560762e-01 -1.432182e-01 -2.518005e-02
<VARIANCE> 39
 6.033518e-01 1.080745e+00 1.865504e+00 2.830259e+00 3.810943e+00 4.507018e+00 5.224521e+00 5.565503e+00 5.875437e+00 6.413548e+00 6.750505e+00 5.804102e+00 1.940955e-01 6.399069e-02 1.185673e-01 2.157116e-01 3.192115e-01 3.999224e-01 5.055761e-01 5.849028e-01 6.378943e-01 6.625354e-01 7.250256e-01 7.545453e-01 6.504031e-01 3.040411e-02 1.293249e-02 2.365485e-02 4.352644e-02 6.420408e-02 8.150315e-02 1.026432e-01 1.182941e-01 1.287074e-01 1.329326e-01 1.470740e-01 1.516714e-01 1.290363e-01 3.708489e-03
<GCONST> 3.329905e+01
<MIXTURE> 13 6.250000e-02
<MEAN> 39
 -2.862644e+01 -3.941305e+00 -8.221450e+00 -2.431982e+00 -3.971691e+00 -1.313028e+00 -1.976129e+00 -4.517573e-02 -7.653924e-01 1.043477e+00 1.030666e-01 1.339192e+00 1.071596e+02 5.670637e-05 -1.261115e-03 1.408488e-03 8.015350e-03 -3.607869e-04 3.749996e-03 -2.896667e-03 1.326472e-03 5.437016e-03 2.805352e-03 5.122602e-03 8.779764e-04 2.727211e-03 4.130565e-04 -5.362220e-04 -1.029275e-03 5.125254e-04 -4.670843e-04 1.154467e-03 -1.524463e-03 3.509372e-04 5.200505e-04 5.329400e-04 -2.961755e-04 4.682690e-04 -8.211080e-04
<VARIANCE> 39
 6.033518e-01 1.080745e+00 1.865504e+00 2.830259e+00 3.810943e+00 4.507018e+00 5.224521e+00 5.565503e+00 5.875437e+00 6.413548e+00 6.750505e+00 5.804102e+00 1.940955e-01 6.399069e-02 1.185673e-01 2.157116e-01 3.192115e-01 3.999224e-01 5.055761e-01 5.849028e-01 6.378943e-01 6.625354e-01 7.250256e-01 7.545453e-01 6.504031e-01 3.040411e-02 1.293249e-02 2.365485e-02 4.352644e-02 6.420408e-02 8.150315e-02 1.026432e-01 1.182941e-01 1.287074e-01 1.329326e-01 1.470740e-01 1.516714e-01 1.290363e-01 3.708489e-03
<GCONST> 3.329905e+01
<MIXTURE> 14 6.250000e-02
<MEAN> 39
 -2.893714e+01 -4.357141e+00 -8.767783e+00 -3.104917e+00 -4.752556e+00 -2.162218e+00 -2.890418e+00 -9.888285e-01 -1.734964e+00 3.047764e-02 -9.362028e-01 3.755239e-01 1.069834e+02 -1.011288e-01 -1.389955e-01 -1.843706e-01 -2.179799e-01 -2.533185e-01 -2.806655e-01 -3.088124e-01 -3.181467e-01 -3.201481e-01 -3.377884e-01 -3.423357e-01 -3.217123e-01 -6.701989e-02 -4.507539e-02 -6.205676e-02 -8.448124e-02 -1.008416e-01 -1.146621e-01 -1.269974e-01 -1.391001e-01 -1.431523e-01 -1.453196e-01 -1.528680e-01 -1.560762e-01 -1.432182e-01 -2.518005e-02
<VARIANCE> 39
 6.033518e-01 1.080745e+00 1.865504e+00 2.830259e+00 3.810943e+00 4.507018e+00 5.224521e+00 5.565503e+00 5.875437e+00 6.413548e+00 6.750505e+00 5.804102e+00 1.940955e-01 6.399069e-02 1.185673e-01 2.157116e-01 3.192115e-01 3.999224e-01 5.055761e-01 5.849028e-01 6.378943e-01 6.625354e-01 7.250256e-01 7.545453e-01 6.504031e-01 3.040411e-02 1.293249e-02 2.365485e-02 4.352644e-02 6.420408e-02 8.150315e-02 1.026432e-01 1.182941e-01 1.287074e-01 1.329326e-01 1.470740e-01 1.516714e-01 1.290363e-01 3.708489e-03
<GCONST> 3.329905e+01
<MIXTURE> 15 6.250000e-02
<MEAN> 39
 -2.893714e+01 -4.357141e+00 -8.767783e+00 -3.104917e+00 -4.752556e+00 -2.162218e+00 -2.890418e+00 -9.888285e-01 -1.734964e+00 3.047764e-02 -9.362028e-01 3.755239e-01 1.069834e+02 -1.011288e-01 -1.389955e-01 -1.843706e-01 -2.179799e-01 -2.533185e-01 -2.806655e-01 -3.088124e-01 -3.181467e-01 -3.201481e-01 -3.377884e-01 -3.423357e-01 -3.217123e-01 -6.701989e-02 -4.507539e-02 -6.205676e-02 -8.448124e-02 -1.008416e-01 -1.146621e-01 -1.269974e-01 -1.391001e-01 -1.431523e-01 -1.453196e-01 -1.528680e-01 -1.560762e-01 -1.432182e-01 -2.518005e-02
<VARIANCE> 39
 6.033518e-01 1.080745e+00 1.865504e+00 2.830259e+00 3.810943e+00 4.507018e+00 5.224521e+00 5.565503e+00 5.875437e+00 6.413548e+00 6.750505e+00 5.804102e+00 1.940955e-01 6.399069e-02 1.185673e-01 2.157116e-01 3.192115e-01 3.999224e-01 5.055761e-01 5.849028e-01 6.378943e-01 6.625354e-01 7.250256e-01 7.545453e-01 6.504031e-01 3.040411e-02 1.293249e-02 2.365485e-02 4.352644e-02 6.420408e-02 8.150315e-02 1.026432e-01 1.182941e-01 1.287074e-01 1.329326e-01 1.470740e-01 1.516714e-01 1.290363e-01 3.708489e-03
<GCONST> 3.329905e+01
<TRANSP> 3
 0.000000e+00 1.000000e+00 0.000000e+00
 0.000000e+00 9.827933e-01 1.720667e-02
 0.000000e+00 0.000000e+00 0.000000e+00
<ENDHMM>
