~o
<STREAMINFO> 1 39
<VECSIZE> 39<NULLD><MFCC_D_A_0><DIAGC>
~h "male"
<BEGINHMM>
<NUMSTATES> 3
<STATE> 2
<MEAN> 39
 -2.879819e+01 -3.800022e+00 -7.902763e+00 -2.576227e+00 -3.565246e+00 -1.609678e+00 -1.790284e+00 -1.089731e-01 -7.150612e-01 1.098112e+00 -2.840889e-02 1.231536e+00 1.068143e+02 1.579782e-03 -2.530512e-04 1.093172e-04 1.366111e-03 9.473786e-05 5.166577e-03 7.241024e-04 1.223069e-03 2.126445e-03 -2.223953e-03 4.537442e-03 -3.654705e-03 2.636351e-03 -1.008867e-03 3.164178e-04 2.275375e-04 -8.493104e-04 -7.094454e-04 -1.210991e-03 5.204557e-05 -9.888504e-05 6.797020e-04 1.368770e-03 -3.781454e-04 1.278761e-03 1.789972e-03
<VARIANCE> 39
 2.362267e+00 1.118746e+00 1.961340e+00 2.804738e+00 3.751704e+00 4.540013e+00 5.260388e+00 5.637242e+00 5.907678e+00 6.494690e+00 6.661374e+00 5.894060e+00 2.529758e+01 2.367007e-01 1.258934e-01 2.229717e-01 3.169320e-01 4.117774e-01 5.006635e-01 5.958988e-01 6.517504e-01 6.808805e-01 7.311568e-01 7.419987e-01 6.648744e-01 2.207525e+00 4.519644e-02 2.531497e-02 4.487010e-02 6.410726e-02 8.323061e-02 1.013149e-01 1.205000e-01 1.315762e-01 1.374456e-01 1.475242e-01 1.502009e-01 1.342820e-01 4.083786e-01
<GCONST> 5.158516e+01
<TRANSP> 3
 0.000000e+00 1.000000e+00 0.000000e+00
 0.000000e+00 9.834388e-01 1.656117e-02
 0.000000e+00 0.000000e+00 0.000000e+00
<ENDHMM>
~h "female"
<BEGINHMM>
<NUMSTATES> 3
<STATE> 2
<MEAN> 39
 -2.862644e+01 -3.941307e+00 -8.221447e+00 -2.431983e+00 -3.971698e+00 -1.313032e+00 -1.976128e+00 -4.517883e-02 -7.653929e-01 1.043480e+00 1.030693e-01 1.339191e+00 1.071596e+02 5.673093e-05 -1.261119e-03 1.408504e-03 8.015327e-03 -3.608176e-04 3.749970e-03 -2.896601e-03 1.326469e-03 5.437016e-03 2.805320e-03 5.122619e-03 8.779839e-04 2.727462e-03 4.130544e-04 -5.362253e-04 -1.029281e-03 5.125233e-04 -4.670806e-04 1.154467e-03 -1.524454e-03 3.509466e-04 5.200575e-04 5.329233e-04 -2.961652e-04 4.682774e-04 -8.211079e-04
<VARIANCE> 39
 6.033506e-01 1.080741e+00 1.865512e+00 2.830251e+00 3.810899e+00 4.506984e+00 5.224555e+00 5.565513e+00 5.875422e+00 6.413554e+00 6.750521e+00 5.804081e+00 1.940959e-01 6.399053e-02 1.185674e-01 2.157107e-01 3.192111e-01 3.999230e-01 5.055753e-01 5.849022e-01 6.378915e-01 6.625338e-01 7.250248e-01 7.545444e-01 6.504030e-01 3.040414e-02 1.293257e-02 2.365499e-02 4.352629e-02 6.420424e-02 8.150261e-02 1.026433e-01 1.182937e-01 1.287071e-01 1.329322e-01 1.470743e-01 1.516716e-01 1.290362e-01 3.708493e-03
<GCONST> 3.329903e+01
<TRANSP> 3
 0.000000e+00 1.000000e+00 0.000000e+00
 0.000000e+00 9.827933e-01 1.720667e-02
 0.000000e+00 0.000000e+00 0.000000e+00
<ENDHMM>
