~o
<STREAMINFO> 1 39
<VECSIZE> 39<NULLD><MFCC_D_A_0><DIAGC>
~h "proto"
<BEGINHMM>
<NUMSTATES> 3
<STATE> 2
<MEAN> 39
 -2.914898e+01 -3.743268e+00 -7.273635e+00 -1.688771e+00 -1.820179e+00 3.178154e-01 -7.626714e-01 -9.707277e-01 -2.666398e+00 -7.938645e-02 1.241008e+00 2.102431e+00 1.063261e+02 -1.702766e-03 -2.013416e-03 -5.971761e-03 -5.920153e-04 6.693061e-03 1.695990e-02 3.650341e-03 -4.232707e-03 -6.173785e-03 2.019083e-03 2.625836e-02 5.120694e-03 4.728742e-02 -6.302147e-04 2.514307e-03 1.725597e-03 -2.411278e-03 -4.584596e-04 -6.857194e-03 -1.526146e-03 6.093927e-03 5.931288e-03 1.676917e-03 -7.102397e-03 -6.368671e-03 -7.403125e-04
<VARIANCE> 39
 1.183105e+00 9.912024e-01 1.787186e+00 2.887334e+00 3.753034e+00 5.539848e+00 5.034989e+00 5.680146e+00 6.032866e+00 6.255111e+00 6.928653e+00 5.560583e+00 2.898730e+01 1.241731e-01 1.170411e-01 2.107304e-01 3.259532e-01 4.331614e-01 5.651716e-01 5.970142e-01 6.825668e-01 7.105117e-01 7.173795e-01 7.351800e-01 6.572214e-01 1.130030e+00 2.584011e-02 2.196166e-02 3.946676e-02 6.113060e-02 8.132848e-02 1.053838e-01 1.120822e-01 1.280500e-01 1.328555e-01 1.343520e-01 1.372040e-01 1.228952e-01 2.167801e-01
<GCONST> 4.787877e+01
<TRANSP> 3
 0.000000e+00 1.000000e+00 0.000000e+00
 0.000000e+00 7.000000e-01 3.000000e-01
 0.000000e+00 0.000000e+00 0.000000e+00
<ENDHMM>
