~o
<STREAMINFO> 1 39
<VECSIZE> 39<NULLD><MFCC_D_A_0><DIAGC>
~h "proto"
<BEGINHMM>
<NUMSTATES> 3
<STATE> 2
<MEAN> 39
 -2.914861e+01 -3.743425e+00 -7.272954e+00 -1.687632e+00 -1.817492e+00 3.267645e-01 -7.486851e-01 -9.617469e-01 -2.661965e+00 -7.489835e-02 1.244366e+00 2.100139e+00 1.063763e+02 -2.343856e-03 -2.219407e-03 -5.744800e-03 -6.156996e-04 6.508076e-03 1.719144e-02 4.047751e-03 -3.734664e-03 -7.252475e-03 7.731298e-04 2.468026e-02 3.066332e-03 4.579226e-02 -6.441476e-04 2.706204e-03 1.741769e-03 -2.363626e-03 -3.726192e-04 -7.032012e-03 -1.762973e-03 5.701380e-03 6.138850e-03 1.578094e-03 -7.334066e-03 -6.567939e-03 -4.911430e-04
<VARIANCE> 39
 1.221008e+00 9.827166e-01 1.779377e+00 2.870585e+00 3.737673e+00 5.558623e+00 5.035319e+00 5.704062e+00 6.051837e+00 6.256010e+00 6.904526e+00 5.551537e+00 2.053418e+01 1.245273e-01 1.164724e-01 2.102892e-01 3.244755e-01 4.327405e-01 5.640642e-01 5.973492e-01 6.831718e-01 7.122228e-01 7.225803e-01 7.355158e-01 6.598548e-01 1.099956e+00 2.589909e-02 2.192070e-02 3.942702e-02 6.090267e-02 8.126662e-02 1.053959e-01 1.119580e-01 1.282013e-01 1.332042e-01 1.356636e-01 1.371914e-01 1.231894e-01 2.104400e-01
<GCONST> 4.750549e+01
<TRANSP> 3
 0.000000e+00 1.000000e+00 0.000000e+00
 0.000000e+00 7.000000e-01 3.000000e-01
 0.000000e+00 0.000000e+00 0.000000e+00
<ENDHMM>
